{"sizes": [784, 126, 126, 10], "weights": [[[0.027564357966184616, -0.004960056394338608, -0.005869034677743912, 0.011285234242677689, -0.018735431134700775, -0.03520520403981209, -0.004014957696199417, 0.002422831952571869, 0.02064066007733345, 0.034837882965803146, -0.0033975355327129364, 0.02339678630232811, 0.025396527722477913, 0.02241947129368782, 0.02876928076148033, 0.014691577292978764, -0.031547389924526215, 0.001059073954820633, -0.008136358112096786, 0.018484916538000107, -0.015163473784923553, 0.03385889157652855, 0.027557741850614548, 0.02703852578997612, -0.007980287075042725, 0.012034062296152115, -0.03513287380337715, -0.016636934131383896, 0.02301209047436714, 0.028506312519311905, -0.022891730070114136, 0.006489064544439316, -0.033290620893239975, 0.0009392587235197425, -0.027120191603899002, 0.011121601797640324, 0.0006131911068223417, -0.015004574321210384, 0.00047925891703926027, -0.023085542023181915, -0.03275386989116669, 0.03171585127711296, 0.0180862657725811, 0.01619619131088257, 0.01696947030723095, 0.011586436070501804, 0.01793801411986351, 0.020163754001259804, -0.001673711696639657, -0.008867157623171806, -0.002687405329197645, 0.03285498544573784, -0.009828725829720497, 0.022976499050855637, -0.010346358641982079, -0.004490422084927559, -0.032255858182907104, -0.034656964242458344, 0.01352288294583559, -0.031869955360889435, 0.01804148219525814, -0.033988334238529205, -0.007304844446480274, -0.014072670601308346, 0.0005096325767226517, 0.02219848893582821, -0.02675267867743969, -0.012751353904604912, -0.02953016757965088, 0.02847973257303238, 0.005235843826085329, -0.013150874525308609, 0.0020069300662726164, 0.028274504467844963, 0.03141796588897705, -0.0291358083486557, 0.02688978984951973, 0.03608661890029907, 0.003250838490203023, 0.011636695824563503, 0.0025708796456456184, 0.002342801308259368, 0.030213113874197006, -0.006384249776601791, -0.0256996750831604, 0.0177307091653347, -0.009136548265814781, 0.003304525278508663, -0.029192717745900154, 0.025552868843078613, -0.02961678057909012, 0.009609040804207325, -0.012016726657748222, 0.013233429752290249, -0.02055322378873825, 0.006470247637480497, -0.025847241282463074, 0.023978151381015778, -0.021146172657608986, 0.0025520846247673035, -0.02035408280789852, 0.010010636411607265, 0.018758919090032578, 0.00640052929520607, 0.0347147062420845, 0.005867902189493179, 0.035432059317827225, -0.0011228722287341952, 0.0027743931859731674, 0.026075240224599838, -0.028012439608573914, -0.0240792129188776, 0.015177153050899506, 0.012262575328350067, -0.017439186573028564, -0.004853635095059872, 0.008273965679109097, 0.026249198243021965, 0.011106809601187706, -0.02642936259508133, 0.015355764888226986, 0.006367754191160202, 0.02070220559835434, -0.014573815278708935, 0.006085176020860672, -0.039352744817733765, 0.013790859840810299, -0.007708810735493898, -0.03785127401351929, -0.003331453073769808, 0.01904900372028351, 0.008474955335259438, -0.015825238078832626, 0.044159580022096634, -0.015126330778002739, -0.012694732286036015, 0.025726135820150375, 0.029256753623485565, 0.023214465007185936, 0.030582794919610023, -0.005601005628705025, -0.003160722553730011, 0.02482675015926361, 0.018581151962280273, -0.010054180398583412, 0.02558896318078041, -0.031451571732759476, -0.01855863817036152, 0.0010998239740729332, 0.019614215940237045, -0.019600771367549896, -0.005181243643164635, 0.02135803923010826, -0.012186523526906967, -0.011442960239946842, 0.007577968295663595, 0.009739691391587257, -0.02427586354315281, 0.02492275834083557, -0.035919252783060074, 0.009659063071012497, 0.03730887547135353, -0.005897636990994215, 0.03615414351224899, 0.026022203266620636, 0.030996710062026978, -0.031382959336042404, -0.01585032418370247, -0.014221660792827606, 0.004166348371654749, -0.02718491479754448, 0.015231659635901451, 0.0017877150094136596, -0.005269154440611601, -0.02630690671503544, -0.02234918810427189, -0.014387333765625954, 0.024094099178910255, -0.002469311933964491, -0.002861414570361376, -0.02080654725432396, -0.03097570687532425, -0.04734800010919571, -0.046290840953588486, -0.022985614836215973, -0.004207709804177284, 0.008934439159929752, -0.01880539581179619, -0.004596096463501453, 0.017609653994441032, 0.04243769124150276, 0.043148402124643326, -0.024236464872956276, 0.034698374569416046, 0.012335573323071003, -0.012083676643669605, -0.03505723923444748, -0.020441168919205666, 0.03452558070421219, 0.019812988117337227, 0.009476310573518276, 0.030337166041135788, -0.02441594749689102, 0.02165544033050537, -0.003796409582719207, 0.008949024602770805, -0.016705308109521866, 0.003585250349715352, -0.03830594941973686, -0.039489369839429855, -0.05972045660018921, -0.0580163449048996, -0.04022529721260071, -0.03986983746290207, -0.003248707391321659, -0.06676194816827774, 0.0009664015960879624, 0.007998255081474781, 0.006154973991215229, -0.011311277747154236, -0.018354887142777443, -0.009275225922465324, 0.030974283814430237, -0.028406765311956406, 0.013791782781481743, 0.025035245344042778, -0.019212501123547554, -0.02903820015490055, 0.01313274446874857, -0.011151076294481754, 0.029537862166762352, 0.0017518316162750125, -0.0047159637324512005, -0.007995344698429108, 0.007763210218399763, -0.021117135882377625, 0.009063133969902992, -0.04832782968878746, -0.002306761220097542, -0.05917514115571976, -0.03288912773132324, -0.016479235142469406, -0.0280616357922554, -0.041701093316078186, -0.036741144955158234, -0.020916957408189774, 0.024310540407896042, -0.013216929510235786, 0.0027231567073613405, -0.00907453615218401, -0.03030368499457836, 0.02089032344520092, -0.03335826098918915, 0.024899818003177643, 0.008870220743119717, -0.003816684242337942, 0.029385162517428398, 0.012320113368332386, -0.015839846804738045, -0.016063306480646133, 0.022594446316361427, 0.03399944305419922, 0.0239150021225214, -0.011938137002289295, 0.008422407321631908, -0.05006510391831398, -0.04530680552124977, -0.02947409078478813, -0.022229697555303574, 0.008340556174516678, -0.016304023563861847, -0.033189959824085236, 0.003197396406903863, -0.029960257932543755, -0.00420781783759594, 0.047184739261865616, -0.010462990030646324, -0.02191479317843914, 0.002967705950140953, -0.01037339586764574, -0.03490104153752327, 0.028705229982733727, 0.0177219957113266, -0.03186890482902527, -0.001998941181227565, 0.028826270252466202, 0.014064223505556583, -0.029894646257162094, -0.025128962472081184, 0.0399949885904789, 0.047527965158224106, 0.02730741910636425, 0.012444253079593182, -0.03210566192865372, -0.061584580689668655, -0.001127509749494493, 0.046845417469739914, 0.01359932404011488, 0.04985662177205086, 0.004345501307398081, 0.0176466703414917, -0.010773321613669395, -0.029766133055090904, 0.010524378158152103, 0.023505816236138344, 0.00021667781402356923, 0.0010785050690174103, -0.00851157121360302, -0.025494270026683807, 0.012429327704012394, 0.020058855414390564, -0.033315259963274, -0.023729614913463593, -0.014754910953342915, 0.016803961247205734, -0.004103298764675856, 0.03308048099279404, -0.011147809214890003, 0.016345374286174774, -0.02044554427266121, -0.02964196540415287, -0.008516359142959118, -0.029573790729045868, -0.056060463190078735, -0.009370348416268826, 0.008402155712246895, 0.014561757445335388, -0.01153734140098095, -0.03504014015197754, 0.019036434590816498, -0.0059725199826061726, 0.028946995735168457, -0.0023963144049048424, -0.023852035403251648, -0.027771389111876488, -0.007917388342320919, 0.03115803934633732, 0.035078343003988266, 0.01886613667011261, -0.004211278632283211, -0.01869918219745159, 0.02673443965613842, -0.0033030901104211807, -0.011843571439385414, -0.021454261615872383, -0.019513946026563644, 0.01739315688610077, 0.03890948370099068, -0.00621026149019599, -0.005243327002972364, -0.05657057836651802, -0.05695446953177452, 0.025226624682545662, -0.014871581457555294, 0.028381960466504097, -0.0021534825209528208, -0.013149377889931202, -0.00886190589517355, -0.02826595865190029, -0.018975455313920975, -0.018668711185455322, -0.013552567921578884, 0.0033191393595188856, 0.008534497581422329, 0.02534782886505127, 0.00906772818416357, -0.003481882158666849, 0.008479833602905273, -0.025304310023784637, 0.03235912322998047, 0.05587131530046463, 0.04094035550951958, 0.03694213926792145, 0.03213650733232498, 0.04752783849835396, 0.043354492634534836, -0.01884334906935692, -0.03808694705367088, -0.0794941708445549, -0.061765119433403015, -0.03929069638252258, 0.0056755440309643745, 0.020990880206227303, 0.017453903332352638, -0.015565095469355583, -0.004243616014719009, 0.008290927857160568, 0.057070352137088776, -0.011590679176151752, -0.0014396551996469498, -0.019588181748986244, 0.007164460606873035, -0.017164578661322594, 0.023477965965867043, 0.0005732318386435509, 0.022834785282611847, -0.03599969670176506, -0.001809370587579906, 0.03665245696902275, 0.01118542067706585, -0.0028415562119334936, 0.014668209478259087, 0.05103122442960739, -0.011343097314238548, -0.029237402603030205, -0.026020804420113564, -0.042861200869083405, -0.004016435705125332, -0.008130277507007122, 0.01955474726855755, -0.0032598080579191446, 0.02935594506561756, -0.023719677701592445, -0.000537216488737613, 0.027469048276543617, 0.05294886603951454, 0.02683601900935173, -0.01837214082479477, -0.03062553144991398, 0.017543571069836617, -0.0006198679911904037, 0.010813744738698006, -0.02348305657505989, 0.019947024062275887, -0.02026875503361225, -0.011326143518090248, 0.04225693643093109, 0.045063167810440063, 0.038168929517269135, 0.0019376046257093549, 0.023463156074285507, 0.038157474249601364, 0.008316128514707088, -0.015398441813886166, -0.045684486627578735, -0.04889439046382904, -0.03439163416624069, 0.002625582041218877, -0.005657950881868601, 0.01657175086438656, -0.0036868522875010967, 0.03308451548218727, 0.046076204627752304, 0.03973944112658501, 0.024105152115225792, 0.011101257055997849, -0.03016706556081772, 0.009428124874830246, 0.03344433382153511, 0.0235242061316967, -0.008190742693841457, 0.026425790041685104, -0.021121559664607048, -0.01797822304069996, 0.04427623003721237, 0.03442295268177986, 0.02808798849582672, -0.026420237496495247, 0.017556285485625267, -0.03948148339986801, -0.03452841192483902, -0.05160943418741226, -0.05985381081700325, 0.03628072142601013, -0.012842613272368908, 0.04080122336745262, -0.0031193275935947895, -0.0008539395639672875, 0.033730775117874146, 0.04194573685526848, -0.0031734267249703407, 0.011625063605606556, -0.01793079636991024, -0.03363736718893051, -0.016790878027677536, 0.009178681299090385, -0.033759549260139465, 0.016388559713959694, 0.017885904759168625, 0.021181972697377205, -0.03305647522211075, 0.004392419476062059, -0.016508163884282112, 0.017390485852956772, -0.02975814789533615, -0.020450133830308914, 0.02730659581720829, -0.045909758657217026, -0.05065063014626503, -0.013718340545892715, -0.01495310477912426, 0.01418082695454359, 0.018323777243494987, 0.01618915982544422, 0.02499278075993061, -0.017090562731027603, 0.011715728789567947, 0.020900702103972435, 0.0035932513419538736, 0.017681336030364037, 0.022418178617954254, 0.023849785327911377, 0.016744501888751984, -0.016795406118035316, -0.014309297315776348, 0.02724922075867653, 0.023172656074166298, 0.00426363293081522, -0.005644610151648521, 0.03039206750690937, -0.009593564085662365, 0.030392570421099663, -0.013104720041155815, 0.010812865570187569, -0.03572896122932434, 0.017243891954421997, 0.02295980416238308, 0.0029229812789708376, -0.019590826705098152, 0.018511010333895683, 0.016637256368994713, 0.02100357413291931, -0.016574878245592117, -0.007830232381820679, 0.001073352643288672, 0.013510897755622864, -0.025242725387215614, -0.03246244788169861, 0.010559601709246635, 0.008568837307393551, 0.02456323429942131, 0.032360006123781204, 0.00035952305188402534, -0.031112901866436005, -0.020828986540436745, -0.03545746952295303, 0.011252804659307003, 0.020117292180657387, -0.005881957709789276, 0.020030999556183815, -0.0033565270714461803, -0.023763716220855713, -0.00960452388972044, 0.044523708522319794, -0.0033700442872941494, 0.009643916971981525, 0.0466393381357193, 0.04112444072961807, -0.0014754555886611342, 0.025572044774889946, -0.02810089848935604, 0.02502553164958954, -0.03192838281393051, 0.0019452382111921906, -0.008922572247684002, -0.033860549330711365, 0.011653349734842777, -0.03541826829314232, -0.03169190511107445, -0.028611723333597183, -0.017652461305260658, -0.015905974432826042, 0.0078134099021554, -0.010890310630202293, 0.011421234346926212, -0.032137636095285416, -0.03979771211743355, -0.04316098242998123, -0.02179507166147232, 0.0212436243891716, -0.023662040010094643, 0.032024841755628586, 0.015335914678871632, 0.039452068507671356, -0.009626565501093864, 0.011074320413172245, -0.031163137406110764, -0.015868576243519783, 0.02053726278245449, -0.017301714047789574, -0.027867857366800308, 0.01653224416077137, -0.046587951481342316, 0.0023904265835881233, -0.00852268561720848, 0.028137486428022385, -0.01151131372898817, 0.01637791469693184, -0.030478602275252342, -0.021330052986741066, -0.036297935992479324, 0.006322348956018686, 0.00023874662292655557, -0.029330912977457047, -8.009883458726108e-07, -0.04800788313150406, 0.008890400640666485, -0.007075796369463205, 0.023439986631274223, 0.04303307831287384, 0.007946470752358437, -0.006780383642762899, 0.03105267696082592, 0.011486236937344074, 0.027413921430706978, -0.011959572322666645, -0.012565461918711662, -0.009764576330780983, 0.0184504222124815, 0.014984210021793842, 0.029557470232248306, -0.01324105728417635, 0.012620107270777225, 0.03048352338373661, -0.019966857507824898, -0.017601879313588142, -0.014144130051136017, 0.029365574941039085, 0.022386183962225914, -0.016006574034690857, 0.02724701538681984, -0.017560670152306557, -0.036964863538742065, 0.017070773988962173, -0.010311523452401161, -0.03388143703341484, -0.02693399228155613, -0.012964004650712013, -0.009465498849749565, 0.034791454672813416, -0.028132902458310127, 0.003767650341615081, 0.037754058837890625, 0.00845191441476345, 0.004824560601264238, -0.019552288576960564, -0.017687169834971428, -0.027362756431102753, 0.003899096744135022, -0.006600959692150354, -0.03416998311877251, -0.03148418292403221, -0.03284093737602234, 0.03466782718896866, -0.019178757444024086, -0.02756437659263611, -0.014409217052161694, -0.029797488823533058, -0.036644380539655685, -0.014277083799242973, 0.021777881309390068, -0.02956942841410637, -0.031357597559690475, 0.02562500722706318, 0.030597403645515442, 0.029910920187830925, -0.00829028058797121, -0.016901390627026558, 0.04538329318165779, 0.003367259632796049, -0.006020170170813799, -0.002261960878968239, 0.024232394993305206, 0.012854734435677528, 0.009502191096544266, 0.026268109679222107, -0.014858298934996128, -0.0034026172943413258, -0.03635382652282715, -0.03475949540734291, 0.03480382636189461, 0.020152948796749115, -0.003845721483230591, -0.011842435225844383, -0.014682726003229618, 0.03440094366669655, 0.02892061322927475, -0.037864651530981064, -0.039719510823488235, 0.00855912733823061, -0.037884119898080826, 0.011916125193238258, -0.00989186018705368, 0.009987279772758484, -0.022968165576457977, 0.02228953130543232, -0.008756768889725208, -0.01872401125729084, -0.011235632933676243, 0.005312682129442692, 0.0006671249866485596, -0.02384839579463005, -0.027329538017511368, -0.01657634600996971, 0.0214752908796072, 0.022396145388484, -0.0024589858949184418, 0.030463986098766327, -0.01768762804567814, -0.031150545924901962, -0.020009927451610565, -0.03226880729198456, -0.016997195780277252, -0.03247815743088722, 0.014892836101353168, 0.006563004571944475, 0.011145301163196564, -0.017478670924901962, -0.004582914058119059, -0.04248907417058945, -0.0308381337672472, -0.041502825915813446, 0.0043858992867171764, 0.008489889092743397, -0.010256893001496792, -0.004449056461453438, -0.016369808465242386, 0.011494483798742294, -0.030326170846819878, -0.018283793702721596, 0.015540015883743763, 0.013200686313211918, 0.031064298003911972, 0.0011615469120442867, -0.03477422520518303, 0.029559612274169922, -0.005289511289447546, -0.026239804923534393, -0.009481485933065414, -0.011933432891964912, -0.03445948287844658, 0.02817804552614689, 0.015271847136318684, 0.011404411867260933, 0.007935923524200916, 0.024838490411639214, -0.008805876597762108, -0.0420895554125309, 0.0076583391055464745, -0.02750535123050213, -0.030986495316028595, -0.04451341927051544, -0.014292905107140541, -0.01610124297440052, 0.008781054988503456, -0.037951141595840454, -0.009627639316022396, 0.02736949920654297, 0.02862853929400444, -0.010073315352201462, -0.005208674818277359, -0.020860210061073303, 0.022839760407805443, -0.02438102290034294, -0.013784417882561684, -0.03535466268658638, -0.006739344447851181, -0.035181593149900436, 0.005477230995893478, 0.011970847845077515, -0.030534865334630013, -0.0029142654966562986, -0.016367942094802856, 0.0028378914576023817, -0.030161291360855103, -0.02631872519850731, -0.03147644177079201, -0.034122318029403687, 0.02534855157136917, 0.033523641526699066, -0.011986793018877506, 0.017790427431464195, -0.007693230174481869, -5.706212323275395e-05, -0.009772236458957195, -0.003961955662816763, 0.011843306943774223, -0.02990262769162655, 0.028672581538558006, -0.026094138622283936, -0.015402501448988914, -0.02886577695608139, -0.02741360291838646, -0.00018940120935440063], [-0.02441590279340744, 0.021145354956388474, -0.002849370241165161, -0.012279536575078964, 0.0067853666841983795, -0.005901001393795013, 0.025010373443365097, 0.0027688443660736084, -0.015022436156868935, -0.012835916131734848, -0.0020852312445640564, 0.035517651587724686, -0.012104019522666931, -0.033795084804296494, -0.025518575683236122, 0.009047402068972588, 0.022989574819803238, -0.023554589599370956, -0.033683087676763535, 0.030783411115407944, 0.01669781282544136, 0.004129502922296524, -0.03306548297405243, -0.029316890984773636, -0.018493572250008583, -0.018696198239922523, 0.021170970052480698, -0.0005483590066432953, 0.008636031299829483, 0.031489621847867966, -0.006955908611416817, 0.0010699108242988586, -0.015071689151227474, 0.03227885067462921, 0.021269893273711205, -0.034225769340991974, 0.008217480033636093, 0.014767412096261978, -0.005170451011508703, -0.004363727755844593, 0.010689371265470982, -0.015616006217896938, -0.004057253245264292, -0.013411973603069782, 0.011224018409848213, -0.00795439537614584, -0.02075592614710331, 0.031927939504384995, 0.029662493616342545, -0.0007733248639851809, 0.015370463952422142, 0.03075709380209446, 0.01866714283823967, -0.014255136251449585, -0.03478257730603218, 0.023839056491851807, 0.0030886419117450714, -0.01062145084142685, 0.018775181844830513, -0.006414917763322592, -0.018885428085923195, 0.019702617079019547, -0.017861058935523033, -0.00801000278443098, -0.017641713842749596, -0.033618900924921036, -0.009299028664827347, 0.01941719651222229, -0.004054806660860777, -0.0029111045878380537, -0.033966634422540665, 0.030198100954294205, -0.00880533829331398, -0.01982048712670803, -0.021833989769220352, -0.0029025233816355467, -0.003228797810152173, 0.0037302146665751934, -0.036963555961847305, -0.01670866645872593, 0.002491655992344022, -0.023314939811825752, -0.015386475250124931, 0.007847242057323456, -0.019712530076503754, 0.030764397233724594, -0.022566840052604675, 0.015023774467408657, -0.003486186731606722, -0.008052648976445198, -0.0058664679527282715, -0.015391158871352673, -0.02799220010638237, -0.006963751744478941, -0.017510373145341873, -0.028553754091262817, 0.0007552827592007816, -0.01204882375895977, 0.0017399719217792153, -0.007018066011369228, -0.005635764449834824, -0.024844150990247726, -0.03072124533355236, -0.0054918695241212845, -0.004431604873389006, -0.020016057416796684, 0.01502714678645134, 0.015611235983669758, -0.024242937564849854, 0.024130908772349358, 0.022888632491230965, -0.011322146281599998, -0.028827490285038948, -0.019239645451307297, -0.029732931405305862, 0.0032666416373103857, 0.015908176079392433, 0.03491050377488136, -0.0147621538490057, -0.0035908713471144438, 0.0022109707351773977, -0.04464809224009514, -0.038077354431152344, -0.005064618773758411, -0.02284979820251465, 0.030734125524759293, 0.04126887395977974, 0.021259024739265442, -0.01648804545402527, -0.01885000802576542, -0.008056129328906536, -0.030302442610263824, 0.03123374842107296, -0.013621129095554352, 0.02393108420073986, 0.011452044360339642, -0.032532282173633575, 0.0001380606699967757, -0.023665061220526695, -0.02903786674141884, 0.0013066716492176056, 0.006904717534780502, 0.02764960378408432, 0.018256638199090958, 0.009542727842926979, 0.002530029509216547, 0.013133229687809944, 0.005272044334560633, -0.016194241121411324, -0.04426012560725212, -0.019877247512340546, -0.035764239728450775, 0.010327395983040333, 0.01191212609410286, -0.02053387649357319, 0.03027770295739174, -0.01791396178305149, -0.0020084241405129433, 0.017578963190317154, -0.03950074687600136, -0.00027896754909306765, -0.024844205006957054, 0.011318563483655453, 0.02455604262650013, -0.001715696882456541, 0.024779189378023148, -0.02131117694079876, 0.03503461182117462, 0.005975745618343353, 0.01910923235118389, -0.020308036357164383, 0.00532669760286808, -0.021974261850118637, 0.007717180997133255, -0.03923044353723526, -0.05023491382598877, -0.006397626828402281, -0.0065690260380506516, 0.014691286720335484, -0.03912901133298874, 0.0006967664230614901, 0.019981207326054573, -0.024297846481204033, -0.005094402004033327, -0.03201776742935181, 0.022161733359098434, 0.021297669038176537, 0.006048198323696852, 0.006570983212441206, 0.016510454937815666, 0.026527589187026024, 0.03620488941669464, 0.046072304248809814, 0.02638177201151848, 0.02990088053047657, 0.014763446524739265, -0.027389366179704666, 0.005747695919126272, 0.006256389897316694, -0.02733323536813259, 0.026472290977835655, 0.02505951002240181, 0.02330947108566761, 0.011323313228785992, -0.034266527742147446, -0.006852179765701294, 0.021756641566753387, 0.011157880537211895, 0.04021161422133446, -0.024515794590115547, 0.04693309962749481, 0.032945070415735245, 0.02965645119547844, 0.03663783147931099, 0.011600167490541935, 0.0556454099714756, 0.054517313838005066, -0.014788449741899967, 0.011919662356376648, 0.03244907781481743, 0.024272553622722626, 0.010722474195063114, -0.022637585178017616, 0.011305582709610462, -0.03229730203747749, -0.01693061552941799, -0.019411901012063026, -0.012662121094763279, 0.030056815594434738, 0.0025935291778296232, -0.013326163403689861, -0.03417174890637398, 0.029987918213009834, 0.0007639077957719564, -0.035866089165210724, 0.006289174780249596, 0.04473235085606575, 0.02250163070857525, 0.043180759996175766, -0.010452759452164173, 0.007297570817172527, 0.02010403200984001, 0.004402476828545332, 0.00890039186924696, 0.01687818020582199, 0.03769172728061676, -0.009451483376324177, 0.03961107134819031, -0.00902774278074503, 0.046840865164995193, 0.012514444068074226, -0.02153892256319523, -0.029704537242650986, -0.021671172231435776, 0.031318195164203644, 0.0004911174764856696, 0.006071372888982296, -0.04105081781744957, 0.00016104872338473797, 0.02586977556347847, 0.030155105516314507, 0.028074312955141068, -0.004695715848356485, 0.024254076182842255, 0.03018428198993206, 0.0040048277005553246, 0.015115308575332165, 0.062281325459480286, 0.05412425100803375, 0.03291789069771767, 0.05598163232207298, 0.04039179906249046, 0.027057448402047157, -0.019149959087371826, 0.012751216068863869, 0.03973934426903725, 0.05472381412982941, 0.0602903850376606, -0.020486200228333473, 0.0015814328799024224, -0.0004776865243911743, 0.0030091002117842436, -0.03228265419602394, 0.016622183844447136, -0.022959187626838684, -0.043504856526851654, 5.645247074426152e-05, -0.016953418031334877, 0.011191817931830883, 0.03564058244228363, 0.020194213837385178, -0.0053812554106116295, -0.004759078845381737, 0.022223014384508133, 0.010448885150253773, 0.04129599779844284, 0.047220561653375626, 0.005757104605436325, 0.01855781488120556, 0.029279058799147606, 0.021350909024477005, -0.035038698464632034, -0.024009298533201218, -0.022132206708192825, -0.0033960856962949038, 0.014675046317279339, 0.028410475701093674, -0.029465798288583755, 0.018215740099549294, 0.016361083835363388, 0.019661279395222664, 0.017331384122371674, -0.02400476299226284, 0.004807325545698404, 0.0208235252648592, -0.004845897201448679, 0.020357096567749977, -0.005142179783433676, -0.021335072815418243, -0.012380290776491165, -0.013686387799680233, 0.018726138398051262, -0.012509534135460854, 0.052898965775966644, 0.008630151860415936, 0.03774694353342056, 0.03718038648366928, -0.02088167704641819, 0.01932397671043873, -0.001495879958383739, -0.05220269411802292, -0.0054661789909005165, 0.028929494321346283, 0.04050659015774727, 0.03914467990398407, 0.0012892773374915123, 0.03013652190566063, 0.03113679215312004, -0.004652209579944611, -0.007588000036776066, 0.002033484634011984, 0.004635389894247055, -0.04047719016671181, -0.031685132533311844, 0.004975930787622929, 0.028716381639242172, -0.012279456481337547, 0.011942524462938309, -0.02387748658657074, -0.03545845299959183, 0.021409301087260246, 0.009943577460944653, 0.028568720445036888, -0.024195468053221703, -0.009166580624878407, -0.04215475916862488, -0.01643400639295578, -0.04378688335418701, -0.04151477292180061, -0.054907601326704025, -6.33142699371092e-05, -0.02800067327916622, 0.018058881163597107, -0.02789442427456379, 0.019578495994210243, 0.0016257439274340868, 0.009225817397236824, -0.011436671949923038, 0.022430403158068657, 0.012476109899580479, 0.011074872687458992, 0.010781284421682358, -0.004280467052012682, -0.024606890976428986, -0.021341856569051743, -0.00419889111071825, -0.035105008631944656, 0.0065056197345256805, -0.009242086671292782, -0.02956150472164154, 0.00766370166093111, -0.01295326929539442, -0.02957824058830738, -0.0025961692444980145, 0.004241232760250568, -0.030388861894607544, -0.061149101704359055, -0.027033895254135132, -0.014308451674878597, 0.0034760439302772284, -0.012584550306200981, 0.010338930413126945, -0.029809268191456795, 0.03151703625917435, 0.024800200015306473, 0.03542805835604668, 0.03164500370621681, 0.01573493890464306, -0.012925275601446629, -0.043073952198028564, -0.03577602654695511, 0.02132222428917885, -0.009244823828339577, -0.060248423367738724, -0.038787662982940674, 0.0006899047293700278, 0.006013029720634222, 0.03072563372552395, 0.03501035273075104, 0.012544662691652775, -0.026159727945923805, -0.02400386519730091, -0.003738837083801627, -0.02887725457549095, -0.018449116498231888, -0.02179703675210476, -0.04666529968380928, -0.033379729837179184, 0.023977668955922127, 0.026603806763887405, -0.0018574517453089356, 0.006280025001615286, -0.031571824103593826, -0.004052965901792049, 0.00448583671823144, -0.033943213522434235, -0.019730640575289726, -0.05610104650259018, 0.0016386802308261395, -0.015285066328942776, 0.010156777687370777, -0.022634074091911316, 0.027697278186678886, 0.03300422430038452, 0.04503067955374718, 0.0026591119822114706, 0.03673601895570755, -0.02827497385442257, -0.05232280120253563, -0.04149174317717552, -0.05395103618502617, -0.040220536291599274, -0.04644723981618881, 0.0203318540006876, -0.03276992589235306, 0.014453776180744171, -0.019901085644960403, 0.0100703164935112, 0.01298242062330246, 0.0026031620800495148, -0.02233351580798626, -0.02403341419994831, -0.026509273797273636, -0.017984533682465553, -0.03566128388047218, -0.0019724909216165543, -0.001319299335591495, -0.0525834858417511, -0.028701020404696465, -0.055219076573848724, -0.03575024753808975, 0.027473632246255875, -0.01551563385874033, 0.04183784872293472, -0.02693740651011467, -0.0626029372215271, -0.012949486263096333, -0.04458043351769447, -0.02114715985953808, -0.02987452782690525, 0.008007057011127472, -0.04415716230869293, -0.045333653688430786, 0.0208860095590353, -0.025759905576705933, 0.03224208578467369, 0.03530867025256157, 0.010740186087787151, -0.00950246024876833, -0.001982184359803796, 0.027294861152768135, -0.01816575601696968, -0.023364199325442314, -0.055929575115442276, -0.01438149344176054, -0.005427496042102575, -0.04248626530170441, -0.03150610998272896, -0.037996381521224976, -0.007681234739720821, -0.012150309048593044, 0.00792599655687809, -0.004151220433413982, -0.0017768590478226542, -0.017873311415314674, -0.0037344004958868027, -0.001689344528131187, 0.0029821740463376045, 0.0022553217131644487, 0.0010613828198984265, -0.023027652874588966, 0.01405302993953228, -0.018858805298805237, 0.019194144755601883, 0.013744805939495564, 0.01658061146736145, 0.02053249627351761, 0.024881215766072273, -0.024490253999829292, 0.01653093472123146, -0.04941106215119362, -0.04749520123004913, -0.0048975409008562565, 0.01779201626777649, 0.0014227076899260283, 0.0009347614250145853, -0.03305615112185478, -0.011371980421245098, 0.0409904420375824, 0.015552285127341747, -0.03998861834406853, 0.0006814455846324563, -0.03988580405712128, 0.013583825901150703, 0.0044812727719545364, -0.00016342756862286478, -0.05384419858455658, -0.0445236973464489, 0.00991600938141346, -0.02270679734647274, 0.02430601790547371, 0.026992028579115868, -0.004980562720447779, -0.033800747245550156, -0.004049398936331272, -0.012204054743051529, -0.027423132210969925, 0.016265833750367165, -0.048809196799993515, 0.02057565748691559, -0.0021277405321598053, 0.010168338194489479, -0.01438895333558321, -0.04161623865365982, -0.01026532519608736, -0.025754012167453766, -0.022932088002562523, 0.028148692101240158, 0.029332360252738, -0.016375061124563217, 0.0031484575010836124, -0.01784490793943405, 0.01235591433942318, -0.03371662274003029, -0.054483067244291306, -0.03841996565461159, 0.023480836302042007, -0.014546503312885761, -0.011887547560036182, -0.0075707826763391495, 0.005756411701440811, 0.024725250899791718, 0.029061952605843544, 0.0022865075152367353, 0.024129288271069527, 0.006332300137728453, 0.01486649177968502, 0.019150493666529655, -0.012506808154284954, -0.012762469239532948, -0.01620592549443245, -0.035924047231674194, 0.002394990297034383, 0.002647529821842909, -0.0012030277866870165, -0.005042172968387604, 0.024794926866889, -0.0015093928668648005, 0.04509288817644119, 0.022259308025240898, -0.004316471517086029, -0.005249733105301857, -0.002398500917479396, 0.012958402745425701, -0.007904627360403538, 0.02451583743095398, -0.03276935592293739, -0.007273529190570116, -0.032085660845041275, 0.004923237022012472, 0.01584014482796192, 0.02099413238465786, 0.016746927052736282, 0.010622784495353699, 0.03844498097896576, -0.010439315810799599, 0.0018378470558673143, -0.01628555729985237, -0.02753613144159317, -0.01218237541615963, -0.0045081134885549545, -0.0356585793197155, -0.007633351720869541, 0.04781097546219826, -0.0047797271981835365, -0.022860225290060043, -0.0021226888056844473, 0.026294559240341187, -0.01811993308365345, -0.022532198578119278, 0.0050967298448085785, 0.011312229558825493, -0.002980367047712207, 0.020926937460899353, 0.02323497086763382, -0.018243305385112762, -0.02849939465522766, 0.01719677448272705, -0.024535275995731354, 0.024167243391275406, 0.016130777075886726, -0.020862819626927376, -0.023637354373931885, -0.027112849056720734, -0.02232431061565876, 0.007978892885148525, -0.013526501134037971, 0.013675396330654621, 0.00039426423609256744, -0.03053489699959755, 0.013673375360667706, -0.0239931158721447, 0.04020226374268532, 0.048560142517089844, -0.01839841715991497, 0.01631632260978222, -0.029572196304798126, -0.005842539016157389, -0.03484279289841652, -0.010854179970920086, -0.005309815984219313, 0.01808582991361618, 0.018265943974256516, -0.014272307977080345, -0.0013090558350086212, 0.03500084951519966, 0.010706014931201935, -0.008796634152531624, 0.013464155606925488, 0.007222685497254133, -0.008183215744793415, 0.021245427429676056, -0.010079484432935715, 0.01784592866897583, -0.014422500506043434, -0.00048392926692031324, -0.021313469856977463, 0.02319657802581787, -0.011706629768013954, 0.0414247065782547, 0.009319748729467392, 0.010599729605019093, -0.0024883991573005915, -0.0396241620182991, 0.0059595569036901, 0.004370541777461767, 0.003722292371094227, -0.02207174152135849, 0.016390591859817505, 0.03154533728957176, 0.0182053092867136, -0.008151276037096977, -0.0073415301740169525, 0.01957385241985321, -0.03461594507098198, -0.012116659432649612, -0.028822096064686775, -0.020434880629181862, 0.030737072229385376, 0.0034428706858307123, 0.02243908867239952, 0.011214260011911392, -0.01485200971364975, 0.019870862364768982, 0.008712047711014748, 0.02007032185792923, 0.02925812639296055, 0.012278751470148563, -0.02480757236480713, -0.02811349183320999, -0.02323332242667675, -0.0009092945256270468, -0.02772797830402851, -0.021111834794282913, -0.0010874957079067826, 0.03223833441734314, -0.012217489071190357, -0.0004708622000180185, 0.01898583211004734, 0.030047539621591568, -0.023613369092345238, 0.011997148394584656, 0.004376014228910208, -0.00566312950104475, -0.02276407741010189, -0.02483188733458519, -0.016236379742622375, 0.004195318091660738, -0.0035409664269536734, -0.01852998696267605, -0.016295313835144043, 0.00508454255759716, 0.014667481184005737, 0.0012298390502110124, -0.008049667812883854, -0.026805903762578964, 0.0165330208837986, 0.021955646574497223, 0.01354236714541912, -0.028437316417694092, 0.01519874669611454, 0.03428281471133232, 0.017427856102585793, 0.023232372477650642, 0.024256207048892975, -0.030197491869330406, -0.01821565069258213, 0.020789485424757004, 0.007533330470323563, 0.011326029896736145, 0.0032880939543247223, 0.0023741512559354305, 0.01015046052634716, 0.012678814120590687, 0.016842756420373917, -0.02235116995871067, -0.006195071619004011, 0.020218849182128906, 0.022280510514974594, -0.017690328881144524, 0.022506777197122574, -0.011561868712306023, -0.000937006261665374, 0.011975210160017014, 0.0053345742635428905, -0.024994680657982826, -0.020010126754641533, 0.030100258067250252, -0.027249405160546303, 0.03352797403931618, -0.00010413448035251349, 0.02063661813735962, 0.012432688847184181, 0.01609848439693451, -0.01931447722017765, -0.008986687287688255, 0.004107531160116196, -0.028127774596214294, -0.006654063239693642, 0.015420552343130112, 0.011847782880067825, 0.02043973095715046, -0.01429460383951664, 0.03417380526661873, 0.013736056163907051, 0.02522755041718483, -0.010395986028015614, -0.024563835933804512, -0.002586244372650981, 0.011078990995883942, -0.018042786046862602, -0.014592760242521763, -0.02769293636083603, 0.0033456478267908096, -0.010070597752928734, 0.018887147307395935, 0.01479298435151577, 0.012125278823077679, 0.009937559254467487, -0.02227526716887951, 0.024732183665037155, 0.02506783977150917, -0.017574459314346313, 0.013693682849407196], [0.0217491053044796, 0.008179999887943268, -0.020643895491957664, 0.035566698759794235, 0.011319693177938461, 0.02080622687935829, 0.014912929385900497, 0.006246231496334076, 7.52471387386322e-05, 0.009977120906114578, -0.010309027507901192, 0.03217117860913277, -0.02891855686903, 0.019034966826438904, 0.007446082774549723, 0.03222088888287544, -0.013611197471618652, 0.006104249507188797, 0.01537751778960228, 0.02126369997859001, -0.0002722218632698059, -0.020935609936714172, -0.01100214570760727, 0.007122248411178589, -0.020494023337960243, -0.02495691180229187, 0.031216565519571304, -0.011113010346889496, 0.003541667014360428, -0.023464038968086243, -0.030331647023558617, 0.025151919573545456, 0.02798674814403057, 0.02923782914876938, -0.00951370969414711, 0.012352416291832924, 0.021702246740460396, 0.030836869031190872, -0.029459137469530106, -0.025230102241039276, -0.019904514774680138, -0.009090866893529892, 0.014575549401342869, 0.028443487361073494, 0.013179578818380833, -0.027984656393527985, -0.005268552340567112, 0.011920679360628128, -0.024401767179369926, -0.033361032605171204, -0.031461622565984726, -0.02566615864634514, 0.001627206802368164, -0.006200522184371948, -0.0041104815900325775, 0.007836464792490005, 0.006988558918237686, -0.014256298542022705, 0.032899752259254456, 0.033394068479537964, 0.00031015981221571565, 0.005716104060411453, -0.011081675998866558, 0.008271039463579655, 0.008855471387505531, 0.028863105922937393, -0.014496637508273125, -0.014827433973550797, -0.026080099865794182, 0.019804537296295166, -0.009762542322278023, -0.021764233708381653, -0.021199604496359825, 0.029309574514627457, -0.000841317989397794, 0.02306002378463745, 0.03500128164887428, 0.022822096943855286, 0.034046612679958344, 0.019787218421697617, 0.005392149556428194, -0.00604478782042861, 0.004284530878067017, 0.02696579322218895, -0.009025262668728828, 0.03115135058760643, -0.025113103911280632, 0.017208389937877655, -0.004445770755410194, 0.008085396140813828, -0.022929178550839424, 0.03102588653564453, 0.004318394232541323, -0.01635843887925148, -0.021662618964910507, -0.01721029356122017, 0.02883966453373432, 0.05239158496260643, 0.03515148162841797, -0.008779882453382015, 0.019897762686014175, 0.02940964885056019, 0.020434418693184853, 0.0015095439739525318, 0.032398879528045654, -0.010956086218357086, 0.00023174377565737814, -0.02823696844279766, 0.007855926640331745, -0.03372356668114662, -0.027094123885035515, 0.03090802952647209, 0.016216102987527847, 0.0018963488982990384, 0.030815858393907547, 0.021522732451558113, -0.02003021165728569, 0.01924065873026848, -8.212130342144519e-05, -0.019977273419499397, 0.001043906551785767, 0.021090097725391388, 0.00904285628348589, -0.0013014175929129124, 0.028490085154771805, 0.027588000521063805, 0.022499822080135345, 0.03203865513205528, 0.028317999094724655, 0.02930961549282074, 0.023114612326025963, 0.002410483080893755, -0.010406305082142353, 0.008946281857788563, -0.01992308348417282, 0.013254418969154358, -0.01905730366706848, 0.011424935422837734, -0.008476562798023224, 0.017786303535103798, -0.0015716738998889923, -0.034562673419713974, -0.008707582019269466, 0.02881111577153206, 4.484762393985875e-05, -0.007238266058266163, 0.048938822001218796, 0.03028438799083233, 0.008548012003302574, -0.011395384557545185, -0.004877950996160507, -0.0045084236189723015, 0.015363551676273346, 0.02654646337032318, 0.04550030082464218, 0.023627210408449173, 0.05879969894886017, 0.0031215136405080557, 0.009892548434436321, 0.05352788418531418, 5.89800147281494e-05, 0.012633495032787323, 0.01602744124829769, -0.01673952490091324, -0.03612904250621796, -0.00287953345105052, -0.017713988199830055, -0.024238254874944687, 0.006437595933675766, 0.007914653979241848, -0.01748722419142723, -0.0010879385517910123, 0.022686906158924103, 0.011542312800884247, -0.020797476172447205, -0.010278942994773388, 0.0007957324851304293, -0.05417497083544731, -0.020471731200814247, -0.0386529266834259, 0.008640645071864128, -3.259748700656928e-05, 0.061568353325128555, 0.02940109372138977, 0.07405155152082443, 0.017753994092345238, 0.022912027314305305, 0.01269005797803402, 0.03504173457622528, -0.02340679243206978, -0.009371611289680004, -0.06291364133358002, -0.05518975481390953, 0.011711033061146736, 0.029287874698638916, 0.010639620944857597, 0.03289208188652992, 0.008269107900559902, 0.0010133786126971245, -0.022909078747034073, 0.04382769763469696, -0.0009870149660855532, -0.04035846143960953, -0.003267859108746052, -0.06651314347982407, -0.016081007197499275, 0.0065755401737987995, 0.016511991620063782, 0.0019121195655316114, 0.025125976651906967, 0.03815307468175888, 0.0474318265914917, 0.019435059279203415, 0.01860455609858036, 0.04040461406111717, 0.04332442954182625, 0.021624216809868813, -0.009736559353768826, -0.04761462286114693, -0.01371829304844141, -0.009500306099653244, 0.016512904316186905, -0.0023143566213548183, 0.0277861300855875, -0.009117234498262405, -0.0072454968467354774, 0.014622055925428867, -0.001009755302220583, -0.020100075751543045, -0.009172177873551846, -0.004012135323137045, -0.02549765445291996, -0.030073415488004684, -0.04403090476989746, -0.04076927527785301, 0.01135997287929058, 0.04581744223833084, 0.014629291370511055, 0.04438203573226929, 0.012468289583921432, -0.007302819285541773, 0.006423518992960453, -0.0057160137221217155, -0.018203681334853172, -0.008173542097210884, 0.025519344955682755, -0.03184913471341133, -0.02925621159374714, -0.07228249311447144, -0.04356510192155838, 0.002366533735767007, 0.0012499261647462845, -0.016860611736774445, 0.02564115636050701, -0.010283226147294044, -0.02604551985859871, -0.019788365811109543, 0.021128615364432335, -0.03547412529587746, -0.057674340903759, -0.04367619752883911, -0.02370663732290268, -0.018727444112300873, 0.019181566312909126, 0.0164039209485054, 0.04546336084604263, 0.03750491887331009, 0.024541174992918968, 0.021055791527032852, 0.014712647534906864, -0.00048573967069387436, 0.02514883689582348, 0.002426863880828023, 0.024920208379626274, 0.0009090560488402843, -0.031178832054138184, -0.028557345271110535, 0.009340311400592327, -0.03814512491226196, 0.018814334645867348, -0.008915484882891178, 0.028133386746048927, -0.021053407341241837, 0.00870149303227663, -0.03858017921447754, 0.02172381803393364, -0.02593327686190605, -0.061037469655275345, -0.014623829163610935, -0.030995065346360207, -0.030748115852475166, 0.012844707816839218, -0.05181640386581421, 0.03481755033135414, -0.02618308924138546, -0.049868177622556686, -0.051744479686021805, -0.01083564292639494, -0.012120195664465427, -0.0003284991253167391, 0.00033705454552546144, 0.016037557274103165, -0.017610685899853706, 0.011783484369516373, 0.013534732162952423, 0.019200485199689865, 0.026945801451802254, 0.011727351695299149, 0.0143354507163167, -0.021212521940469742, -0.0002305297675775364, -0.02046395279467106, 0.0064537678845226765, 0.019866347312927246, -0.04188971221446991, -0.047427598387002945, -0.04035703092813492, -0.062379494309425354, -0.02376856841146946, 0.0005475464276969433, 0.008322053588926792, 0.04345246031880379, -0.004914793651551008, -0.010711505077779293, -0.010729988105595112, 0.049459636211395264, 0.05410568043589592, 0.07699106633663177, 0.056238338351249695, -0.0004930548020638525, 0.04534657672047615, -0.023577170446515083, 0.024287160485982895, -0.014547123573720455, 0.005589775275439024, 0.022470295429229736, -0.02077626995742321, -0.010559952817857265, -0.02755127288401127, 0.032662324607372284, -0.010571528226137161, 0.019270725548267365, -0.03227987885475159, -0.021331535652279854, -0.026608899235725403, -0.016828401014208794, 0.018837973475456238, -0.007249671034514904, 0.03500506281852722, 0.05449488386511803, 0.06482571363449097, 0.010161449201405048, 0.00036813149927183986, 0.06521761417388916, 0.047555211931467056, 0.0596739761531353, 0.0386810228228569, -0.0015161201590672135, 0.025164203718304634, 0.04606683924794197, 0.03635092079639435, -0.02220502495765686, -0.010518998838961124, 0.0015738812508061528, 0.026048555970191956, 0.004908672068268061, -0.021308761090040207, 0.016612809151411057, -0.02217300795018673, 0.00820242054760456, -0.0006490808445960283, -0.009144533425569534, -0.019271640107035637, 0.04079722240567207, 0.021180862560868263, -0.00388405192643404, 0.011608825996518135, 0.03033582493662834, 0.05517648905515671, 0.0183294415473938, 0.013240502215921879, 0.0418970063328743, 0.048419807106256485, 0.05039939656853676, 0.05143320560455322, -0.014555943198502064, 0.020607177168130875, 0.020421570166945457, -0.008928081952035427, 0.01970725879073143, 0.0010928369592875242, -0.023367714136838913, 0.02682402916252613, -0.026769118383526802, -0.03207894042134285, -0.022623537108302116, -0.026142660528421402, 0.01589030586183071, 0.011666389182209969, 0.006733678746968508, 0.03726079314947128, 0.013692470267415047, -0.02391699329018593, 0.020911240950226784, 0.01469988189637661, 0.004723432008177042, -0.0245509073138237, -0.016115432605147362, -0.006009866017848253, -0.011345047503709793, 0.00831452663987875, 0.013686065562069416, 0.05115523561835289, 0.026954561471939087, -0.004290176089853048, -0.005021771881729364, -0.01702125556766987, -0.018149318173527718, 0.017841393128037453, 0.024618050083518028, -0.00033444917062297463, 0.020894084125757217, 0.03477400168776512, 0.02699136920273304, -0.01715158112347126, 0.043027251958847046, -0.006341034546494484, 0.06036045774817467, 0.04004476219415665, -0.0008334894082508981, 0.02836688421666622, 0.05820532143115997, 0.003018829273059964, 0.014995173551142216, -0.003387018572539091, -0.005777174606919289, -0.005616322625428438, -0.02266049198806286, 0.011089639738202095, -0.0032281430903822184, 0.0419725701212883, 0.042874183505773544, 0.03819713369011879, 0.0007878642063587904, -0.006613878067582846, -0.013149170204997063, -0.02274809032678604, -0.0066322507336735725, 0.018857603892683983, -0.03226252645254135, 0.028615321964025497, 0.02500566653907299, 0.0024238950572907925, 0.03137413039803505, 0.012885366566479206, 0.002329534385353327, 0.04899108409881592, 0.021211927756667137, 0.016005435958504677, 0.012872728519141674, 0.011399058625102043, -0.012424353510141373, -0.060961320996284485, -0.05081716924905777, -0.04293522611260414, 0.005941326729953289, 0.03562493622303009, 0.03558541089296341, 0.054355889558792114, 0.045247867703437805, 0.01698395423591137, 0.026937879621982574, -0.03309108689427376, 0.010430309921503067, -0.006398872938007116, -0.023040030151605606, 0.01877482235431671, -0.0059541817754507065, -0.00836744625121355, 0.01781606860458851, 0.04202345013618469, 0.0421840101480484, -0.010062760673463345, 0.06565926969051361, 0.04585857316851616, -0.008205722086131573, 0.004018685780465603, -0.024190392345190048, -0.00252382829785347, -0.04960353299975395, -0.048520881682634354, -0.059190016239881516, 0.016484010964632034, 0.01267441175878048, 0.04586157575249672, 0.023295778781175613, 0.017005465924739838, 0.005167373456060886, 0.012308456003665924, 0.038536425679922104, -0.02655390277504921, 0.006932646036148071, 0.0020873199682682753, 0.018865933641791344, -0.025741493329405785, -0.0003959746682085097, -0.0017987031023949385, -0.013432993553578854, 0.023351719602942467, -0.0005298609030432999, 0.0018022186122834682, 0.012753949500620365, 0.05728333815932274, -0.01705535687506199, 0.010011227801442146, 0.0015052967937663198, -0.07673406600952148, -0.04243691265583038, -0.0220083799213171, 0.01736263930797577, 0.013423934578895569, 0.07111717015504837, 0.013599096797406673, 0.03388449549674988, 0.01052053738385439, 0.0157969631254673, 0.036966923624277115, 0.029475828632712364, 0.0030741356313228607, -0.028915490955114365, -0.00790506973862648, 0.01169662456959486, 0.01921246200799942, -0.035473380237817764, 0.012693860568106174, 0.03920534998178482, 0.05356440320611, 0.018558314070105553, 0.04863318055868149, 0.01441258005797863, -0.00015392138448078185, -0.013149985112249851, -0.02383272536098957, -0.006212608888745308, -0.08228999376296997, -0.06861969083547592, 0.0020810156129300594, -0.013959158211946487, 0.006676564458757639, 0.04858391359448433, 0.06968431174755096, 0.04402255266904831, 0.035499703139066696, 0.049095455557107925, 0.018629873171448708, 0.02569563314318657, -0.024389727041125298, 0.029665207490324974, 0.017641237005591393, -0.006463269703090191, -0.029770396649837494, 0.03473476320505142, -0.01855260133743286, 0.0036187299992889166, 0.006335855927318335, 0.0103984996676445, 0.05250363424420357, 0.02005222998559475, -0.003968421369791031, -0.007952520623803139, -0.0101160341873765, -0.054885514080524445, -0.05831386148929596, -0.040811628103256226, 0.019361622631549835, -0.019036106765270233, 0.023081785067915916, 0.07360801100730896, 0.013313488103449345, 0.021892795339226723, 0.03353877365589142, 0.0472075454890728, -0.02177383005619049, -0.0142487408593297, -0.012457056902348995, -0.012941624037921429, 0.003730260767042637, -0.02659561112523079, -0.02159738540649414, -0.03404352441430092, -0.030956875532865524, 0.036776285618543625, 0.03659585490822792, 0.02299170382320881, 0.0089268134906888, 0.03614666312932968, 0.03053341992199421, 0.02018873021006584, 0.004736187402158976, -0.011607506312429905, -0.05290764197707176, -0.03366389498114586, -0.02327701263129711, -0.01852875016629696, -0.00905726570636034, 0.02850218303501606, 0.04220137000083923, 0.047926198691129684, -0.021817676723003387, -0.002389161614701152, 0.01729118637740612, -0.03691555932164192, -0.02978307008743286, 0.03294449672102928, 0.001975403167307377, 0.029262594878673553, 0.012828276492655277, -0.0009281102102249861, 0.012865695171058178, 0.043172046542167664, -0.009788505733013153, -0.005617539398372173, 0.0010410065297037363, 0.02578730322420597, 0.027126094326376915, 0.021384315565228462, 0.011131145060062408, -0.022693386301398277, 0.01501871645450592, -0.027254607528448105, -0.024302296340465546, -0.037740759551525116, -0.02230823040008545, -0.019428204745054245, 0.031165560707449913, 0.021165035665035248, 0.027662815526127815, -0.04482117295265198, 0.0009576595621183515, -0.022176526486873627, 0.03095955215394497, 0.032065633684396744, -0.02285819686949253, 0.02322252467274666, 0.0174771286547184, -0.02202819287776947, -0.004520118702203035, -0.027345983311533928, -0.01744430512189865, 0.021319812163710594, 0.03826699033379555, 0.007518955040723085, 0.0040744091384112835, 0.016521604731678963, 0.028271904215216637, 0.016968542709946632, -0.006821887567639351, 0.0043434458784759045, -0.02535996027290821, -0.018869148567318916, -0.0031360983848571777, 0.003681478789076209, -0.029494427144527435, -0.013035961426794529, -0.022046612575650215, 0.01915348693728447, 0.026047689840197563, 0.0345507375895977, 0.007339854259043932, -0.015706386417150497, 0.03398758918046951, 0.009861715137958527, 0.009527213871479034, -0.019237885251641273, -0.0016410311218351126, -0.020154807716608047, -0.012809853069484234, 0.023429127410054207, 0.045012082904577255, 0.061980076134204865, 0.02582348696887493, 0.008105230517685413, 0.0201284009963274, 0.020493455231189728, 0.018842410296201706, -0.018013793975114822, -0.04458410665392876, -0.03401590511202812, 0.0022182210814207792, -0.031370118260383606, 0.019175052642822266, 0.004270527977496386, 0.0055703758262097836, 0.02863338403403759, -0.03018789365887642, 0.016735931858420372, -0.004310993477702141, 0.02156146615743637, -0.0005705280927941203, 0.03142160549759865, -0.031747691333293915, -0.03064504824578762, -0.009444485418498516, -0.007589582819491625, 0.02203851006925106, -0.027477452531456947, 0.007921122945845127, -0.001029311679303646, -0.00850314274430275, 0.05028241500258446, 0.0005763341905549169, 0.008600682020187378, 0.02842099405825138, 0.03542066365480423, 0.01638563722372055, 0.003482026746496558, -0.021198391914367676, -0.02303607575595379, 0.013682616874575615, -0.007249705959111452, -0.021681806072592735, 0.0057152314111590385, 0.009785651229321957, -0.0301354993134737, -0.03197016939520836, -0.009333989582955837, 0.018771599978208542, 0.004277769476175308, -0.020310096442699432, -0.02377205714583397, 0.009612567722797394, -0.008198869414627552, -0.006561042740941048, 0.01510947197675705, -0.019669324159622192, -0.0014713131822645664, 0.034640565514564514, 0.03935035318136215, 0.019420577213168144, -0.002149896463379264, 0.011507240124046803, -0.0064184339717030525, 0.00986019428819418, 0.03163441643118858, 0.010313385166227818, -0.014100154861807823, 0.02717139758169651, -0.014487405307590961, -0.01728179305791855, 0.01369386911392212, -0.017247671261429787, 0.024535804986953735, 0.02976982854306698, 0.025883160531520844, -0.01797870360314846, 0.030921291559934616, 0.002523612231016159, -0.034761976450681686, 0.026241030544042587, 0.015334658324718475, -0.0065550422295928, 0.03048398718237877, 0.004818584304302931, -0.02254125289618969, -0.03033973090350628, -0.02838539145886898, -0.025140341371297836, -0.0043729511089622974, 0.009181734174489975, 0.015323073603212833, 0.0028866801876574755, -0.019786927849054337, 0.01939006708562374, 0.02229604497551918, 0.015623589977622032, 0.01613719016313553, -0.025270454585552216, -0.023907214403152466, -0.006995105650275946, 0.009991796687245369, -0.011340128257870674, 0.02841322496533394, -0.010213213041424751, 0.026220906525850296], [-0.006498439237475395, 0.028108295053243637, 0.006722681224346161, 0.026639550924301147, 0.0022345371544361115, 0.027654830366373062, 0.024916034191846848, 0.02543601021170616, 0.019375190138816833, 0.034178074449300766, 0.029447589069604874, 0.030766639858484268, -0.005745879840105772, 0.016199782490730286, 0.03340454772114754, 0.014457720331847668, -0.018399298191070557, 0.005466874688863754, -0.031438201665878296, -0.003606759011745453, -0.020640872418880463, 0.005012478679418564, -0.02359940856695175, -0.019759230315685272, -0.006629893556237221, -0.02327938750386238, 0.030429158359766006, -0.019636401906609535, 0.01909218728542328, -0.011868469417095184, 0.0013744048774242401, -0.025298282504081726, -0.009098796173930168, 0.02707510255277157, 0.02993648871779442, 0.0013496933970600367, -0.027689997106790543, 0.01815653219819069, 0.018188567832112312, 0.015009467490017414, 0.011374101974070072, -0.0006286476855166256, 0.01003675814718008, -0.016585564240813255, 0.030588872730731964, -0.0019070702837780118, 0.02325587160885334, -0.02349931001663208, -0.015155278146266937, 0.02525121159851551, -0.014235909096896648, -0.01107510831207037, 0.035358693450689316, 0.010119233280420303, -0.023519381880760193, -0.030077820643782616, -0.007058531045913696, 0.014198504388332367, 0.00859099067747593, -0.033074721693992615, -0.005343063734471798, 0.0030973206739872694, 0.02203981764614582, 0.035443853586912155, -0.030681965872645378, -0.01182317454367876, 0.013469631783664227, -0.02979925088584423, 0.027199408039450645, -0.030629202723503113, 0.02494691126048565, 0.034140098839998245, -0.005627020262181759, -0.018326351419091225, -0.02421281486749649, 0.009320497512817383, -0.024867435917258263, 0.012307625263929367, -0.02579301781952381, -0.00034885312197729945, 0.0038211187347769737, -0.018825754523277283, -0.026118062436580658, -0.021961446851491928, 0.011962495744228363, 0.023226741701364517, 0.01936064474284649, 0.013050735928118229, -0.013135183602571487, 0.009734544903039932, 0.027792176231741905, 0.03195038437843323, 0.0102126719430089, 0.007293339353054762, -0.01959799788892269, -0.03756812587380409, -0.011132065206766129, 0.03128698095679283, -0.023137861862778664, 0.004333510063588619, -0.03080133907496929, 0.009583663195371628, -0.03129810839891434, -0.021773669868707657, 0.00040474088746123016, 0.017496351152658463, -0.014082219451665878, 0.02376062609255314, -0.010063936933875084, -0.02066875621676445, -0.020063037052750587, 0.02174762263894081, -0.016286352649331093, 0.014750763773918152, 0.02376067265868187, -0.018659671768546104, 0.011614969931542873, -0.012356948107481003, -0.031189998611807823, -0.0048362924717366695, 0.0064463564194738865, -0.002127695130184293, -0.014422783628106117, -0.006104645319283009, 0.00426705926656723, 0.009375586174428463, 0.0062608360312879086, 0.01923791877925396, 0.04593667387962341, -0.02499469928443432, 0.0009625643724575639, -0.03484303876757622, 0.0024624313227832317, -0.03579074144363403, 0.011702697724103928, 0.0007708540069870651, -0.0160063449293375, -0.009813817217946053, 0.023802287876605988, 0.00703909806907177, -0.010763505473732948, -0.009586164727807045, 0.0056136357598006725, 0.034685395658016205, -0.031838033348321915, 0.012247327715158463, -0.0021013382356613874, 0.01505192369222641, -0.02462495118379593, -0.017324266955256462, -0.012055788189172745, 0.031936656683683395, 0.04136354476213455, 0.04384496062994003, 0.06718559563159943, 0.03072848543524742, 0.03853237256407738, 0.014113394543528557, 0.002233688021078706, -0.004591640550643206, -0.00644407095387578, 0.03610079362988472, -0.04130245000123978, -0.04503642022609711, 0.002841727575287223, 0.026935460045933723, -0.03165621683001518, 0.01060084905475378, -0.004532847553491592, -0.012724997475743294, 0.018488343805074692, -0.024391690269112587, -0.005514560267329216, 0.016996530815958977, 0.010805235244333744, 0.002078785328194499, -0.01252062525600195, -0.0050174035131931305, 0.029006555676460266, -0.0032671347726136446, 0.04770607128739357, 0.01788339950144291, -0.0008773336885496974, 0.023424752056598663, 0.04506615176796913, 0.012846690602600574, 0.02844945713877678, 0.020549539476633072, 0.025150585919618607, 0.009155171923339367, -0.013331105932593346, 0.020265668630599976, -0.022727226838469505, -0.00795323308557272, -0.03757340461015701, 0.015349174849689007, -0.006627215538173914, -0.016357598826289177, 0.017466656863689423, -0.006766730919480324, -0.0017705864738672972, -0.003068784950301051, -0.01722673326730728, -0.04086349532008171, 0.006374801974743605, -0.007108728867024183, 0.0028518892358988523, 0.033625222742557526, -0.009055926464498043, 0.04157146438956261, 0.018344206735491753, 0.03237162530422211, 0.03797442466020584, 0.031871046870946884, 0.025784993544220924, -0.005942787975072861, 0.03902352601289749, 0.0007875383016653359, 0.005875545088201761, 0.024736499413847923, -0.015337085351347923, 0.009891015477478504, 0.0009454783867113292, -0.02122022956609726, -0.02915431186556816, 0.019201159477233887, -0.01666715182363987, 0.019106660038232803, -0.0191798098385334, 0.008061526343226433, 0.01641048863530159, 0.051523011177778244, 0.054298046976327896, -0.0007104533724486828, 0.007431198377162218, 0.0062482478097081184, 0.004054590128362179, 0.053663380444049835, 0.03263576701283455, -0.018969496712088585, 0.040906548500061035, 0.0027657621540129185, -0.008008335717022419, 0.019360313192009926, 0.025229690596461296, -0.019982771947979927, 0.03933153301477432, -0.015279892832040787, -0.03164217248558998, -0.02302704006433487, -0.0026534467469900846, -0.027437414973974228, -0.0031639684457331896, 0.013914176262915134, -0.021166080608963966, -0.001771819544956088, 0.0318106971681118, 0.034494560211896896, 0.0033606498036533594, 0.00790433119982481, 0.013723245821893215, 0.06274305284023285, 0.05069618672132492, 0.018996892496943474, 0.044017620384693146, 0.014414379373192787, 0.05590054765343666, 0.0359070710837841, -0.011405508033931255, 0.02759602665901184, 5.126323230797425e-05, -0.004037652164697647, -0.024595605209469795, 0.017427479848265648, -0.020744774490594864, 0.031515106558799744, -0.01244224514812231, 0.003467062721028924, -0.0013780191075056791, 0.002707386389374733, 0.0264681875705719, -0.026516055688261986, -0.03276686742901802, -0.028804637491703033, 0.0077885789796710014, 0.03258679062128067, 0.030002299696207047, 0.03673822432756424, 0.046955958008766174, 0.054674550890922546, 0.039489325135946274, 0.01117631420493126, 0.03561612218618393, 0.035326339304447174, 0.05223700776696205, 0.04970158264040947, 0.02061428502202034, 0.019665729254484177, 0.03497815504670143, 0.028401508927345276, -0.015922529622912407, -0.020488126203417778, -0.005161501467227936, 0.023617004975676537, -0.018488401547074318, -0.02694903314113617, 0.0036296546459198, -0.026979774236679077, 0.012181147001683712, -0.024283872917294502, -0.024428732693195343, 0.03933662921190262, 0.00012961756146978587, 0.0014885802520439029, 0.024817999452352524, 0.03057863377034664, 0.026970945298671722, 0.0029465302359312773, -0.010472102090716362, 0.03376927971839905, 0.010539410635828972, -0.008625839836895466, 0.052412986755371094, 0.0037971269339323044, -0.0025919689796864986, 0.004900486674159765, 0.03520912304520607, -0.016739284619688988, 0.011953798122704029, 0.029856039211153984, 0.02092166803777218, 0.0323200449347496, 0.03885933756828308, -0.0026876183692365885, -0.026309726759791374, -0.033385805785655975, 0.03472605347633362, -0.010537775233387947, 0.011163567192852497, 0.017352744936943054, 0.04458581283688545, -0.01821177266538143, -0.003243867075070739, 0.0024916131515055895, 0.02688170038163662, 0.01759622059762478, -0.028781885281205177, -0.03833114355802536, -0.0750342532992363, -0.04073360934853554, 0.009029961191117764, 0.018337948247790337, 0.025968141853809357, 0.038732122629880905, 0.021116193383932114, -0.002028347458690405, 0.008571572601795197, 0.031482577323913574, 0.020513402298092842, 0.07021287083625793, -0.0037394813261926174, 0.02916615828871727, -0.013340171426534653, 0.006554155144840479, 0.03245159611105919, -0.03208433836698532, 0.01197715476155281, -0.021694477647542953, 0.020903808996081352, 0.004932536743581295, -0.018263913691043854, -0.005973823834210634, -0.015224541537463665, 0.014092913828790188, -0.02859821729362011, -0.0685141310095787, -0.08293513208627701, -0.024892976507544518, -0.0007308443309739232, 0.039753079414367676, 0.012665381655097008, -0.005717359483242035, -0.016111034899950027, 0.01185270119458437, 0.01894182711839676, 0.041026271879673004, 0.0009009987697936594, 0.02051888406276703, 0.007953805848956108, -0.019001629203557968, 0.0015139649622142315, 0.00816407985985279, 0.022167282178997993, 0.020455069839954376, 0.01219924446195364, -0.0020188353955745697, -0.021196682006120682, -0.0435398630797863, -0.03272370249032974, -0.022293154150247574, -0.04744325205683708, -0.009650804102420807, -0.005864284932613373, -0.04507193714380264, -0.033092841506004333, 0.010764436796307564, 0.04977073892951012, 0.03730049729347229, 0.007598931435495615, -0.02476845309138298, -0.04765809699892998, 0.009131808765232563, -0.046337105333805084, 0.021860333159565926, 0.004107467830181122, -0.027506506070494652, 0.03037639521062374, 0.04030952975153923, 0.00559482304379344, -0.023458071053028107, -0.0012745497515425086, 0.002879408420994878, -0.02611737884581089, -0.0033729951828718185, -0.007998084649443626, -0.04798544570803642, -0.01989005319774151, -0.0032920234370976686, -0.00027053419034928083, -0.004640215076506138, -0.027886517345905304, -0.041333358734846115, -0.044227223843336105, 0.043113771826028824, 0.03371329978108406, 0.036098405718803406, -0.013194314204156399, -0.019770199432969093, -0.022098137065768242, -0.04757106304168701, -0.013593780808150768, 0.003734966041520238, -0.03648849204182625, -0.005549557972699404, 0.012606681324541569, -0.024574240669608116, -0.012787319719791412, 0.035879213362932205, 0.027522780001163483, -0.020662760362029076, 0.006879595573991537, 0.025341346859931946, 0.004265396390110254, 0.012269292026758194, 0.022648878395557404, 0.0025109066627919674, -0.024061035364866257, 0.037334755063056946, -0.003408097894862294, -0.0031975172460079193, -0.04241397604346275, -0.02614440582692623, 0.004461586009711027, -0.015785299241542816, -0.043680589646101, -0.0750424861907959, -0.02717490680515766, -0.07173106074333191, -0.05633851885795593, -0.058582134544849396, -0.01086893305182457, 0.009843597188591957, -0.036530785262584686, -0.03129636496305466, -0.028458045795559883, -0.01691845804452896, -0.010600311681628227, -0.021835166960954666, 0.03330758959054947, 0.0015776677755638957, -0.007266082335263491, -0.022468026727437973, 0.005647740792483091, 0.014537578448653221, 0.05910024046897888, 0.0012156692100688815, 0.045350581407547, -0.0021224557422101498, 0.057304780930280685, 0.02716143988072872, 0.007070434745401144, -0.028806546702980995, -0.03541064262390137, -0.058918800204992294, -0.05747038871049881, -0.06505680084228516, -0.04991640895605087, -0.013707071542739868, -0.044348910450935364, -0.021924590691924095, -0.01674242876470089, -0.016434162855148315, -0.015587620437145233, -0.025454750284552574, -0.0063225687481462955, 0.002769499784335494, -0.030487418174743652, 0.012948491610586643, -0.04790573567152023, -0.002884369809180498, 0.00030523218447342515, 0.025312820449471474, -0.008791488595306873, 0.03614475205540657, 0.028513817116618156, 0.04448271170258522, 0.03228813037276268, 0.03714156523346901, -0.008976851589977741, -0.04555445909500122, -0.05691295117139816, -0.08645465970039368, -0.06852652877569199, -0.03527495637536049, 0.015729691833257675, -0.03850660100579262, -0.008985530585050583, -0.012374852783977985, -0.021168434992432594, -0.02722790464758873, 0.004994528368115425, 0.013826560229063034, -0.004756361711770296, 0.01350743230432272, 0.023704933002591133, 0.007089320570230484, -0.028244974091649055, -0.0023180143907666206, -0.012741579674184322, 0.028519747778773308, -0.01351446844637394, 0.029177410528063774, 0.011194944381713867, -0.0152662992477417, 0.026025669649243355, 0.005082426127046347, -0.05363510921597481, -0.060001444071531296, -0.03135976195335388, -0.020660851150751114, -0.02026873454451561, -0.018832465633749962, -0.018639102578163147, 0.017080388963222504, 0.004529598169028759, -0.01229094062000513, 0.000614719174336642, 0.02465764805674553, 0.03105849213898182, -0.028852729126811028, 0.020559344440698624, -0.006742349825799465, -0.01059519313275814, 0.02289741300046444, -0.0368959978222847, 0.030017798766493797, 0.002900049090385437, 0.013080274686217308, 0.021800411865115166, 0.029513470828533173, -0.012010415084660053, 0.03600074723362923, -0.0215360838919878, -0.02740185149013996, -0.02972554974257946, 0.013493791222572327, -0.0013258984545245767, -0.013383121229708195, 0.0010505322134122252, 0.0017160741845145822, -0.0032733604311943054, 0.044703710824251175, -0.010339739732444286, 0.015441195107996464, 0.02149583213031292, 0.012771287001669407, 0.03293778374791145, -0.02244941145181656, -0.0006399639532901347, 0.0296087134629488, -0.02607351541519165, 0.01814124919474125, 0.012392774224281311, 0.03475727140903473, 0.004137183539569378, 0.03881031274795532, -0.01628604717552662, 0.0002713437133934349, -0.004326283000409603, 0.02707117795944214, -0.015322593040764332, 0.03914989158511162, -0.019193850457668304, 0.01642071083188057, -0.010902022011578083, -0.007378984708338976, 0.009940151125192642, -0.0021433013025671244, 0.03824952244758606, 0.02639123424887657, -0.017224909737706184, 0.03132930397987366, -0.035497669130563736, 0.0009815293597057462, -0.01613808609545231, -0.0350068062543869, -0.002987818792462349, -0.00784204714000225, -0.002506837947294116, 0.00599402142688632, 0.018732275813817978, 0.018620163202285767, 0.04652536287903786, 0.03190755471587181, 0.012623193673789501, 0.00952892005443573, 0.005530556198209524, 0.0182499922811985, -0.010148689150810242, 0.011223647743463516, 0.0034541974309831858, 0.03782086446881294, 0.040466971695423126, 0.04925936087965965, 0.027952201664447784, 0.02595699019730091, 0.046072836965322495, -0.013215865008533001, -0.015377712436020374, -0.021349288523197174, -0.021805407479405403, -0.03147777542471886, 0.009034749120473862, 0.007861556485295296, -0.029742660000920296, 0.015878036618232727, 0.028150931000709534, -0.001643380499444902, -0.02910907007753849, -0.006460480857640505, -0.016561158001422882, -0.002506533171981573, 0.023117752745747566, -0.028014222159981728, -0.02839978225529194, 0.009652666747570038, -0.02140887640416622, 0.03126770630478859, 0.03392941504716873, 0.03318660706281662, 0.05805196240544319, 0.057011738419532776, 0.03426432982087135, 0.03925507143139839, -0.021897494792938232, -0.017730189487338066, -0.003330579027533531, 0.01737298257648945, -0.012498504482209682, -0.03270426765084267, 0.008360646665096283, 0.01050952821969986, -0.008382124826312065, 0.025612782686948776, 0.021832989528775215, 0.02018100768327713, 0.024560505524277687, -0.014781777746975422, 0.0055742282420396805, -0.010747318156063557, -0.015654265880584717, -0.021658143028616905, -0.017103172838687897, -0.02946145460009575, 0.005330586805939674, -0.03497163951396942, -0.021326236426830292, -0.010859313420951366, 0.036647386848926544, 0.01521995011717081, -0.005408915225416422, -0.026943417266011238, -0.017284290865063667, -0.022607682272791862, 0.014127827249467373, -0.018673205748200417, 0.008545450866222382, -0.02942463755607605, -0.00014050470781512558, 0.012247193604707718, 0.013557687401771545, 0.005649499595165253, -0.012650375254452229, -0.0022975504398345947, -0.0008318023174069822, -0.022105591371655464, -0.0013585856650024652, 0.017685415223240852, 0.010042273439466953, 0.024966763332486153, -0.03306512534618378, -0.032688844949007034, 0.010000484995543957, -0.004222468007355928, 0.028777025640010834, 0.04492097347974777, -0.010518324561417103, -0.0037883154582232237, -0.019288744777441025, 0.025740699842572212, -0.004843903239816427, -0.00027580131427384913, 0.016962770372629166, 0.02032710239291191, -0.03131422773003578, -0.02108892984688282, -0.013506767340004444, 0.030356500297784805, 0.02265380695462227, -0.009550623595714569, 0.03215667977929115, -0.0348917692899704, 0.0005087126628495753, -0.020107757300138474, 0.029551826417446136, -0.028528893366456032, 0.03779488429427147, 0.015407129190862179, 0.023766279220581055, 0.004812959115952253, -0.023195059970021248, -0.017208950594067574, 0.044427819550037384, -0.009713211096823215, -0.020791105926036835, 0.006646236404776573, 0.015845689922571182, 0.01862959749996662, -0.01640637405216694, -0.013279999606311321, -0.010723060928285122, 0.0003645195683930069, -0.03181618079543114, -0.031046438962221146, 0.027621712535619736, -0.0035140328109264374, 0.017056670039892197, 0.03313274309039116, 0.034755054861307144, -0.035584330558776855, 0.011560279875993729, 0.0042172325775027275, 0.01999293826520443, 0.0009596222662366927, -0.014020541682839394, 0.01228766143321991, 0.02662576362490654, 0.033613912761211395, -0.0018385628936812282, 0.03276287019252777, -0.03145276755094528, 0.013156740926206112, -0.0061004888266325, -0.025147616863250732, 0.016239361837506294, 0.002584116067737341, 0.020714597776532173, -0.0002494704385753721, -0.023609023541212082, 0.033830270171165466, -0.028941001743078232, 0.003788560628890991, -0.02062065340578556, 0.004357989877462387], [0.020671747624874115, 0.033693503588438034, 0.028186049312353134, -0.0242063757032156, 0.024213537573814392, 0.006888765841722488, -0.006836367771029472, -0.002154417335987091, 0.00866331160068512, 0.02498387172818184, -0.004342962056398392, 0.009255606681108475, 0.013364485464990139, -0.01955605298280716, 0.034537866711616516, -0.006780487019568682, 0.012760251760482788, 0.022264063358306885, 0.009991977363824844, -0.0026337094604969025, -0.013069992884993553, 0.010749664157629013, 0.0010662414133548737, 0.020636320114135742, 0.020398572087287903, -0.016757212579250336, -0.016705462709069252, -0.007698923349380493, 0.021748442202806473, -0.018985558301210403, -0.035082027316093445, -0.033027827739715576, -0.009026949293911457, 0.030792834237217903, 0.029803700745105743, 0.010065519250929356, -0.0224551260471344, -0.01355263963341713, -0.017603209242224693, -0.013430592603981495, -0.022546052932739258, 0.028470119461417198, -0.0027877946849912405, 0.02235102280974388, 0.02592053823173046, 0.005958511959761381, -0.0010992540046572685, 0.03333871439099312, -0.032502591609954834, -0.017822034657001495, 0.022125286981463432, 0.02517079748213291, 0.004352744668722153, -0.026326801627874374, 0.028858628123998642, -0.025582339614629745, 0.02575724571943283, 0.012783534824848175, -0.03555794805288315, 0.009774533100426197, 0.03017769195139408, -0.014885326847434044, 0.027531219646334648, 0.03382505849003792, 0.03173735365271568, -0.03187863156199455, 0.03971852734684944, -0.0029624346643686295, -0.02631307952105999, -0.0048176380805671215, -0.0005555245443247259, 0.0024082125164568424, -0.021276108920574188, -0.014155508019030094, -0.008008803240954876, 0.025292694568634033, 0.021313758566975594, -0.006192408502101898, 0.008316191844642162, 0.0036301235668361187, 0.033787552267313004, -0.03436481952667236, -0.005346754565834999, 0.007567554712295532, 0.029673118144273758, 0.01645028218626976, 0.013430582359433174, -0.0131101468577981, 0.01955859735608101, 0.031473275274038315, 0.0037678878288716078, 0.0179253201931715, -0.0022793286480009556, -0.006108847912400961, 0.015296954661607742, 0.006394203286617994, -0.02104373648762703, -0.0387362577021122, 0.0012041006702929735, -0.02125328779220581, 0.021010909229516983, 0.01861077919602394, 0.006113295443356037, 0.0016404399648308754, 0.01737556792795658, 0.03405041992664337, 0.03219887986779213, -0.013998213224112988, 0.0004494742024689913, 0.018473299220204353, 0.032854627817869186, -0.022143011912703514, -0.0033102035522460938, -0.013258896768093109, 0.010493195615708828, 0.02819954603910446, -0.007532324176281691, 0.002652248600497842, -0.010060778819024563, -0.0003177444450557232, -0.011602230370044708, -0.03743865340948105, -0.005954979918897152, -0.07056903094053268, -0.005975440610200167, -0.012792443856596947, -0.030986446887254715, -0.02866091951727867, 0.004276203457266092, -0.03340848162770271, -0.0007181486580520868, 0.01869216561317444, 0.040318164974451065, 0.010433103889226913, 0.0385422445833683, 0.01267190556973219, -0.006516420282423496, -0.02062058635056019, -0.021272026002407074, -0.031253546476364136, 0.020109806209802628, 0.014841489493846893, -0.030224855989217758, 0.020656738430261612, -0.018690718337893486, -0.026515843346714973, -0.05635655298829079, -0.058719031512737274, -0.03505445644259453, -0.0005321436328813434, -0.049464739859104156, -0.016708895564079285, -0.024880560114979744, -0.03599819540977478, -0.039923958480358124, -0.021732328459620476, -0.017813095822930336, 0.018889397382736206, 0.0013364034239202738, 0.04300900176167488, 0.06016954779624939, 0.05028305575251579, 0.05466610938310623, 0.0450567789375782, 0.05024513974785805, 0.01734553463757038, 0.007691589184105396, 0.018099483102560043, -0.03157810866832733, 0.008392727933824062, -0.011887152679264545, 0.020865127444267273, -0.030365701764822006, 0.005393466912209988, -0.04575078561902046, -0.01683090627193451, 0.011336429044604301, -0.05845942720770836, -0.05137282982468605, -0.009149182587862015, 0.015422852709889412, -0.06382793933153152, -0.055049143731594086, -0.035837043076753616, -0.090628482401371, -0.0801209956407547, -0.017386015504598618, -0.013695567846298218, -0.007720333989709616, 0.03218299522995949, 0.04639934003353119, 0.08708352595567703, 0.034185394644737244, 0.033675745129585266, -0.029536964371800423, 0.015755290165543556, -0.027056390419602394, 0.029988257214426994, -0.031965576112270355, -0.018596839159727097, -0.04976445063948631, -0.04796670004725456, -0.03963923826813698, -0.009994362480938435, -0.02609476074576378, 0.004229034762829542, -0.015258008614182472, -0.04059053957462311, -0.017088783904910088, -0.05958161875605583, -0.07229159772396088, -0.07048067450523376, -0.03438322991132736, -0.06938962638378143, -0.06590225547552109, -0.0689716711640358, -0.0381251759827137, -0.031496305018663406, 0.03244805335998535, 0.035268254578113556, 0.06378644704818726, 0.015875786542892456, -0.005660384427756071, 0.00924427155405283, -0.025872645899653435, 0.022662941366434097, 0.03229999542236328, -0.04109030216932297, -0.05519740656018257, -0.023890292271971703, 0.0018528163200244308, -0.023424319922924042, -0.006793886888772249, 0.005348464474081993, -0.020647553727030754, 0.00992065854370594, -0.004648116417229176, -0.017829472199082375, -0.08175437897443771, -0.08752082288265228, -0.03444071486592293, -0.06983786821365356, -0.03134362772107124, -0.05416844040155411, -0.07013452053070068, 0.001207249704748392, -0.014056975953280926, 0.025027891620993614, 0.028563514351844788, 0.039588138461112976, 0.03825034573674202, -0.007172591518610716, 0.015492714010179043, -0.018252402544021606, -0.02309628389775753, -0.03379882127046585, -0.020726175978779793, -0.019986841827630997, -0.0023673693649470806, 0.015781324356794357, 0.003878182265907526, -0.021009143441915512, 0.005017416551709175, 0.03525139391422272, -0.022529730573296547, -0.0630933865904808, -0.0704636350274086, -0.07383660972118378, -0.08638320863246918, -0.07322333008050919, -0.04076388478279114, -0.060179341584444046, -0.03388126939535141, -0.01856495626270771, 0.003502392442896962, 0.020072750747203827, 0.03943813964724541, 0.050155315548181534, -0.008342251181602478, 0.014762033708393574, -0.026264449581503868, -0.03284693509340286, -0.0024691640865057707, -0.0008117815013974905, -0.011001532897353172, 0.0068282498978078365, -0.05399349331855774, -0.0069759744219481945, 0.02756250835955143, 0.04117712005972862, 0.057591214776039124, 0.011024313978850842, 0.04923927038908005, 0.04986361041665077, 0.0031402187887579203, -0.032825104892253876, -0.05614803358912468, -0.014685174450278282, -0.032344359904527664, -0.007650001905858517, -0.05693281069397926, -0.00141513894777745, 0.008943657390773296, 0.022186392918229103, 0.03379204869270325, -0.004151264671236277, 0.02623317763209343, 0.03284060209989548, -0.017104366794228554, -0.009255750104784966, 0.03380793333053589, -0.038800425827503204, 0.000769071455579251, 0.01294683013111353, 0.02450675144791603, 0.022993318736553192, -0.01839381642639637, 0.04252332076430321, 0.009829969145357609, 0.017172925174236298, 0.08377517759799957, 0.0416116937994957, 0.07964543253183365, 0.04929923266172409, -0.0007072456064634025, -0.05392913147807121, -0.027118708938360214, -0.04441981762647629, -0.01360237319022417, -0.05307137593626976, -0.024729294702410698, 0.0053967759013175964, 0.024578265845775604, 0.008115199394524097, 0.030592212453484535, -0.023135624825954437, -0.013844817876815796, -0.020240064710378647, 0.027887003496289253, 0.01356254331767559, -0.01627836748957634, 0.026069166138768196, 0.016040340065956116, 0.032855138182640076, 0.01436745747923851, 0.006251458544284105, -0.019330771639943123, 0.06211496517062187, 0.04167214781045914, 0.09014658629894257, -0.0038505764678120613, 0.06585591286420822, -0.004859738517552614, -0.02024627849459648, -0.013946956023573875, -0.011822500266134739, 0.011080941185355186, -0.026504825800657272, 0.009465660899877548, -0.003162567038089037, -0.008729272522032261, -0.005223047453910112, 0.01877780817449093, -0.007329835556447506, -0.027487674728035927, 0.03030700609087944, 0.022159233689308167, -0.02706361562013626, -0.025615697726607323, 0.006736559793353081, 0.03942064195871353, 0.012434645555913448, -0.002404748694971204, 0.030754221603274345, 0.0023008473217487335, 0.021763281896710396, 0.027146678417921066, 0.015790820121765137, 0.007775346748530865, 0.07791116088628769, 0.022680573165416718, -0.02986912429332733, -0.048811983317136765, -0.01186321210116148, -0.0029605089221149683, 0.0518207922577858, 0.03368930146098137, 0.007855823263525963, -0.012265407480299473, 0.0015185860684141517, -0.0016654825303703547, -0.00260640075430274, 0.0006770301260985434, -0.01934225484728813, -0.01686418429017067, -0.017026321962475777, -0.027349695563316345, -0.018364114686846733, -0.02101532369852066, 0.016157498583197594, -0.0028204317204654217, 0.021913688629865646, -0.026646796613931656, -0.016584184020757675, -0.013699126429855824, -0.0440000519156456, 0.06393647938966751, 0.03686196729540825, -0.019010843709111214, -0.02856893464922905, -0.02794591151177883, 0.025752436369657516, 0.009804761968553066, 0.02806953340768814, 0.02021801471710205, 0.04293760284781456, -0.015353354625403881, 0.008130541071295738, -0.031670473515987396, 0.0042196945287287235, 0.00904383696615696, 0.0116951959207654, -0.02594100683927536, 0.023991817608475685, 0.004487649071961641, -0.019556252285838127, -0.0435306541621685, -0.015669533982872963, 0.026099475100636482, -0.012479860335588455, 0.014408496208488941, -0.017182130366563797, 0.01920415833592415, 0.033380176872015, 0.029128849506378174, 0.011758043430745602, -0.03130917251110077, -0.015576961450278759, -0.0378689244389534, -0.008593650534749031, -0.023216089233756065, -0.012720922939479351, -0.004878825042396784, -5.557835174840875e-05, -0.051891326904296875, -0.011766579002141953, -0.018508661538362503, 0.0024478426203131676, 0.008715257048606873, -0.025786377489566803, 0.030099347233772278, -0.006565902382135391, -0.010801670141518116, -0.0606132335960865, -0.04118794947862625, -0.0020371931605041027, 0.0015823694411665201, -0.023802870884537697, -0.037154003977775574, 0.01880280300974846, 0.017452990636229515, 0.05408531054854393, 0.03660484030842781, 0.06740140914916992, -0.023214641958475113, -0.06367285549640656, -0.0131487175822258, -0.030773403123021126, 0.013891923241317272, -0.03464614227414131, 0.003229821100831032, -0.026827627792954445, -0.05980899930000305, -0.048495903611183167, 0.009041758254170418, -0.007050337735563517, 0.02709963545203209, -0.01715466007590294, 0.0030124345794320107, 0.018013305962085724, -0.059121325612068176, -0.015846192836761475, -0.008886146359145641, -0.05552572384476662, -0.029788322746753693, 0.023711005225777626, -0.018160782754421234, -0.020608941093087196, 0.01313401386141777, 0.026929499581456184, 0.041267987340688705, 0.0322638563811779, -0.019773786887526512, -0.015158654190599918, -0.044295717030763626, -0.059082966297864914, -0.03796542435884476, 0.006189805455505848, -0.06673745810985565, -0.031446970999240875, -0.040830567479133606, -0.05796867981553078, -0.02883967012166977, 0.008020823821425438, 0.013062256388366222, -0.010825050994753838, -0.009070005267858505, 0.00393285695463419, -0.07359615713357925, -0.05238040164113045, 0.002628389047458768, -0.05609572306275368, -0.024338947609066963, 0.02668333239853382, 0.0038132795598357916, -0.02627079375088215, 0.018084712326526642, 0.04341082647442818, 0.023008424788713455, 0.010307185351848602, -0.03194476291537285, -0.012663156725466251, 0.021662920713424683, -0.04397575929760933, -0.04046805948019028, -0.04093485698103905, -0.057809293270111084, -0.048392828553915024, -0.06299303472042084, -0.04576033353805542, -0.0011396000627428293, 0.026526840403676033, -0.01395993959158659, -0.022964654490351677, 0.018474001437425613, -0.03282330557703972, -0.06722874194383621, -0.015907051041722298, -0.019888201728463173, -0.04961585998535156, 0.004605537746101618, -0.026938149705529213, 0.01828506402671337, -0.001778854988515377, 0.04123750329017639, 0.03541123867034912, 0.039445243775844574, 0.0244467593729496, 0.013394984416663647, -0.01127091608941555, 0.008288223296403885, -0.004634259734302759, -0.016100889071822166, -0.03665672987699509, -0.030943047255277634, -0.040874183177948, 0.0014470979804173112, -0.04638270288705826, -0.011800754815340042, 0.0064265844412148, -0.016410786658525467, -0.009025397710502148, -0.034071240574121475, 0.01676155999302864, -0.06321894377470016, -0.05588514357805252, -0.04907650500535965, 0.0006305146380327642, -0.03493540734052658, 0.020676374435424805, -0.0025469642132520676, 0.01843295246362686, 0.045783836394548416, 0.019222138449549675, 0.05488009750843048, 0.027835270389914513, 0.02875564619898796, 0.03589194640517235, 0.042459938675165176, -0.012606165371835232, -0.05703490972518921, -0.018989214673638344, -0.0383206307888031, -0.040554217994213104, -0.034159086644649506, -0.040907926857471466, -0.009930997155606747, 0.03130248561501503, -0.03225203976035118, -0.021454552188515663, 0.006297752261161804, -0.03729182481765747, -0.03599889576435089, -0.048800278455019, -0.0023558747489005327, 0.010073295794427395, 0.010627588257193565, 0.00826291274279356, 0.04316919669508934, 0.03296831250190735, 0.0452682264149189, 0.03326420113444328, 0.04529111832380295, 0.06965185701847076, 0.037901248782873154, 0.018669195473194122, 0.01323174312710762, -0.003496011020615697, -0.01755637116730213, -0.03132034093141556, -0.0649518221616745, -0.06192683428525925, 0.0023259520530700684, 0.001424442045390606, 0.030939439311623573, -0.006662111263722181, 0.01787737011909485, -0.007016145158559084, 0.009052219800651073, 0.013026311062276363, 0.007906351238489151, 0.024675054475665092, 0.013920645229518414, 0.017567019909620285, -0.05155472084879875, 0.005720742046833038, -0.021963490173220634, -0.02219710685312748, -0.0037268500309437513, 0.026237405836582184, 0.02635222300887108, 0.04975586757063866, -0.00848486926406622, 0.030343040823936462, 0.011230728588998318, -0.02627553604543209, -0.03625188767910004, -0.038786958903074265, -0.0508466511964798, -0.0536983385682106, 0.023601606488227844, 0.02726920321583748, -0.016408368945121765, 0.00022899739269632846, 0.013214759528636932, -0.00964699499309063, -0.019928498193621635, -0.028361821547150612, -0.03639127314090729, -0.04125750809907913, 0.01653117500245571, -0.032224636524915695, 0.003134193131700158, 0.020680857822299004, -0.04748654365539551, 0.02662072144448757, 0.0003125740331597626, 0.009149727411568165, 0.053012266755104065, 0.03636830672621727, 0.055699750781059265, -0.009976735338568687, -0.0050361910834908485, -0.019681788980960846, -0.02835257723927498, -0.0408400222659111, -0.011591355316340923, -0.047246530652046204, 0.013756184838712215, 0.025089910253882408, -0.022361593320965767, -0.01053830236196518, -0.03259186074137688, 0.0181867778301239, 0.019530709832906723, -0.0023893029429018497, -0.012565609999001026, 0.0009194732992909849, -0.03246883302927017, -0.03661366552114487, -0.034594930708408356, 0.009128357283771038, -0.007067411206662655, 0.01006279420107603, 0.03517618775367737, -0.005072906147688627, 0.016632821410894394, -0.019712327048182487, 0.012983319349586964, -0.04310422018170357, -0.008657865226268768, -0.03411920368671417, -0.018185218796133995, 0.009383777156472206, 0.022012319415807724, 0.021577373147010803, 0.0004242243303451687, -0.0032631673384457827, 0.015085814520716667, -0.0028748512268066406, -0.023849986493587494, 0.016354259103536606, 0.02438349649310112, -0.0030196092557162046, 0.023435182869434357, 0.019993260502815247, -0.048489756882190704, -0.05542250722646713, -0.054959241300821304, -0.06260016560554504, -0.007323483005166054, 0.0032343328930437565, -0.03329993039369583, -0.05686617270112038, -0.03693273663520813, -0.007322562858462334, -0.03973248973488808, -0.028570393100380898, -0.05712960660457611, -0.0220141913741827, -0.006874272134155035, -0.03689111769199371, 0.016659429296851158, -0.03409641608595848, -0.0250637736171484, 0.008545447140932083, -0.007954591885209084, -0.003267664462327957, -0.004593862220644951, 0.03458632901310921, 0.034977179020643234, -0.0062671019695699215, 0.007905184291303158, -0.021272746846079826, -0.0252242349088192, -0.027119850739836693, -0.009422054514288902, -0.03079129010438919, -0.03959359973669052, -0.01193919312208891, -0.005450209137052298, -0.016321783885359764, -0.04314654320478439, -0.05742710456252098, 0.015416841022670269, 0.00770576810464263, -0.03478612005710602, 0.006314808968454599, -0.001547126448713243, 0.026029743254184723, 0.00497022271156311, 0.005472387187182903, -0.01734924502670765, -0.02320750802755356, -0.010783009231090546, -0.010088810697197914, 0.020562145859003067, -0.032797232270240784, -0.01857595518231392, 0.001828063279390335, -0.014521611854434013, 0.03481123596429825, -0.028701329603791237, 0.01082091685384512, -0.02454405091702938, -0.02162533812224865, -0.01846139505505562, -0.01950024999678135, -0.004783928394317627, 0.02616901881992817, -0.0035106143914163113, 0.022017106413841248, 0.027189083397388458, -0.03217437490820885, 0.002307452028617263, -0.027665166184306145, 0.017041979357600212, -0.006719659082591534, 0.016547542065382004, 0.03464217856526375, -0.01872764341533184, 0.022523406893014908, 0.03172972425818443, -0.03341121971607208], [-0.020641017705202103, -0.006525818258523941, -0.020159445703029633, -0.0014888308942317963, -0.019519364461302757, -0.003827843815088272, 0.010273776948451996, 0.01700620725750923, -0.0023687705397605896, 0.027392547577619553, -0.022087957710027695, -0.0036282651126384735, -0.01570986770093441, -0.0029982291162014008, 0.02398361638188362, 0.01923641376197338, 0.02653072401881218, -0.0023510977625846863, 0.03280774876475334, -0.029925458133220673, 0.027953889220952988, -0.03278549760580063, 0.006324164569377899, -0.001721758395433426, -0.002958279103040695, 0.0003742910921573639, 0.03245541825890541, 0.004320230334997177, 0.007283125072717667, 0.01259329542517662, 0.007055167108774185, 0.019107874482870102, 0.03457513079047203, 0.03243528679013252, 0.025925662368535995, 0.0010104955872520804, 0.0053624436259269714, 0.020954186096787453, 0.028615454211831093, 0.001183485728688538, -0.019860638305544853, 0.03341101482510567, -0.01698467507958412, 0.013856918551027775, -0.004796554800122976, 0.020786108449101448, -0.0032563027925789356, 0.0019906060770154, 0.02532842755317688, -0.0027885606978088617, 0.01530530583113432, 0.010938426479697227, 0.025764495134353638, -0.035417862236499786, -0.02421736717224121, -0.010653674602508545, 0.030092213302850723, 0.007589548826217651, 0.005100949667394161, -0.003506071399897337, -0.02681666985154152, 0.02859470620751381, 0.016710719093680382, -0.008492104709148407, 0.016894813627004623, 0.012945803813636303, -0.005437172949314117, 0.01725240796804428, 0.026087278500199318, -0.028351038694381714, 0.014911535196006298, 0.003578332019969821, 0.03814410790801048, 0.0028635563794523478, -0.03398215398192406, -0.02829340472817421, 0.03334014490246773, -0.009391970932483673, 0.023578140884637833, 0.023984916508197784, -0.019419020041823387, 0.03557932749390602, -0.01626197062432766, -0.0012039653956890106, 0.009794626384973526, 0.01220327615737915, 0.015353464521467686, 0.025009652599692345, -0.02007751166820526, -0.023694857954978943, -0.013265383429825306, -0.034090105444192886, 0.02802145667374134, -0.01264114584773779, 0.038179103285074234, 0.02525314688682556, 0.008707825094461441, -0.014867031946778297, -0.00474394578486681, 0.0006504187476821244, 0.009762019850313663, -0.00144133938010782, 0.024314414709806442, -0.008719021454453468, -0.014067663811147213, -0.003472023643553257, 0.021917574107646942, -0.03600427135825157, -0.036274444311857224, 0.0012786585139110684, 0.025191891938447952, 0.027573172003030777, -0.013646045699715614, 0.005658681504428387, 0.012031879276037216, -0.0037795689422637224, 0.02405674196779728, -0.00121978425886482, -0.01640147529542446, 0.027641454711556435, -0.009876144118607044, 0.02574840933084488, -0.012608553282916546, 0.036620210856199265, 0.01584208942949772, -0.0023553965147584677, 0.0030826576985418797, -0.004962507169693708, -0.017084823921322823, 0.007059650495648384, 0.001268397318199277, -0.026239119470119476, 0.027814200147986412, 0.03337483108043671, -0.015738055109977722, -0.008496967144310474, 0.018619442358613014, 0.02020055614411831, 0.031237561255693436, -0.027299880981445312, 0.010509390383958817, 0.01833215355873108, -0.017544690519571304, 0.02007524110376835, 0.001428459188900888, -0.021375246345996857, -0.021099502220749855, -0.017428526654839516, -0.0168245118111372, -0.001653572777286172, 0.01011087466031313, 0.037254009395837784, 0.017848066985607147, 0.04128433018922806, 0.021390413865447044, -0.006703643593937159, 0.010160990990698338, 0.029264582321047783, 0.03872813656926155, 0.030319377779960632, -0.0013380477903410792, 0.011715497821569443, 0.027766535058617592, 0.004930539522320032, 0.03687255457043648, 0.0029770629480481148, -0.028350351378321648, -0.03431153669953346, -0.025434669107198715, -0.005035439506173134, 0.010675650089979172, 0.033025093376636505, -0.020030096173286438, 0.02493789978325367, -0.015597551129758358, -0.013646739535033703, -0.013496158644557, -0.004668263718485832, 0.014939537271857262, 0.0024504142347723246, 0.04194418713450432, 0.0571630597114563, 0.03709293156862259, 0.034497201442718506, 0.0020117987878620625, 0.024953490123152733, 0.029355432838201523, 0.03800593689084053, 0.01067056693136692, 0.040178440511226654, 0.05386883020401001, 0.02421059086918831, 0.02761532925069332, -0.027422364801168442, 0.019554713740944862, 0.011780655942857265, 0.01340971328318119, -0.017936518415808678, 0.020395949482917786, 0.020737556740641594, 0.000594036653637886, -0.02703217975795269, 0.01200567465275526, -0.008818197064101696, 0.01666758581995964, 0.0178653746843338, 0.018897000700235367, 0.024266187101602554, 0.022410737350583076, 0.04868950694799423, 0.06834366172552109, -0.020316537469625473, 0.0031937388703227043, 0.023379959166049957, 0.006085578352212906, 0.04561245068907738, 0.03155481070280075, 0.020140409469604492, 0.04989423230290413, -0.0034420674201101065, 0.0035809853579849005, 0.024753551930189133, 0.023707741871476173, -0.009376565925776958, -0.004245960619300604, 0.028441311791539192, -0.019964667037129402, -0.026299674063920975, 0.019401563331484795, -0.010758627206087112, 0.016583871096372604, -0.039130184799432755, -0.02924438938498497, 0.008853542618453503, -0.004084422253072262, 0.02645534835755825, 0.036209411919116974, 0.04710580036044121, 0.01104393694549799, 0.006483499426394701, -0.014732730574905872, 0.02430628053843975, -0.01133224181830883, -0.013176967389881611, -0.010408544912934303, 0.04234965890645981, 0.014201904647052288, -0.015489659272134304, 0.025689316913485527, 0.007636781316250563, -0.02166433446109295, -0.0039744386449456215, 0.026398222893476486, 0.031270794570446014, -0.007538029458373785, -0.008981556631624699, -0.012529834173619747, 0.01760515198111534, -0.0238919910043478, -0.015893690288066864, -0.018837593495845795, -0.031336262822151184, -0.0017576272366568446, -0.020045889541506767, -0.0006055936682969332, -0.0033883419819176197, -0.03678533062338829, 0.03089837357401848, -0.04024430364370346, -0.04144971817731857, -0.032883401960134506, 0.011721339076757431, -0.034473519772291183, 0.004396399483084679, -0.010874716565012932, 0.006215523928403854, 0.03753241151571274, 0.00564586604014039, -0.018696967512369156, -0.022673631086945534, -0.016889311373233795, 0.02250065468251705, 0.0009431191137991846, -0.01730259880423546, 0.0038448642008006573, -0.021954845637083054, -0.04973500967025757, -0.004547485616058111, 0.026469983160495758, 0.01663801446557045, 0.007310281507670879, -0.017102530226111412, 0.0029045233968645334, -0.02300475910305977, -0.011638641357421875, -0.03094656392931938, -0.04695093631744385, -0.025177285075187683, -0.0756618082523346, -0.061245307326316833, -0.023727038875222206, -0.0760316327214241, -0.04835505038499832, 0.021812591701745987, 0.007565302308648825, -0.010706073604524136, 0.020729944109916687, 0.016265958547592163, -6.843448500148952e-05, -0.011306481435894966, 0.007500223349779844, 0.02446075715124607, 0.0072198836132884026, -0.01036351639777422, 0.002654374111443758, -0.05658232420682907, -0.02675297111272812, -0.02379014901816845, -0.03995123133063316, -0.0028758058324456215, -0.03233584761619568, -0.032139938324689865, -0.036861225962638855, -0.06537536531686783, -0.07811489701271057, -0.07059437781572342, -0.029677076265215874, -0.05238371714949608, -0.04216977208852768, -0.036272529512643814, -0.06414470821619034, -0.05350587144494057, -0.023024266585707664, -0.014121792279183865, -0.02211872488260269, 0.01911359652876854, -0.02493426576256752, -0.013136367313563824, -0.0048821959644556046, -0.030376341193914413, 0.0011936395894736052, -0.00832326989620924, -0.03141307830810547, -0.010963346809148788, -0.010083906352519989, -0.03872034326195717, -0.0023662266321480274, -0.006156283430755138, -0.016817407682538033, -0.015534120611846447, -0.07431663572788239, -0.08062870055437088, -0.07704527676105499, -0.08360723406076431, -0.060345955193042755, -0.02333422191441059, -0.08419851958751678, -0.0836419016122818, -0.03293035179376602, -0.012621823698282242, -0.027160534635186195, -0.013892268761992455, -0.0052345735020935535, -0.030769620090723038, 0.030789338052272797, -0.00515192374587059, -0.026263216510415077, -0.017257288098335266, -0.0028815341647714376, -0.03635397180914879, 0.012628337368369102, -0.027347225695848465, 0.0064102536998689175, -0.004423086065798998, -0.013436592184007168, -0.06116611137986183, -0.03768687695264816, -0.0006121192127466202, -0.023612016811966896, -0.04109961912035942, -0.062470827251672745, -0.023618068546056747, -0.013355768285691738, -0.014922017231583595, -0.009150118567049503, -0.05333201214671135, -0.058265794068574905, -0.012113349512219429, 0.020198559388518333, -0.0010385054629296064, -0.018507659435272217, 0.005265793763101101, -0.0030954526737332344, -0.02125973254442215, -0.015553323552012444, -0.019542494788765907, -0.0012644876260310411, -0.010951859876513481, -0.04146941378712654, -0.012856372632086277, 0.03966018930077553, 0.024129142984747887, -0.02818409912288189, -0.09185434132814407, -0.007308741565793753, -0.0681353434920311, -0.014835085719823837, -0.03324664384126663, -0.06040528416633606, -0.05932319164276123, -0.058286476880311966, -0.055247798562049866, -0.03114505670964718, 0.0023728874512016773, -0.02359718829393387, -0.009680403396487236, -0.006371104624122381, 0.001803266815841198, 0.03688810393214226, 0.02598821185529232, 0.000610973744187504, 0.0020472409669309855, 0.0034966692328453064, -0.017397945746779442, 0.01686120219528675, 0.01303030550479889, 0.026678210124373436, 0.0333678312599659, 0.013511867262423038, -0.023083515465259552, -0.053620778024196625, -0.01603270135819912, -0.006573127582669258, 0.0065755522809922695, -0.053202155977487564, -0.01908908784389496, -0.059670478105545044, -0.08694882690906525, -0.05496106669306755, -0.057605206966400146, 0.01400857325643301, -0.02729703113436699, -0.033949047327041626, 0.017074257135391235, 0.019149020314216614, 0.008078250102698803, 0.006386174354702234, 0.0354502834379673, -0.03553207218647003, -0.030415566638112068, 0.013500177301466465, 0.018780995160341263, -0.010202695615589619, 0.021236423403024673, -0.04137832671403885, -0.06107128784060478, -0.011619425378739834, -0.029988722875714302, -0.014584148302674294, -9.130719990935177e-05, -0.038623638451099396, -0.0014469589805230498, -0.03937031701207161, -0.05611049011349678, -0.046828847378492355, -0.019080540165305138, -0.04468194395303726, -0.004967500921338797, 0.026109524071216583, 0.011302667669951916, 0.02139829844236374, 0.037662357091903687, -0.005152205005288124, 0.027933726087212563, 0.007613758556544781, -0.0013231856282800436, 0.03215028718113899, 0.035157762467861176, 0.027564726769924164, -0.007674979045987129, 0.0076920934952795506, -0.0003742135886568576, 0.01221120823174715, -0.04639710858464241, -0.10285753011703491, -0.09111465513706207, -0.049421217292547226, -0.08190218359231949, -0.0426165908575058, -0.04302774369716644, -0.030001327395439148, -0.009700637310743332, -0.027646319940686226, -0.05271516367793083, -0.0157778337597847, -0.004130764864385128, -0.019347306340932846, 0.03566814959049225, 0.000952047121245414, 0.037066180258989334, 0.01443241722881794, -0.01566093973815441, -0.0023413903545588255, -0.0012422422878444195, -0.020051028579473495, -0.02815362811088562, 0.03623088821768761, -0.0008046974544413388, 0.037476569414138794, 0.04901415482163429, 0.013805200345814228, -0.049673762172460556, -0.048145320266485214, -0.05071062967181206, -0.07092808187007904, -0.08393602818250656, -0.078434057533741, -0.0290406234562397, -0.047249943017959595, -0.02193128690123558, -0.006314476486295462, -0.013306912034749985, 0.02554616518318653, -0.012320954352617264, -0.017378943040966988, 0.03341149166226387, 0.006776957307010889, -5.036981383454986e-05, 0.04219631850719452, -0.011456932872533798, -0.01180758886039257, 0.020718704909086227, -0.015986189246177673, 0.023585008457303047, 0.0323960967361927, 0.0032787201926112175, 0.015751734375953674, -0.008200660347938538, 0.0015450641512870789, 0.0018901096191257238, 0.0028747154865413904, -0.04839581623673439, -0.06109846755862236, -0.04369603469967842, -0.01421349123120308, -0.031289953738451004, -0.02803277038037777, -0.007054271642118692, -0.016042115166783333, 0.03470588102936745, 0.03505546599626541, 0.001996641745790839, 0.0527917854487896, 0.02199036255478859, 0.011911354027688503, 0.04770956560969353, 0.0418778620660305, -0.011592511087656021, 0.029079847037792206, -0.028005823493003845, -0.013991044834256172, -0.013798153027892113, -0.029039647430181503, 0.016243815422058105, 0.034001585096120834, 0.02274426445364952, 0.035522766411304474, 0.010189834982156754, 0.0557749941945076, -0.008412125520408154, 0.04046335816383362, 0.03168082237243652, -0.009041859768331051, -0.01913021132349968, 0.006467282306402922, 0.009688087739050388, 