{"sizes": [784, 30, 30, 10, 10], "weights": [[[0.03001333400607109, -0.005003759637475014, 0.02771717682480812, 0.025111045688390732, 0.007706344127655029, 0.01809552311897278, -0.026479437947273254, 0.020210519433021545, 0.023515809327363968, 0.034306850284338, -0.03166181966662407, 0.018870797008275986, -0.024626359343528748, -0.021302714943885803, -7.288793858606368e-05, -0.03526889532804489, -0.03194599226117134, 0.014017399400472641, -0.013565225526690483, 0.015400398522615433, 0.030286554247140884, 0.007527556270360947, -0.03092329576611519, 0.01951693370938301, 0.028778482228517532, 0.013383116573095322, 0.007683500647544861, -0.018487360328435898, -0.012622402980923653, -0.03407536447048187, 0.015408381819725037, -0.016051828861236572, 0.033022914081811905, -0.007146585267037153, 0.016671935096383095, -0.032768648117780685, -0.01855672337114811, 0.004880980122834444, -0.02106979861855507, 0.005288674961775541, 0.017305970191955566, 0.03196563571691513, -0.04051688686013222, 0.011729798279702663, 0.015432300046086311, -0.020239779725670815, -0.011510471813380718, -0.019729632884263992, -0.0027744306717067957, -0.019632678478956223, -0.02206776849925518, 0.0032820904161781073, -0.027602482587099075, 0.006656266748905182, -0.02061411365866661, -0.017110658809542656, -0.026005472987890244, 0.01599271595478058, -0.03428274765610695, -0.015931468456983566, -0.021717268973588943, 0.027234787121415138, 0.007099761161953211, 0.03418798744678497, -0.0065097385086119175, -0.022527724504470825, -0.0014612379018217325, 0.02171551063656807, -0.005241993814706802, -0.03524789959192276, -0.020977851003408432, -0.015298907645046711, -0.007219488732516766, 0.0027033258229494095, 0.001048749778419733, 0.03117186948657036, 0.014965190552175045, 0.034423477947711945, -0.01595841534435749, -0.024441204965114594, 0.003985341172665358, -0.013666351325809956, 0.012883536517620087, -0.01269564963877201, 0.03030683472752571, 0.027936939150094986, -0.006479945499449968, 0.016734227538108826, -0.002365188905969262, -0.016286183148622513, -0.03291822224855423, 0.012689974159002304, -0.013337445445358753, 0.027069833129644394, 0.02502567321062088, 0.06005105748772621, -0.0022543263621628284, -0.001855615759268403, -0.004155720118433237, -0.0044847335666418076, -0.01938460022211075, 0.05848781764507294, 0.030069179832935333, 0.005151276011019945, 0.0535203218460083, 0.02533738501369953, -0.027775796130299568, 0.023777170106768608, -0.020833706483244896, -0.01016229297965765, 0.004431885667145252, 0.014291353523731232, 0.012165851891040802, 0.0032902234233915806, -0.03085409291088581, 0.033730845898389816, 0.031216487288475037, 0.02854013815522194, 0.014100714586675167, 0.02790086343884468, 0.0416773185133934, 0.04705948755145073, 0.04431212693452835, 0.0664486512541771, 0.0445641353726387, 0.008416843600571156, -0.006645483896136284, -0.0527721606194973, 0.015257170423865318, -0.019842049106955528, 0.0038713770918548107, -0.0034125896636396646, -0.014395228587090969, -0.014754689298570156, -0.023622360080480576, -0.029206817969679832, 0.04196588322520256, 0.019080746918916702, 0.005950515624135733, -0.027071649208664894, -0.026265541091561317, -0.024121630936861038, 0.019308747723698616, 0.03342704847455025, 0.016991037875413895, 0.007093561347573996, 0.03216586261987686, 0.03114728257060051, 0.06737740337848663, 0.06734155118465424, 0.10401924699544907, 0.13859236240386963, 0.050270289182662964, -0.001121073612011969, -0.002028275514021516, -0.06524338573217392, -0.002923885127529502, -0.01910054311156273, -0.035918302834033966, -0.0019573348108679056, -0.0015347672160714865, -0.054924122989177704, -0.07763424515724182, -0.03495911508798599, 0.012801091186702251, 0.005614032503217459, 0.015681719407439232, -0.0016766778426244855, 0.0013062134385108948, -0.023791160434484482, -3.4189381494798e-06, -0.003737163729965687, -0.008311158046126366, 0.006058088969439268, 0.05085258185863495, 0.04695451259613037, 0.10210345685482025, 0.13590632379055023, 0.06187333166599274, 0.0422675721347332, 0.03585721179842949, -0.022577669471502304, -0.015678806230425835, 0.0009823031723499298, 0.019948728382587433, -0.014989999122917652, -0.0012914284598082304, -0.03283435478806496, -0.016295064240694046, -0.024386286735534668, 0.00109470437746495, 0.006963125895708799, -0.009131980128586292, 0.043701834976673126, -0.03352188318967819, 0.03531214967370033, -0.0016609259182587266, 0.03289830684661865, 0.013372750952839851, -0.02991839125752449, -0.006885341368615627, 0.018027570098638535, 0.06316778063774109, 0.07028485834598541, 0.07485092431306839, 0.09121682494878769, 0.045415326952934265, 0.031520094722509384, -0.0688524842262268, -0.021940208971500397, -0.006014556623995304, 0.019976384937763214, 0.042081527411937714, -0.0012175473384559155, 0.020824644714593887, 0.010251575149595737, -0.04551227018237114, -0.004884073045104742, -0.03804348409175873, 0.001411058590747416, 0.01784193329513073, 0.048237886279821396, -0.007623167708516121, -0.015822039917111397, 0.015747709199786186, 0.025716617703437805, 0.02701394073665142, 0.00657633924856782, -0.019949205219745636, 0.03638492897152901, 0.021555816754698753, 0.10559727996587753, 0.06427107006311417, 0.08429207652807236, 0.0731513723731041, -0.00812444556504488, -0.026404745876789093, -0.05343504995107651, -0.027149418368935585, 0.041182320564985275, 0.04955777898430824, -0.009622663259506226, 0.05779527127742767, 0.0003646225086413324, 0.03253502771258354, 0.00891270861029625, 0.029336683452129364, 0.03336108475923538, 0.06428255885839462, 0.009008755907416344, 0.02337627112865448, 0.002700355602428317, -0.023409336805343628, -0.026420867070555687, -0.001579607604071498, -0.0024276133626699448, 0.04141595587134361, 0.0027503138408064842, 0.06489739567041397, 0.07235509902238846, 0.12776857614517212, 0.11951255798339844, 0.11193859577178955, 0.040337689220905304, -0.037277963012456894, -0.07476241141557693, -0.09098128229379654, -0.08519931137561798, -0.02059401571750641, -0.0002626767964102328, 0.06466411054134369, 0.06247933208942413, 0.045173514634370804, 0.05121772736310959, 0.010316143743693829, 0.08053388446569443, 0.06866879761219025, 0.010968628339469433, -0.02641311287879944, 0.015646692365407944, 0.021819159388542175, 0.02868860773742199, 0.004057570360600948, 0.015104783698916435, 0.020187877118587494, 0.04740529879927635, 0.04209323972463608, 0.1159171313047409, 0.08050484955310822, 0.14430725574493408, 0.061171211302280426, 0.033137716352939606, -0.05038918927311897, -0.08372706919908524, -0.11271302402019501, -0.12701314687728882, -0.028568513691425323, 0.03453204408288002, 0.06549500674009323, 0.06487627327442169, 0.08702553063631058, 0.06246386468410492, 0.061190150678157806, 0.07104703783988953, 0.03603943809866905, 0.0454876571893692, 8.490143954986706e-05, -0.0068201301619410515, 0.020224614068865776, -0.007463354151695967, -0.017463164404034615, -0.0155502799898386, 0.016325166448950768, 0.021459415555000305, 0.05191449448466301, 0.04079961031675339, 0.10387097299098969, 0.08304251730442047, 0.03159242868423462, 0.020765189081430435, -0.05973357334733009, -0.09807728230953217, -0.13228367269039154, -0.14106960594654083, -0.053066011518239975, -0.021664096042513847, 0.018121233209967613, 0.05192120373249054, 0.056164104491472244, 0.04068237915635109, 0.011762723326683044, 0.054996002465486526, -0.012989098206162453, 0.04135729372501373, -0.025159578770399094, -0.019202854484319687, -0.013550844974815845, -0.002388278255239129, 0.026162713766098022, -0.002552493242546916, -0.012031985446810722, 0.019934654235839844, 0.03894796967506409, 0.05400068312883377, 0.05782916396856308, 0.06734073162078857, 0.07387927919626236, 0.03658095747232437, -0.011785165406763554, -0.05292157083749771, -0.0997079387307167, -0.1254289299249649, -0.0400717593729496, -0.010418458841741085, 0.07437696307897568, 0.033765822649002075, 0.01670004054903984, 0.026291923597455025, 0.012885314412415028, -0.0006005577743053436, 0.004999490920454264, 0.023845629766583443, 0.02795081026852131, 0.01381340716034174, 0.023233914747834206, 0.03515944629907608, 0.022371526807546616, -0.018475351855158806, 0.013052447699010372, -0.010802334174513817, 0.0078304847702384, 0.06357022374868393, 0.04400874674320221, 0.03516317531466484, 0.10971847176551819, 0.04275614023208618, -0.020898431539535522, -0.01980721391737461, -0.0980549305677414, -0.09277527034282684, -0.005568559747189283, 0.047823186963796616, 0.11323205381631851, 0.07210225611925125, 0.040803514420986176, 0.027243252843618393, 0.046023864299058914, 0.011762524023652077, 0.01460928563028574, 0.01743331365287304, 0.012462110258638859, 0.02815043181180954, -0.012589158490300179, 0.003763557644560933, 0.0314384289085865, 0.024441322311758995, -0.02935732901096344, 0.006877232808619738, 0.01610109768807888, 0.031895801424980164, 0.04561737924814224, 0.03876923397183418, 0.0823371559381485, 0.05404626578092575, -0.00909846555441618, -0.020766232162714005, -0.09031292051076889, -0.04004132002592087, -0.011858142912387848, 0.15613025426864624, 0.17577990889549255, 0.09108623117208481, 0.07546181231737137, 0.06602560728788376, 0.04573580250144005, 0.04603260010480881, 0.03481931984424591, 0.03669647127389908, -0.01636389270424843, 0.006052798591554165, -0.02240709774196148, 0.021482540294528008, -0.03217880427837372, 2.9646691473317333e-05, 0.007079715840518475, 0.021231062710285187, 0.027313414961099625, 0.04063863679766655, 0.04655704274773598, 0.015456251800060272, 0.032459806650877, 0.008242418058216572, 0.01989053562283516, -0.03977321833372116, -0.07343216240406036, 0.02185077778995037, 0.02724173665046692, 0.17066140472888947, 0.1606350690126419, 0.10132686793804169, 0.09579059481620789, 0.025592297315597534, 0.051987919956445694, 0.052526190876960754, 0.015802305191755295, 0.029803112149238586, 0.025113046169281006, -0.014598120003938675, 0.027206338942050934, -0.033504217863082886, 0.004244896583259106, -0.027701884508132935, 0.02976915054023266, 0.0059938556514680386, 0.0387769490480423, 0.08866840600967407, 0.04363376647233963, 0.012167464941740036, -0.05217470973730087, -0.018077636137604713, 0.08444280177354813, -0.02454231120646, -0.04372057318687439, 0.04926243796944618, 0.09100410342216492, 0.23447316884994507, 0.1584937572479248, 0.1169055625796318, 0.04306432977318764, 0.02307683229446411, 0.07507112622261047, 0.009401731193065643, 0.022351358085870743, -0.01760171167552471, 0.041914571076631546, -0.01693340390920639, 0.027741197496652603, -0.004936546087265015, 0.012629351578652859, 0.012612083926796913, 0.03666170686483383, 0.06395572423934937, 0.10690745711326599, 0.04484117031097412, 0.030785158276557922, 0.010946267284452915, -0.02972247637808323, 0.047891199588775635, 0.03182022646069527, -0.002187686040997505, -0.008208357729017735, 0.10319419205188751, 0.19308097660541534, 0.19400836527347565, 0.12284938246011734, 0.045118048787117004, 0.07355085015296936, 0.05091045796871185, 0.0400664359331131, 0.031974755227565765, -0.009015779010951519, 0.028047913685441017, 0.01704113744199276, -0.002287558512762189, 0.033156491816043854, -0.022913817316293716, 0.01845654658973217, 0.03686843439936638, 0.03520815446972847, 0.06661094725131989, 0.08364822715520859, 0.06336183100938797, 0.0014707902446389198, 0.00029222058947198093, 0.034392256289720535, 0.061353929340839386, 0.05508245900273323, 0.0371849499642849, 0.01620563305914402, 0.12282117456197739, 0.13558146357536316, 0.04512958973646164, 0.03208417445421219, -0.012333467602729797, 0.02966265194118023, 0.03246486932039261, 0.05100042745471001, 0.0509820282459259, 0.03150889277458191, -0.005312865134328604, -0.01681431382894516, -0.026260092854499817, -0.007396845147013664, -0.01149667613208294, -0.03492017090320587, -0.009532761760056019, 0.01592138223350048, 0.0687016099691391, 0.06756604462862015, 0.02645834907889366, 0.006641604471951723, 0.006102264393121004, 0.00214577023871243, 0.014362179674208164, 0.057343289256095886, 0.033594436943531036, 0.046595294028520584, 0.039867378771305084, -0.012033414095640182, 0.03583493083715439, -0.026273950934410095, -0.03446168825030327, 0.050123028457164764, 0.03383141756057739, 0.04538095369935036, 0.03217395022511482, -0.010411443188786507, -0.008985302411019802, -0.01170602161437273, 0.011695303954184055, 0.009353984147310257, 0.030201274901628494, 0.013562505133450031, -0.016319992020726204, 0.023284167051315308, 0.003804547246545553, -0.03643738850951195, -0.009961050935089588, -0.033587004989385605, -0.0016418106388300657, -0.013123976066708565, -0.00861371774226427, -0.0031617386266589165, 0.0634910836815834, -0.03061223402619362, 0.03443371504545212, -0.0742248073220253, -0.06625087559223175, -0.04914679005742073, -0.0037929790560156107, 0.009350297041237354, 0.009310760535299778, 0.05617512762546539, 0.011451825499534607, -0.011515761725604534, -0.011539321392774582, 0.010671567171812057, 0.000428294442826882, 0.020258406177163124, -0.017384395003318787, -0.028507493436336517, 0.0419636070728302, 0.03023076243698597, -0.040679462254047394, -0.06083313003182411, -0.023545634001493454, -0.04005178436636925, 0.018443219363689423, -0.030091309919953346, -0.027234578505158424, 0.03883606567978859, 0.032536040991544724, 0.021236201748251915, 0.0144584309309721, -0.022457994520664215, 0.004930551163852215, 0.003412224119529128, 0.0093296580016613, 0.030640482902526855, 0.04765530303120613, 0.035789910703897476, -0.011173292994499207, 0.02978559024631977, -0.02997451275587082, -0.0024960592854768038, -0.02701742574572563, -0.008763836696743965, -0.034338708966970444, -0.012972069904208183, 0.012472427450120449, 0.03498568385839462, -0.08394529670476913, -0.05258442834019661, -0.029993804171681404, -0.05245956778526306, -0.032003119587898254, -0.010711519047617912, 0.031833209097385406, 0.09054692834615707, 0.058643925935029984, 0.02046280726790428, 0.04522189125418663, -0.022199036553502083, -0.015390392392873764, 0.005217506550252438, 0.024278583005070686, 0.00843437947332859, 0.06939597427845001, 0.008825689554214478, -0.009500210173428059, -0.018314577639102936, 0.01584162749350071, -0.02787160500884056, 0.02633911371231079, 0.021750029176473618, 0.018854640424251556, 0.03345605731010437, -0.008430521935224533, 0.004424297716468573, -0.043077364563941956, -0.06187872961163521, -0.03279365226626396, 0.0010197439696639776, -0.018690254539251328, 0.020531632006168365, 0.01809704303741455, -0.04047087952494621, -0.00717816362157464, 0.03535724803805351, -0.004685525316745043, 0.018998490646481514, -0.04691166803240776, 0.005426149815320969, 0.06802408397197723, 0.018656432628631592, 0.019489232450723648, 0.04337906464934349, 0.0348210446536541, -0.013982949778437614, 0.012611822225153446, -0.003013214096426964, -0.022529011592268944, -0.02257182076573372, 0.011924732476472855, -0.034953951835632324, -0.01689927838742733, 0.032233256846666336, 0.014249812811613083, 0.03093358315527439, 0.04676021635532379, 0.00614439370110631, 0.007836701348423958, 0.03593715280294418, 0.09400644898414612, 0.08967654407024384, 0.07518268376588821, 0.06827157735824585, 0.05839964374899864, 0.061304058879613876, 0.05201517790555954, 0.035678666085004807, 0.03829701989889145, -0.00434906268492341, -0.00689504761248827, -0.002884627552703023, 0.016578979790210724, -0.011775785125792027, 0.03256615996360779, 0.020151671022176743, 0.02443915605545044, 0.028181400150060654, 0.005194265395402908, -0.026027994230389595, 0.016339914873242378, -0.018270060420036316, -0.0007169463788159192, -0.0028295046649873257, 0.014612413942813873, 0.035104021430015564, 0.0198690053075552, 0.08743265271186829, 0.04516436532139778, 0.08265629410743713, 0.10466870665550232, 0.08003812283277512, 0.07439600676298141, 0.05266993120312691, 0.018845127895474434, 0.014377918094396591, 0.012764929793775082, -0.009978623129427433, 0.0054166074842214584, 0.02876618690788746, -0.012221019715070724, -0.004250220488756895, -0.03312961384654045, -0.03032071329653263, 0.007834300398826599, -0.00386640802025795, -0.026647299528121948, -0.011757506057620049, -0.033309925347566605, -0.026726586744189262, 0.0355413556098938, -0.02265116572380066, 0.0046465122140944, -0.029210546985268593, -0.025817641988396645, -0.007989482954144478, -0.0081800427287817, -0.011640683747828007, 0.05442139506340027, -0.00776522746309638, 0.016906822100281715, -0.011053455993533134, -0.03454555943608284, -0.009018776006996632, -0.028512438759207726, 0.02467268891632557, 0.034442171454429626, -0.02070644125342369, 0.01386133674532175, 0.03562692180275917, -0.027032461017370224, 0.01923741027712822, 0.018876302987337112, 0.02366795763373375, -0.023841585963964462, -0.023209773004055023, 0.0200393944978714, -0.02390798181295395, 0.019549759104847908, -0.023208925500512123, -0.013165577314794064, -0.013688175939023495, 0.018662238493561745, -0.02571430243551731, -0.018750503659248352, -0.02004971355199814, 0.016343088820576668, 0.024547697976231575, 0.030001629143953323, -0.007714718114584684, -0.03048221953213215, -0.029560742899775505, -0.027016837149858475, 0.024295058101415634, -0.01879378966987133, -0.029870785772800446, -0.027320554479956627, 0.026127204298973083, -0.02519146539270878, 0.02738858386874199, -0.0010003447532653809], [-0.012798437848687172, 0.010888062417507172, 0.015143148601055145, 0.025214072316884995, 0.0074881985783576965, 0.03221255913376808, -0.025319471955299377, 0.02670643851161003, 0.023492202162742615, 0.02478308603167534, -0.010702483355998993, 0.03181016817688942, 0.03385329991579056, 0.020485736429691315, -0.016700664535164833, -0.0030910526402294636, -0.005979308858513832, -0.034284841269254684, -0.005085064098238945, 0.020236629992723465, 0.01872541755437851, -0.01662505604326725, -0.03323344513773918, 0.008772522211074829, 0.03441368415951729, 0.03182129189372063, 0.012886710464954376, -0.013515787199139595, 0.034627918154001236, -0.026795558631420135, -0.01156352274119854, 0.0029775388538837433, -0.031875140964984894, -0.009087481535971165, 0.0276899766176939, -0.018175041303038597, 0.012789671309292316, -0.02715575322508812, 0.03415607288479805, 0.009339566342532635, 0.023450670763850212, 0.025381559506058693, -0.003870890010148287, -0.01789696328341961, -0.02363475225865841, -0.02215809002518654, 0.004350701346993446, 0.010827208869159222, 0.017368724569678307, 0.019674982875585556, -0.019451582804322243, -0.018588777631521225, -0.016109786927700043, -0.0007103085517883301, -0.011992242187261581, 0.014449585229158401, -0.022528931498527527, -0.016306055709719658, -0.005017139948904514, -0.009323418140411377, -0.021449817344546318, 0.0336969830095768, 0.010275106877088547, 0.020183414220809937, 0.03044024668633938, 0.0072802212089300156, 0.018919887021183968, -0.003673878265544772, 0.0202212855219841, 0.024186786264181137, 0.05147985368967056, 0.02072015218436718, 0.03883771225810051, -0.008989967405796051, 0.005637753754854202, 0.018386537209153175, 0.000857589184306562, 0.03159766644239426, -0.02107410319149494, -0.01724865660071373, -0.017450077459216118, -0.02643725462257862, -0.030960198491811752, -0.02038382738828659, 0.020164813846349716, 0.027811381965875626, -0.00040148396510630846, 0.01940004900097847, -0.0036846925504505634, 0.008651971817016602, -0.024207299575209618, -0.005873984657227993, 0.04051932692527771, 0.03426919877529144, 0.01945580542087555, 0.02453862503170967, 0.0583457313477993, 0.05261848121881485, 0.017528895288705826, 0.03090996854007244, 0.03813009336590767, 0.011539695784449577, 0.07776448875665665, 0.04143357649445534, 0.05286506190896034, 0.050716858357191086, 0.018727825954556465, 0.011737133376300335, 0.011713600717484951, -0.011814248748123646, 0.02068859338760376, -0.00012958794832229614, 0.03155021741986275, 0.01805036887526512, 0.03088543750345707, 0.005362267605960369, 0.036232274025678635, 0.0004216123197693378, -0.01803290843963623, -0.023198062554001808, 0.011607765220105648, 0.03541728854179382, 0.03359005227684975, 0.03299080207943916, 0.06033237278461456, 0.011418938636779785, 0.019637851044535637, 0.014506793580949306, 0.009977566078305244, 0.023092493414878845, 0.041416916996240616, 0.05001140385866165, 0.05375588685274124, -0.001669430173933506, 0.030327539891004562, 0.028671156615018845, 0.03196653723716736, 0.021945245563983917, 0.022745512425899506, -0.03410426154732704, 0.012452337890863419, -0.03527595102787018, -0.01799955777823925, 9.078133007278666e-05, -0.02178843505680561, 0.009005086496472359, -0.0175384022295475, -0.022039106115698814, -0.005768894217908382, 0.02685394510626793, 0.03698372840881348, 0.05678386613726616, 0.015300248749554157, -0.018055619671940804, -0.014441988430917263, -0.02675715461373329, 0.013939793221652508, -0.01597278192639351, -0.03372982144355774, 0.004552071914076805, 0.026843853294849396, 0.021362513303756714, 0.0266503244638443, 0.005919378716498613, 0.018495742231607437, 0.04200718179345131, 0.02403833344578743, 0.005983400624245405, -0.009919291362166405, 0.02141360379755497, -0.007717787753790617, -0.03750705346465111, 0.004000217188149691, -0.00325875380076468, -0.0208892785012722, 0.02008431777358055, -0.00967139657586813, 0.01929820515215397, 0.014016168192029, -0.02061234414577484, 0.03700233995914459, 0.004418722819536924, 0.06943847984075546, 0.026338739320635796, -0.0016828221268951893, -0.03976457566022873, -0.03034467063844204, -0.07739688456058502, -0.05159452185034752, -0.07176855951547623, -0.010084069333970547, 0.022012287750840187, 0.07227572053670883, 0.05224364995956421, 0.039711590856313705, -0.010346275754272938, 0.013237065635621548, -0.025717156007885933, -0.002885739551857114, 0.01586771197617054, -0.01723606511950493, -0.02802305668592453, -0.04313836619257927, 0.0188300758600235, 0.02128473110496998, -0.006323456298559904, -0.06468147784471512, -0.010157630778849125, 0.020049549639225006, -0.008081048727035522, 0.07227028906345367, 0.09442510455846786, 0.0064421724528074265, -0.043624646961688995, -0.07823750376701355, -0.10608680546283722, -0.09451065957546234, -0.027959799394011497, -0.04725617170333862, 0.008328396826982498, 0.06616292148828506, 0.032824382185935974, 0.024669909849762917, 0.034071002155542374, -0.027165891602635384, 0.01021446194499731, -0.0009865426691249013, -0.03449040278792381, -0.028760049492120743, 0.0004774595727212727, -0.008603732101619244, 0.024654656648635864, -0.03139353170990944, -0.019879793748259544, -0.04026716947555542, -0.01531947497278452, 0.018091928213834763, 0.06463370472192764, 0.054235853254795074, 0.06894256174564362, 0.010691776871681213, -0.09116055816411972, -0.0832466408610344, -0.05451983958482742, -0.07060553878545761, -0.013059239834547043, -0.0717654600739479, 0.020474275574088097, 0.10342537611722946, 0.10164602100849152, -0.002580704167485237, -0.011095745489001274, 0.009950725361704826, -0.02360292710363865, -0.017576081678271294, -0.018329137936234474, -0.00642176391556859, -0.05494865030050278, -0.014731303788721561, -0.008178571239113808, -0.04055584594607353, -0.05590077489614487, -0.027254102751612663, 0.038403067737817764, -0.0017708403756842017, 0.030293989926576614, 0.07823053747415543, 0.038006044924259186, -0.03791223466396332, -0.11790789663791656, -0.055774495005607605, -0.10029865801334381, -0.0619952455163002, -0.036211613565683365, -0.031995989382267, -0.004728381521999836, 0.0800275206565857, 0.09708038717508316, 0.020136374980211258, -0.03053007274866104, 0.027829229831695557, 0.0255667045712471, -0.009914313443005085, -0.06458411365747452, -0.03758411109447479, -0.06934738159179688, -0.06930758059024811, -0.0049028703942894936, -0.002434168476611376, -0.045668695122003555, 0.017732808366417885, -0.03725282475352287, 0.04114828258752823, 0.0581178292632103, 0.12052668631076813, 0.08312482386827469, -0.061541665345430374, -0.07440207153558731, -0.05983506143093109, -0.0654619038105011, -0.047409918159246445, -0.0655268058180809, -0.05887262523174286, -0.01573234423995018, 0.043281275779008865, 0.07253504544496536, 0.02387324906885624, -0.03089401125907898, -0.028971059247851372, 0.01737324334681034, -0.026462063193321228, -0.05467793345451355, -0.05206192657351494, -0.03906756266951561, -0.03713066503405571, -0.03996623307466507, 0.02005152590572834, 0.009440270252525806, -0.055541541427373886, -0.031568337231874466, 0.04514069855213165, 0.0910467654466629, 0.17429155111312866, 0.10230223089456558, 0.0042579458095133305, -0.10752850025892258, -0.08354245871305466, -0.04444269463419914, -0.048514023423194885, -0.09309697151184082, -0.07252658158540726, 0.0011861911043524742, 0.04958605393767357, 0.04164363816380501, 0.0301236342638731, -0.0015633285511285067, 0.02593056857585907, -0.014748835936188698, 0.007829357869923115, -0.03471245989203453, -0.07956649363040924, -0.10685718059539795, -0.05253009498119354, -0.022629307582974434, 0.001955092651769519, 0.030885491520166397, 0.005516055040061474, 0.0297862496227026, 0.09249266237020493, 0.18633005023002625, 0.20789727568626404, 0.11880902945995331, -0.05110196769237518, -0.08979976177215576, -0.006086984649300575, -0.004085993859916925, -0.036105457693338394, -0.08497757464647293, -0.07886243611574173, -0.05363881587982178, -0.0553383007645607, 0.030802374705672264, -0.029864536598324776, -0.03362128511071205, -0.021293513476848602, -0.002593509154394269, 0.009648536331951618, -0.04395359382033348, -0.036689892411231995, -0.07569196820259094, -0.07678060978651047, -0.02384866774082184, 0.0397007055580616, 0.028193455189466476, -0.057794660329818726, -0.0004318810533732176, 0.10100091993808746, 0.22513940930366516, 0.18031632900238037, 0.08173657953739166, -0.001196662662550807, 0.01086773443967104, -0.018832676112651825, 0.023763980716466904, -0.04851413890719414, -0.03437768667936325, -0.05454917252063751, -0.03666305914521217, -0.04064108058810234, -0.05538438260555267, 0.024546971544623375, -0.014767576940357685, -0.022096645087003708, -0.02524559386074543, -0.01673836261034012, -0.013187099248170853, -0.01652541756629944, -0.07377255707979202, -0.05962766334414482, -0.020835690200328827, -0.032790668308734894, -0.022365577518939972, -0.04063300043344498, 0.0036918523255735636, 0.055664822459220886, 0.17456665635108948, 0.12129993736743927, 0.05044156312942505, 0.027850724756717682, -0.006120440550148487, -0.03211965039372444, -0.07000008970499039, -0.11530585587024689, -0.08972319960594177, -0.09171748906373978, -0.0681026428937912, -0.05867021158337593, -0.007373000495135784, -0.02005676180124283, 0.0057060192339122295, 0.0032759797759354115, 0.010276496410369873, 0.001428029383532703, 0.00506190350279212, -0.04092828556895256, -0.07523127645254135, -0.04367874190211296, -0.03894849866628647, -0.01982571743428707, 0.00034040503669530153, -0.027845019474625587, 0.04962558671832085, 0.10976549237966537, 0.15470215678215027, 0.09287519752979279, -0.05297960340976715, -0.037604693323373795, -0.04789251461625099, -0.06746353954076767, -0.11957977712154388, -0.10934137552976608, -0.07697462290525436, -0.07468805462121964, -0.05780456215143204, -0.02455308847129345, -0.0007059833151288331, 0.010743403807282448, -0.009843746200203896, -0.01566116139292717, 0.009898131713271141, 0.009314249269664288, 0.0027214137371629477, -0.018758011981844902, -0.017384279519319534, -0.012107118032872677, -0.07671980559825897, -0.07267261296510696, -0.02646620385348797, -0.033425863832235336, 0.03531701862812042, 0.09740449488162994, 0.0834427997469902, -0.031197678297758102, -0.05777231231331825, -0.09107907116413116, -0.09837757050991058, -0.052302420139312744, -0.06884925067424774, -0.10975229740142822, -0.10026399791240692, -0.045416224747896194, -0.006535997148603201, 0.012503590434789658, -0.039345573633909225, -0.009014958515763283, 0.028015993535518646, -0.025242768228054047, 0.022009801119565964, -0.002277473919093609, 0.030598057433962822, 0.008891538716852665, -0.03668203949928284, 0.017110725864768028, -0.028681593015789986, -0.023003624752163887, -0.039345066994428635, -0.021846244111657143, 0.053842585533857346, 0.09585544466972351, -0.006257636938244104, -0.051745761185884476, -0.10155713558197021, -0.05235212668776512, -0.09639517962932587, -0.07265011221170425, -0.03333502635359764, -0.037194933742284775, -0.04174301400780678, -0.04382265359163284, 0.046942729502916336, 0.01766391471028328, 0.004099917598068714, -0.04025160148739815, -0.01487240381538868, 0.00963194016367197, 0.027931850403547287, -0.006183444056659937, -0.009021888487040997, 0.00415762746706605, 0.04001110419631004, 0.025274520739912987, -0.023001940920948982, -0.008401917293667793, -0.058404598385095596, -0.018147537484765053, -0.016469543799757957, 0.055779047310352325, -0.03330688178539276, -0.0023354082368314266, -0.05545889586210251, -0.015727026388049126, -0.03748009353876114, -0.05886918306350708, -0.048139967024326324, 0.010263359174132347, -0.00032357394229620695, -0.005778866820037365, 0.0355750136077404, 0.020395049825310707, -0.022543227300047874, 0.004746348597109318, -0.02427942492067814, -0.023936677724123, 0.013146918267011642, -0.01737559400498867, 0.01387765258550644, 0.011969967745244503, 0.010893761180341244, 0.019107699394226074, -0.04212648421525955, -0.021553587168455124, -0.04050734266638756, 0.011033511720597744, -0.011782867833971977, -0.04464307054877281, -0.032764237374067307, 0.009287354536354542, 0.014340721070766449, 0.03950120508670807, -0.006953873205929995, 0.032623160630464554, 0.013368208892643452, 0.02221369557082653, -0.006597453728318214, 0.025823350995779037, 0.015486234799027443, 0.031961534172296524, 0.019139301031827927, -0.026982035487890244, 0.005258499179035425, 0.0012420453131198883, 0.00558204622939229, 0.03803706541657448, 0.04972164332866669, 0.016096249222755432, 0.03620143234729767, -0.005217039957642555, -0.03604796156287193, 0.032020870596170425, 0.0382094532251358, -0.05005066841840744, -0.001957457046955824, 0.010915545746684074, 0.013556751422584057, 0.078799769282341, 0.06067033112049103, 0.07686731964349747, 0.03194116801023483, 0.0884871631860733, 0.04975274205207825, 0.038365889340639114, 0.03945622593164444, 0.014253389090299606, 0.025309668853878975, -0.024559563025832176, 0.026289181783795357, -0.0064539979211986065, 0.00848790630698204, 0.031056663021445274, -0.023453030735254288, -0.01203326229006052, 0.03926295414566994, 0.010281695984303951, 0.04795704036951065, -0.0030864065047353506, 0.040358077734708786, 0.039625562727451324, 0.044411301612854004, 0.018302809447050095, 0.0368337407708168, 0.022394990548491478, 0.03590365871787071, 0.09651052951812744, 0.07267114520072937, 0.06478730589151382, 0.047003619372844696, 0.06737170368432999, 0.014128755778074265, 0.032449860125780106, 0.002227525692433119, -0.005441742017865181, 0.02517857775092125, -0.01587505266070366, 0.036108680069446564, 0.02424495853483677, 0.029519997537136078, 0.018952203914523125, 0.018640294671058655, -0.01661171019077301, -0.013249808922410011, 0.021957363933324814, -0.0010233563371002674, -0.04153808206319809, -0.03869454190135002, -0.06282135844230652, -0.022503064945340157, 0.009548412635922432, 0.05638552084565163, 0.006356666795909405, 0.016108650714159012, 0.04484517499804497, 0.04815318435430527, 0.04089859127998352, 0.026900600641965866, 0.013264721259474754, 0.05576213076710701, -0.0017045752611011267, 0.04806692898273468, -0.0019592756871134043, -0.036797087639570236, -0.011084253899753094, 0.03436613455414772, 0.03333166986703873, 0.028048161417245865, -0.007802980020642281, -0.007080290466547012, 0.036238476634025574, -0.015484851785004139, 0.03317667171359062, -0.028780542314052582, -0.015619981102645397, -0.020884167402982712, 0.03286292403936386, -0.005078116897493601, 0.04785126820206642, 0.03398611396551132, 0.06389525532722473, 0.03624792769551277, 0.04084623605012894, 0.04856555908918381, 0.08329738676548004, 0.061621908098459244, 0.05220162495970726, 0.027184106409549713, 0.040748633444309235, 0.000440100091509521, 0.0028550419956445694, -0.02275164984166622, -0.011978894472122192, 0.013664142228662968, -0.02594638802111149, -0.0221711453050375, -0.020605186000466347, -0.028386883437633514, -0.0038624675944447517, 0.0402684211730957, -0.018130887299776077, -0.03199230879545212, -0.05646659433841705, -0.010682635940611362, -0.014358684420585632, 0.0631914809346199, 0.033048033714294434, 0.0343184769153595, -0.0007809059461578727, 0.010566691868007183, 0.048713747411966324, 0.0326218344271183, 0.05634644255042076, 0.05309819057583809, 0.015268792398273945, 0.044905610382556915, 0.012678253464400768, -0.013410957530140877, 0.016966214403510094, 0.035592880100011826, -0.02741558849811554, 0.0133696673437953, -0.01723547652363777, -0.0018719173967838287, 0.017011191695928574, -0.024183666333556175, 0.013763297349214554, -0.020197708159685135, -0.0010040621273219585, -0.0245708916336298, 0.0041120764799416065, -0.014246523380279541, -0.0065255253575742245, 0.0014256127178668976, 0.01815587654709816, 0.0329052172601223, 0.015421135351061821, 0.05371972173452377, -0.01861974410712719, 0.04560814052820206, 0.028997967019677162, 0.037432026118040085, -0.012960940599441528, -0.0014348102267831564, -0.009850092232227325, -0.0017437997739762068, 0.03920433670282364, 0.009817369282245636, -0.01716039329767227, -0.03495550528168678, -0.02398841641843319, -0.03264510631561279, 0.01067211851477623, -0.02145172655582428, -0.0065785907208919525, -0.031758081167936325, 0.0013593608746305108, 0.02132861688733101, 0.008708341047167778, -0.01926005259156227, -0.022085249423980713, 0.019138278439641, 0.023361576721072197, 0.01903427019715309, -0.017983196303248405, 0.001588601851835847, -0.023735687136650085, -0.007191572804003954, -0.04227204993367195, -0.013083613477647305, 0.0019079054472967982, -0.026591964066028595, 0.020811470225453377, -0.031025368720293045, -0.037776876240968704, -0.010869111865758896, -0.02245068922638893, 0.021592125296592712, -0.03426804393529892, 0.01775054633617401, 0.03435159847140312, -0.02026933990418911, 0.029589656740427017, 0.013895828276872635, 0.014957043342292309, 0.029828084632754326, 0.028963908553123474, 0.003638475202023983, 0.027144042775034904, -0.021040476858615875, -0.02420620247721672, 0.013572804629802704, 0.0017203153111040592, 0.025681162253022194, -0.035085760056972504, -0.02267131768167019, -0.006219956558197737, -0.029585978016257286, -0.025493944063782692, -0.008255750872194767, -0.0218577329069376, -0.010638316161930561, -0.03539201617240906, -0.021302223205566406, -0.0027678944170475006, -0.011198572814464569, -0.028679734095931053, 0.019549094140529633], [0.033551957458257675, 0.0063534267246723175, -0.013541264459490776, -0.019087864086031914, -0.005427675321698189, 0.026425108313560486, -0.03431147336959839, -0.033156562596559525, -0.021465903148055077, 0.010649207979440689, 0.028994906693696976, -0.013307677581906319, 0.03301228955388069, 0.015898656100034714, -0.011649476364254951, 0.02690923772752285, -0.008363081142306328, -0.013378076255321503, 0.025336328893899918, -0.0037141479551792145, 0.00954267755150795, -0.025260768830776215, -0.017976118251681328, -0.010992586612701416, 0.011798202991485596, -0.014769116416573524, 0.02077527716755867, -0.02770160511136055, -0.01010589487850666, -0.011022968217730522, 0.0031383372843265533, 0.03570341691374779, 0.025627756491303444, -0.002887948416173458, 0.00797059666365385, 0.009614643640816212, 0.017162159085273743, 0.00618678517639637, -0.005030288361012936, 0.03177089989185333, -0.008414825424551964, 0.010136022232472897, -0.026447812095284462, -0.029155230149626732, -0.01605251058936119, 0.03469320014119148, 0.02057260274887085, -0.027655649930238724, -0.011722109280526638, 0.007804169785231352, -0.027592593804001808, 0.025827517732977867, -0.02121545374393463, 0.006618335843086243, 0.008574336767196655, 0.005570363253355026, 0.021629177033901215, -0.01286015473306179, 0.03441302478313446, -0.01738015189766884, 0.031514301896095276, -0.03318259119987488, 0.02274293825030327, -0.009665608406066895, 0.035014063119888306, -0.030474595725536346, -0.01553436741232872, 0.002190696308389306, -0.02347751148045063, 0.04545360431075096, 0.016023581847548485, 0.0237978994846344, -0.0018008868210017681, 0.006310280412435532, 0.005195889621973038, 0.014023495838046074, 0.028057383373379707, -0.03244001045823097, -0.011978961527347565, -0.012695075012743473, 0.03450002893805504, 0.01516715344041586, 0.03512243553996086, -0.01053985208272934, 0.004751570522785187, 0.021057114005088806, -0.00944917369633913, -0.0023113428615033627, -0.027035443112254143, -0.010262582451105118, -0.024296313524246216, 0.037543319165706635, 0.03060651570558548, -0.005716379731893539, 0.02050700969994068, 0.006958831567317247, -0.034617871046066284, 0.013154393993318081, 0.028884269297122955, -0.008572629652917385, -0.008873414248228073, 0.02834872342646122, 0.051683925092220306, 0.06804386526346207, 0.0024410628248006105, -0.011323429644107819, 0.03870031610131264, 0.001485768472775817, 0.01059978362172842, -0.0036353827454149723, 0.011642944999039173, 0.002750854939222336, -8.090212941169739e-05, 0.012539505958557129, -0.008040622808039188, -0.020810309797525406, 0.0005263711791485548, 0.028554441407322884, -0.003334804205223918, 0.0048696184530854225, -0.0007459758198820055, 0.038478508591651917, -0.00894962903112173, -0.040495265275239944, 0.0028884122148156166, 0.014567997306585312, 0.00790854636579752, 0.03773174062371254, 0.0468035563826561, 0.05578699707984924, 0.036263130605220795, 0.05069766566157341, 0.07161081582307816, 0.024716585874557495, 0.014177849516272545, 0.02131524495780468, -0.034182723611593246, -0.010720000602304935, -0.03514308109879494, -0.016852006316184998, 0.023398395627737045, -0.012724405154585838, 0.035052113234996796, -0.024182401597499847, 0.027875984087586403, -0.02976398915052414, 0.0016031299019232392, -0.023500937968492508, -0.044196829199790955, 0.026736298575997353, -0.025317706167697906, -0.03161206841468811, -0.015358435921370983, -0.058741405606269836, -0.00020599566050805151, 0.005796162411570549, 0.06073513999581337, 0.061065226793289185, 0.03481883928179741, 0.005171109456568956, 0.08045581728219986, 0.030543232336640358, 0.017006896436214447, 0.039278533309698105, 0.033335376530885696, -0.007124688941985369, -0.016816088929772377, -0.03477638214826584, -0.034843482077121735, 0.03340362012386322, -0.017587581649422646, -0.0003443249734118581, 0.0007419832982122898, -0.03262438252568245, -0.07342595607042313, -0.008465761318802834, -0.07465039193630219, -0.07035466283559799, -0.069954052567482, -0.0412931852042675, -0.03450088948011398, -0.08862889558076859, -0.06369315832853317, -0.06639505922794342, -0.07745040208101273, -0.03710106015205383, -0.05321108549833298, -0.009249304421246052, -0.012236122041940689, -0.017944587394595146, 0.03936498239636421, 0.049619924277067184, 0.05588194727897644, 0.03652236610651016, 0.004124116152524948, 0.015232594683766365, -0.027526400983333588, 0.024332737550139427, 0.03157622367143631, -0.04989403113722801, -0.01722601242363453, -0.02025993913412094, -0.019194232299923897, -0.04662089794874191, -0.062497202306985855, -0.04019381105899811, -0.05162918567657471, -0.0918102115392685, -0.09097062796354294, -0.09193401783704758, -0.1293346881866455, -0.10000505298376083, -0.14113500714302063, -0.07722502946853638, -0.08389803022146225, -0.07376523315906525, -0.05011995509266853, -0.032244715839624405, 0.02080199122428894, 0.060455869883298874, 0.04916733130812645, 0.05237741395831108, -0.027529101818799973, 0.032278791069984436, -0.02592054009437561, 0.03171338513493538, -0.03538217768073082, -0.02058689296245575, -0.01393602043390274, -0.024916483089327812, -0.025509275496006012, -0.052234817296266556, -0.0522344633936882, -0.05214357003569603, -0.020089611411094666, -0.05754755809903145, -0.04729776456952095, -0.1038312092423439, -0.16272903978824615, -0.11013856530189514, -0.10126911103725433, -0.07748430967330933, -0.02612788788974285, 0.03378890082240105, 0.010264148935675621, 0.014411249198019505, 0.007884284481406212, 0.043770309537649155, 0.06423168629407883, 0.056855686008930206, 0.006269706878811121, -0.005397878587245941, 0.014968739822506905, -0.009524942375719547, 0.01447279378771782, 0.0020627162884920835, -0.05529419705271721, -0.0490550696849823, 0.0021608599927276373, -0.005553321447223425, -0.028582334518432617, -0.008614880032837391, -0.06662853807210922, -0.035628922283649445, -0.12783443927764893, -0.11177948117256165, -0.14869645237922668, -0.13048800826072693, -0.07350888848304749, -0.039618365466594696, 0.009043357335031033, 0.011126420460641384, 0.042736466974020004, 0.05138496682047844, -0.009837215766310692, 0.07151927798986435, 0.06397530436515808, 0.05027981102466583, 0.00672471197322011, -0.03199389576911926, -0.007554450538009405, -0.027335943654179573, -0.04181034117937088, -0.026332346722483635, -0.00487483199685812, 0.007542688399553299, -0.01875842548906803, 0.03639821335673332, 0.02866305224597454, 0.012892237864434719, -0.015877170488238335, 0.018041960895061493, -0.000585740664973855, -0.04124413803219795, -0.0427432656288147, -0.009095471352338791, -0.011839276179671288, -0.016730088740587234, 0.03795694559812546, 0.030300674960017204, 0.021848047152161598, 0.018568160012364388, 0.009573834016919136, 0.033422037959098816, 0.022560138255357742, 0.008820172399282455, 0.02059308998286724, 0.0010484879603609443, 0.028035864233970642, 0.03086860664188862, -0.038089048117399216, -0.05921940132975578, -0.0009101605392061174, 0.08339052647352219, 0.051292676478624344, 0.00826270505785942, 0.011170066893100739, 0.013415037654340267, 0.008820542134344578, -0.002899745712056756, 0.12188176810741425, 0.0830308124423027, 0.06570084393024445, 0.06106763705611229, 0.026090560480952263, -0.031591884791851044, -0.025769248604774475, -0.030961383134126663, 0.01484101451933384, -0.01992388628423214, 0.015250119380652905, -0.013519294559955597, 0.014634559862315655, 0.050188805907964706, -0.021030765026807785, 0.011137749068439007, 0.019417496398091316, -0.02730695903301239, -0.03188092261552811, -0.04939707741141319, 0.022721491754055023, 0.02649075910449028, 0.02512732893228531, 0.020219141617417336, 0.03630197420716286, 0.05478396266698837, 0.04890372231602669, 0.10751082003116608, 0.15871217846870422, 0.09607651084661484, 0.11172014474868774, 0.055817216634750366, 0.0063895294442772865, 0.01855551451444626, -0.018334712833166122, 0.003267239546403289, -0.029707560315728188, 0.011992312036454678, 0.015006959438323975, -0.006569474469870329, -0.0033532981760799885, 0.027217403054237366, -0.006068259011954069, 0.01688074693083763, -0.03438246622681618, 0.030849363654851913, -0.027662232518196106, 0.008180247619748116, -0.030297791585326195, 0.02985861897468567, 0.04617169499397278, 0.028278369456529617, 0.04576655104756355, 0.01750178448855877, 0.012576795183122158, 0.052962757647037506, 0.05640092492103577, 0.11214166134595871, 0.1013164296746254, 0.08422365039587021, 0.07916523516178131, 0.03629503771662712, 0.016353441402316093, -0.005255909636616707, 0.028739767149090767, -0.006641767453402281, 0.00039025882142595947, -0.020694077014923096, -0.007910165935754776, 0.002710706554353237, -0.02495719864964485, 0.031535837799310684, 0.01045091263949871, 0.014655902981758118, -0.017617013305425644, 0.004243873991072178, 0.04107625409960747, 0.008225776255130768, 0.0030276954639703035, -0.01707136631011963, 0.018579281866550446, 0.0008982460130937397, 0.03526413068175316, 0.03137819841504097, 0.033016156405210495, 0.046032361686229706, 0.030615290626883507, 0.029229765757918358, 0.07336409389972687, 0.07657137513160706, 0.027428342029452324, 0.06333975493907928, 0.002867939881980419, -0.061063252389431, -0.026298312470316887, -0.0174008309841156, -0.008043846115469933, -0.023403404280543327, 0.001283607678487897, 0.0034843720495700836, -0.01769554242491722, -0.002636569319292903, 0.0012080986052751541, -0.011573870666325092, 0.009522529318928719, 0.027994435280561447, 0.040207140147686005, -0.0012914026156067848, 0.024718232452869415, 0.010642183013260365, -0.01941990666091442, -0.014408018440008163, 0.027223672717809677, 0.07872681319713593, 0.034805912524461746, 0.018841316923499107, 0.09549812972545624, 0.02513303980231285, 0.06709299981594086, 0.003825122257694602, -0.014666738919913769, -0.047890402376651764, -0.012178339064121246, -0.015061145648360252, -0.016133233904838562, 0.04144719988107681, -0.021140409633517265, -0.028996353968977928, -0.008406485430896282, 0.03248541057109833, 0.0191316120326519, -0.01047069113701582, 0.02585502713918686, -0.004548107273876667, 0.018646864220499992, 0.024998582899570465, 0.03310030698776245, 0.039497505873441696, -0.009871031157672405, 0.05838487669825554, 0.04906945675611496, 0.06908685714006424, 0.09341953694820404, 0.1120610311627388, 0.11165078729391098, 0.05270761251449585, 0.04009169340133667, 0.012294490821659565, -0.04203934222459793, -0.06256942451000214, -0.047272954136133194, -0.038882263004779816, 0.021087629720568657, -0.017500190064311028, 0.02556072361767292, 0.0034368778578937054, 0.023918792605400085, 0.011316170915961266, -0.01587623544037342, 0.033708419650793076, 0.04321715608239174, -0.005535713396966457, 0.034563858062028885, 0.0577426441013813, 0.10552415251731873, 0.06365673243999481, 0.057768166065216064, 0.028808988630771637, 0.07448063045740128, 0.10470879077911377, 0.08772439509630203, 0.048424992710351944, 0.058785323053598404, 0.0036865558940917253, -0.015776170417666435, -0.02137312851846218, -0.020663945004343987, -0.010780486278235912, 0.0019345476757735014, 0.02241373434662819, 0.02713378705084324, -0.0026372678112238646, 0.0013951470609754324, 0.005302123725414276, -0.02811269275844097, -0.021764138713479042, 0.02981032431125641, 0.02799920178949833, -0.018747681751847267, 0.06133056432008743, 0.11271185427904129, 0.06674155592918396, 0.11076689511537552, 0.11982927471399307, 0.07044108957052231, 0.11185251176357269, 0.143663227558136, 0.15095321834087372, 0.06943163275718689, 0.022696610540151596, -0.013669573701918125, -0.03521532192826271, -0.004499391652643681, -0.01752881333231926, -0.0100988345220685, -0.03969854488968849, -0.03313048556447029, -0.00034861554740928113, -0.007816928438842297, -0.020076796412467957, 0.014075241982936859, 0.022917166352272034, 0.013699687086045742, -0.00979122519493103, -0.030533598735928535, 0.013089323416352272, -0.001957943895831704, 0.05229130759835243, 0.05989265814423561, 0.10662923008203506, 0.07439151406288147, 0.1281871348619461, 0.09142984449863434, 0.10185232013463974, 0.07505342364311218, 0.026622643694281578, -0.026212599128484726, 0.03313595429062843, 0.025483282282948494, 0.04607784375548363, 0.04065250605344772, 0.035304635763168335, 0.04749959334731102, -0.0025160808581858873, 0.004902229644358158, 0.06498491019010544, -0.0067545752972364426, 0.010519355535507202, 0.0063193971291184425, -0.03211035206913948, 0.000163935124874115, 0.03489741310477257, 0.022284287959337234, 0.011177970096468925, -0.023274527862668037, 0.02376154065132141, 0.060964345932006836, 0.0817289873957634, 0.08548062294721603, 0.08251915127038956, 0.056891798973083496, 0.00561295822262764, -0.045294079929590225, -0.08235060423612595, -0.03345566615462303, -0.05630543828010559, -0.04402637109160423, 0.017059048637747765, 0.05713129788637161, 0.044816434383392334, 0.04559483006596565, 0.08390975743532181, 0.048744190484285355, -0.004527529235929251, -0.019854804500937462, -0.01716756261885166, 0.021869994699954987, 0.0016488581895828247, 0.008208321407437325, 0.010445398278534412, -0.004548124969005585, -0.01360723003745079, -0.011841680854558945, 0.008980019949376583, 0.03346012160181999, 0.07334313541650772, 0.057060543447732925, 0.07032805681228638, -0.01036602072417736, -0.07463700324296951, -0.10340860486030579, -0.043658483773469925, -0.05323445424437523, -0.03553733974695206, -0.010710807517170906, 0.038225915282964706, 0.07676279544830322, 0.05301355570554733, 0.056216999888420105, 0.07157669216394424, 0.07392460852861404, 0.05270622298121452, -0.02801302820444107, -0.026904404163360596, 0.0205907691270113, -0.0002792172017507255, -0.007955159060657024, -0.020577322691679, 0.0010897802421823144, 0.003674784442409873, 0.020208187401294708, 0.03553040325641632, -0.004726904910057783, 0.000728071026969701, -0.03942446410655975, -0.024582982063293457, -0.07397409528493881, -0.04521413892507553, -0.06012490391731262, -0.061508916318416595, -0.10631769895553589, -0.0605938620865345, -0.029579447582364082, -0.003218176309019327, 0.03101380169391632, 0.06910376250743866, 0.04760186746716499, 0.07058225572109222, 0.001659453846514225, 0.0413733646273613, -0.015919482335448265, 0.026442009955644608, -0.0036934814415872097, -0.020496824756264687, -0.020986612886190414, -0.027701489627361298, 0.01768646202981472, 0.004609222989529371, 0.013576659373939037, 0.01571935974061489, -0.04813452437520027, -0.04390760511159897, -0.011225981637835503, -0.019350983202457428, -0.0550348199903965, -0.1038535088300705, -0.08529823273420334, -0.05661702901124954, -0.06105218455195427, -0.009110135026276112, 0.0069442023523151875, 0.014448048546910286, 0.054211314767599106, 0.07701297104358673, 0.05724018067121506, 0.013403668999671936, 0.02707565575838089, 0.026051480323076248, 0.03079955093562603, 0.03211434185504913, 0.013478855602443218, -0.020680049434304237, -0.01595253311097622, -0.011641005054116249, 0.01513325423002243, 0.01494536641985178, -0.014780153520405293, -0.022396156564354897, -0.07029713690280914, -0.048295535147190094, -0.04048270359635353, 0.0037713597994297743, 0.007868827320635319, 0.018960189074277878, 0.003766745561733842, 0.032014328986406326, 0.017344070598483086, 0.009206170216202736, -0.010063987225294113, 0.006659003905951977, 0.05820033699274063, 0.057344015687704086, 0.032964032143354416, -0.006780222989618778, -0.001930263009853661, 0.041502695530653, 0.023101257160305977, -0.008567570708692074, -0.029529204592108727, -0.02170458436012268, -0.01647775247693062, 0.02692263200879097, 0.0006070930394344032, -0.007491221185773611, -0.01019348856061697, -0.04624715819954872, -0.0697401762008667, -0.023421190679073334, -0.07713672518730164, -0.04785604402422905, -0.046353530138731, -0.04041711241006851, -0.004990634508430958, -0.0064864144660532475, -0.034713950008153915, -0.03054516389966011, -0.03512464836239815, -0.01408416498452425, -0.045574598014354706, 0.011696822009980679, -0.013020732440054417, -0.019169170409440994, 0.030377333983778954, -0.034268543124198914, -0.009599890559911728, 0.001673225429840386, -0.0022189579904079437, 0.003047976642847061, 0.025682583451271057, -0.019366759806871414, -0.01062515377998352, 0.02995511330664158, 0.029803598299622536, 0.02291933260858059, -0.007412917446345091, -0.04747829958796501, -0.005336548201739788, -0.010575716383755207, -0.06020849943161011, -0.04115642234683037, 0.003174171783030033, -0.025656459853053093, -0.03830740600824356, -0.021445225924253464, -0.022152360528707504, -0.06781461834907532, -0.0027207410894334316, 0.004408704116940498, -0.021298496052622795, 0.027180757373571396, -0.019814597442746162, -0.022495748475193977, 0.007281484082341194, -0.003399686422199011, 0.01845482364296913, -0.01952175237238407, 0.003754250705242157, -0.01838986948132515, 0.028448645025491714, 0.0039892010390758514, -0.015058264136314392, 0.009348585270345211, -0.0016131966840475798, -0.013471291400492191, -0.016373349353671074, 0.010088750161230564, -0.024030135944485664, -0.024125974625349045, 0.02106766775250435, -3.051109888474457e-05, -0.03978196159005165, 0.007353212684392929, 0.01779015175998211, -0.0076296450570225716, -0.016720032319426537, -0.027703825384378433, -0.022646334022283554, -0.002541666617617011, -0.005735577084124088, -0.025835925713181496, 0.019152693450450897, 0.01923150196671486, -0.009087525308132172, -0.01684584841132164], [0.001355677843093872, -0.02374625764787197, 0.027418579906225204, -0.0001811794936656952, 0.019500091671943665, -0.03563103824853897, 0.009387191385030746, -0.0322430357336998, 0.03463694825768471, -0.006332777440547943, 0.005623068660497665, -0.005414469167590141, -0.00973990187048912, 0.013305757194757462, 0.0004625443834811449, -0.01383489090949297, -0.002370532602071762, -0.015048231929540634, -0.02782631851732731, 0.006846878677606583, 0.0049269720911979675, 0.03148217126727104, -0.009764216840267181, 0.00035098567605018616, 0.03556930646300316, -0.01195368729531765, 0.031196091324090958, -0.035406794399023056, 0.01928141713142395, 0.029601071029901505, -0.02830728143453598, -0.006016863510012627, -0.008225600235164165, -0.03289654105901718, -0.007039720192551613, 0.015435099601745605, 0.033959660679101944, 0.022859204560518265, 0.03192555159330368, 0.037438035011291504, 0.032470423728227615, 0.0063535552471876144, -0.01199416071176529, -0.028908690437674522, 0.03793015703558922, -0.0004191051993984729, -0.019301798194646835, -0.024557527154684067, 0.010052468627691269, -0.03317248076200485, 0.0365753211081028, -0.018182510510087013, -0.03461858257651329, 0.006637081503868103, -0.004621664062142372, 0.01946236938238144, 0.00761852040886879, 0.007998242974281311, 0.017181824892759323, 0.011303854174911976, 0.005391864106059074, 0.03345973789691925, 0.000714344612788409, -0.005670519080013037, 0.00782256480306387, 0.0073479292914271355, 0.04137325659394264, -0.00946405902504921, -0.00343643082305789, 0.03488937392830849, 0.0475887693464756, 0.04156138002872467, -0.0038893050514161587, 0.04849393665790558, 0.01633160375058651, 0.004054138902574778, 0.01965024136006832, 0.022472305223345757, -0.012825208716094494, 0.015561155043542385, 0.010682730004191399, -0.005166909191757441, 0.006075598299503326, -0.0004637129604816437, 0.004505757242441177, -0.026233792304992676, -0.006607952062040567, -0.013167371042072773, 0.02089734934270382, 0.014613281935453415, 0.01499058585613966, 0.03253902494907379, 0.009289116598665714, 0.018146928399801254, 0.06977318972349167, 0.058214664459228516, 0.07815467566251755, 0.04395933076739311, 0.09470339864492416, 0.03680531680583954, 0.05105740949511528, 0.057904183864593506, 0.06461731344461441, -0.0015709156868979335, -0.013052776455879211, -0.019108526408672333, -0.021496813744306564, -0.01152535155415535, -0.004824086092412472, 0.031071046367287636, -0.01079448964446783, -0.020168909803032875, 0.031451474875211716, -0.0023167477920651436, 0.001284808269701898, 0.005168846808373928, 0.029739731922745705, 0.031454961746931076, 0.022260813042521477, 0.0095488540828228, 0.013164485804736614, 0.058691564947366714, 0.09449440985918045, 0.08783521503210068, 0.06711357086896896, 0.10126208513975143, 0.10276509821414948, 0.09789306670427322, 0.06091059371829033, 0.02997536212205887, 0.05737244710326195, 0.036451444029808044, 0.03235144913196564, 0.025650717318058014, -0.02151223085820675, -0.007398479152470827, -0.011173858307301998, -0.01922108419239521, -0.007230044808238745, 0.015808437019586563, -0.021094724535942078, -0.01874120905995369, -0.004080064129084349, -0.016691312193870544, -0.001927283126860857, 0.016991019248962402, 0.008887555450201035, 0.013686771504580975, 0.040776606649160385, 0.04918806999921799, 0.039050452411174774, 0.08285514265298843, 0.05962241441011429, 0.02463209629058838, 0.044482894241809845, -0.009964508935809135, 0.08650102466344833, 0.06238699331879616, 0.02851537987589836, 0.01227050181478262, -0.025063274428248405, 0.0034102341160178185, -0.030039213597774506, -0.004589222837239504, -0.018534889444708824, -0.02693095989525318, 0.022517867386341095, -0.03035529889166355, 0.021394208073616028, -0.034539610147476196, -0.001840480836108327, 0.011891093105077744, 0.030980831012129784, -0.007408753037452698, -0.021405763924121857, -0.0020330396946519613, 0.02090449258685112, 0.055885061621665955, 0.06556937098503113, 0.05783578008413315, 0.028167231008410454, 0.005066548474133015, -0.01559216808527708, 0.03439832106232643, 0.006034383084625006, -0.03269856423139572, 0.009267142042517662, 0.024127457290887833, 0.009251140989363194, -0.04259491339325905, -0.019499128684401512, 0.04178568348288536, 0.060906413942575455, 0.023872079327702522, -0.015662172809243202, -0.016803689301013947, 0.017459804192185402, 0.012171587906777859, 0.0348174162209034, -0.03856757655739784, 0.022692445665597916, 0.0003458176215644926, 0.022677766159176826, 0.0013563149841502309, 0.0373675674200058, 0.024543019011616707, 0.02993694879114628, 0.001966998912394047, -0.005978086963295937, -0.021252702921628952, 0.0183006152510643, 0.00018546628416515887, -0.01538834534585476, -0.05055173486471176, 0.005659639835357666, -0.009405577555298805, 0.03151063621044159, 0.02491261623799801, 0.013745605945587158, 0.0647740364074707, 0.02884567528963089, 0.041765082627534866, -0.014516179449856281, 0.0032328905072063208, -0.013258730992674828, 0.020406099036335945, -0.01697777956724167, -0.02117813192307949, -0.012050816789269447, 0.022159114480018616, -0.04397835582494736, 0.03538775071501732, -0.02755139395594597, 0.004989225417375565, -0.019925614818930626, -0.03323476016521454, -0.014551347121596336, -0.020182745531201363, 0.0022503200452774763, 0.026952531188726425, 0.011252231895923615, 0.03153384476900101, -0.021070726215839386, 0.01273147203028202, 0.011421870440244675, 0.01156738493591547, 0.0746450200676918, 0.08605535328388214, 0.06416341662406921, 0.04456251859664917, 0.043163713067770004, -0.0012482390739023685, 0.0031780938152223825, -0.023865191265940666, 0.03345634788274765, -0.014547547325491905, -0.009961017407476902, 0.026437833905220032, -0.015154005028307438, 0.0004703138838522136, 0.03916570171713829, -0.01388880517333746, 0.008020643144845963, -0.024238580837845802, -0.030271338298916817, -0.00500536197796464, -0.019253358244895935, 0.021622780710458755, 0.028079072013497353, -0.03952512890100479, -0.03427119925618172, -0.04637497663497925, -0.048709604889154434, 0.06603322178125381, 0.04453090950846672, 0.06502263247966766, 0.056121110916137695, 0.054094716906547546, 0.009297276847064495, -0.017327317968010902, -0.03337199240922928, 0.01273851003497839, -0.03484486788511276, 0.022595487534999847, 0.033687494695186615, 0.024705970659852028, 0.044542036950588226, 0.027311772108078003, 0.022537080571055412, -0.015223477967083454, -9.129072714131325e-05, -0.006385488901287317, -0.03118872083723545, 0.039534490555524826, 0.0797259658575058, 0.06051065772771835, -0.03917235508561134, -0.023842768743634224, -0.021960297599434853, -0.045032355934381485, 0.009802784770727158, 0.00800414476543665, 0.06413532793521881, 0.0724959671497345, 0.11657156050205231, 0.07610636204481125, 0.03565087914466858, -0.03176476061344147, 0.03267722576856613, 0.022910764440894127, 0.023139048367738724, -0.029804423451423645, -0.0025412151589989662, -0.0035434660967439413, 0.03126693144440651, 0.01246494147926569, -0.031846508383750916, 0.021116137504577637, -0.04463815316557884, -0.03462937846779823, 0.00641185836866498, 0.06858323514461517, 0.15617351233959198, -0.017307253554463387, -0.09917289018630981, -0.062445882707834244, -0.055985793471336365, -0.026311714202165604, -0.06956502795219421, -0.00913118477910757, 0.015811411663889885, 0.051311980932950974, 0.06050718203186989, 0.026041444391012192, 0.008590271696448326, 0.011335745453834534, -0.03258517012000084, -0.031032798811793327, 0.02367863804101944, 0.006371075287461281, -0.037052154541015625, -0.013951796106994152, 0.006432357709854841, 0.016446992754936218, -0.07109416276216507, -0.05957411974668503, -0.06486053764820099, -0.03835388645529747, 0.06277438998222351, 0.18815013766288757, 0.1501407027244568, 0.02572556398808956, -0.0784912258386612, -0.0890786424279213, -0.014658642001450062, -0.012470535933971405, 0.01140816044062376, -0.020800050348043442, -0.013288183137774467, 0.018942290917038918, 0.031353939324617386, 0.04718954116106033, -0.0036984053440392017, -0.007482138928025961, 0.030896367505192757, -0.010004587471485138, 0.014798187650740147, -0.04900798574090004, -0.09847742319107056, -0.033563513308763504, -0.020102526992559433, -0.05793384090065956, -0.012297261506319046, -0.025161175057291985, -0.09691698104143143, -0.003966931253671646, 0.11078175902366638, 0.19191010296344757, 0.10806644707918167, 0.02069784328341484, -0.09206845611333847, -0.0653260201215744, -0.00642051175236702, -0.0066582998260855675, -0.014266935177147388, -0.021649187430739403, -0.018587367609143257, 0.0288749560713768, 0.0417480394244194, 0.006211657542735338, -0.008066100999712944, 0.02259805239737034, -0.03167979046702385, -0.025942550972104073, 0.02626022696495056, -0.028500689193606377, -0.025927938520908356, -0.053579606115818024, 0.003064132062718272, -0.04162563383579254, -0.10642638057470322, -0.05418911203742027, -0.06916196644306183, 0.03546417877078056, 0.1643814742565155, 0.1776217520236969, 0.10709051042795181, 0.042395949363708496, -0.05155887082219124, -0.04445450007915497, -0.027725428342819214, -0.06027112901210785, -0.09050015360116959, -0.056517135351896286, -0.04660257324576378, 0.006372480653226376, 0.03604012355208397, 0.00949493981897831, 0.016926880925893784, 0.01400243490934372, -0.027953652665019035, -0.023033982142806053, 0.004050222225487232, -0.02712421864271164, -0.034620363265275955, 0.004064022097736597, -0.03084212727844715, -0.06749571114778519, -0.08000538498163223, -0.08470482379198074, -0.02207895927131176, -0.00550722423940897, 0.07091929763555527, 0.1796177178621292, 0.15805800259113312, -0.015147962607443333, -0.043117910623550415, -0.08394696563482285, -0.05479135736823082, -0.05361681804060936, -0.07152184844017029, 0.00371627532877028, -0.02754523791372776, 0.01617095246911049, 0.018992546945810318, 0.05667869746685028, 0.008573120459914207, 0.026110608130693436, -0.00437387079000473, 0.021225526928901672, 0.020401932299137115, 0.02917182631790638, -0.029705140739679337, -0.012814713642001152, -0.03331955894827843, -0.1061554104089737, -0.10692048817873001, -0.037313416600227356, 0.009025943465530872, -0.007493003737181425, 0.09346774220466614, 0.11095602065324783, 0.11179488152265549, -0.062278032302856445, -0.08180700987577438, -0.13896213471889496, -0.09723205119371414, -0.037265222519636154, -0.040890805423259735, -0.013528472743928432, 0.013634644448757172, 0.060581039637327194, 0.03598546236753464, 0.019603708758950233, 0.014694924466311932, -0.007363538723438978, 0.021503273397684097, 0.0008431401802226901, -0.030048584565520287, 0.04932283237576485, 0.013379853218793869, -0.037181515246629715, -0.052253928035497665, -0.08145290613174438, -0.048761025071144104, -0.034636396914720535, 0.020772337913513184, 0.007601498626172543, 0.04263066127896309, 0.09035757929086685, -0.014096726663410664, -0.1249626949429512, -0.07903086394071579, -0.0541013665497303, -0.04597017541527748, -0.023121800273656845, -0.02563479356467724, 0.02669971063733101, 0.008827419951558113, 0.08456490933895111, 0.06311812251806259, 0.04831215366721153, 0.012446427717804909, 0.003974227700382471, -0.034455493092536926, 0.01308890338987112, 0.03428405150771141, 0.022341184318065643, 0.05642201378941536, 0.009563631378114223, 0.07660938799381256, 0.01979777216911316, 0.006183607503771782, -0.01583736389875412, -0.012832989916205406, 0.04560258239507675, 0.06682035326957703, 0.06711994111537933, -0.055245377123355865, -0.05874335393309593, -0.08667971193790436, -0.018301311880350113, -0.008888964541256428, 0.022379299625754356, 0.012896942906081676, 0.026763195171952248, 0.054314833134412766, 0.07997488975524902, 0.076284259557724, -0.004813534673303366, 0.003508685389533639, -0.028872311115264893, -0.029693229123950005, 0.006746798753738403, 0.019662722945213318, 0.010852502658963203, 0.05373183265328407, 0.041871313005685806, 0.06659919023513794, 0.043464887887239456, 0.06390215456485748, 0.06131749600172043, 0.11735491454601288, 0.1238759383559227, 0.09482445567846298, 0.05551610141992569, -0.06366246193647385, -0.037614863365888596, 0.014257563278079033, 0.028755199164152145, 0.05343494564294815, -0.002608577022328973, 0.06913972645998001, 0.05962703377008438, 0.0936359167098999, 0.061363041400909424, 0.06020772084593773, 0.038023706525564194, 0.008139282464981079, -0.020510274916887283, -0.002500779926776886, -0.023349646478891373, 0.017942283302545547, 0.027891233563423157, 0.015864603221416473, 0.04010023921728134, 0.09359083324670792, 0.07318808138370514, 0.13930027186870575, 0.11671168357133865, 0.1672249585390091, 0.15073251724243164, 0.11495930701494217, 0.028875121846795082, 0.002167155733332038, 0.018380101770162582, 0.03669385612010956, 0.0203146580606699, 0.08508417755365372, 0.07320704311132431, 0.06636632978916168, 0.07365849614143372, 0.1087200790643692, 0.08474129438400269, -0.0057077547535300255, 0.0026062235701829195, 0.033636461943387985, 0.027531428262591362, 0.022315368056297302, -0.02974463626742363, -0.0241466723382473, 0.028514964506030083, 0.04928728938102722, 0.010800967924296856, 0.032013606280088425, 0.07110117375850677, 0.12485389411449432, 0.15077699720859528, 0.09741906076669693, 0.14591850340366364, 0.039272379130125046, 0.07082149386405945, 0.056038662791252136, 0.03009296953678131, -0.0015863414155319333, 0.07017199695110321, 0.05053271725773811, 0.04705291986465454, 0.007046464364975691, 0.06944538652896881, 0.06275919824838638, 0.03850993886590004, 0.022639404982328415, 0.0015489804791286588, -0.012802579440176487, -0.0034687661100178957, -0.009522964246571064, 0.016443375498056412, 0.01346613559871912, 0.03650728613138199, -0.0020561921410262585, 0.04522453621029854, 0.06065325066447258, 0.09086526930332184, 0.040513258427381516, 0.08967169374227524, 0.07525141537189484, 0.07146520912647247, 0.0474572628736496, 0.022123564034700394, -0.0037633387837558985, -0.020573493093252182, 0.03153778240084648, 0.030919302254915237, 0.0709570124745369, 0.08927576243877411, 0.04363155737519264, 0.02054608054459095, 0.008228607475757599, 0.01238258183002472, 0.03150428086519241, -0.016441883519291878, 0.009612972848117352, 0.009305198676884174, -0.01844184845685959, 0.016303356736898422, 0.03035077452659607, 0.046026796102523804, 0.05775641277432442, 0.02289239503443241, 0.05006451904773712, 0.045229826122522354, 0.024515710771083832, 0.09318006783723831, 0.006148265674710274, 0.0041823917999863625, 0.004786679986864328, 0.0501699298620224, 0.0248886626213789, 0.006843149662017822, 0.001100756460800767, 0.05957695469260216, 0.04369495436549187, 0.06681931763887405, 0.016342276707291603, -0.015371844172477722, -0.02450713887810707, -0.0021224552765488625, 0.02083934284746647, -0.032845448702573776, -0.014294896274805069, -0.004588225856423378, 0.03183926269412041, 0.034634996205568314, 0.033975131809711456, -0.011114039458334446, 0.016081811860203743, -0.013798356987535954, 0.03891913592815399, 0.011333801783621311, 0.017205310985445976, 0.031226254999637604, 0.03256969526410103, 0.03833109512925148, 0.05199568718671799, 0.020776735618710518, 0.08933467417955399, 0.0006371495546773076, 0.03937925770878792, 0.005844001658260822, 0.021742239594459534, -0.03181790933012962, -0.020523367449641228, -0.0027477422263473272, -0.008372383192181587, 0.024701828137040138, 0.010321623645722866, -0.009446448646485806, -0.005040863994508982, 0.018329188227653503, 0.0036246441304683685, 0.013615455478429794, 0.02891983650624752, 0.022692998871207237, -0.020870307460427284, -0.025790909305214882, 0.01675242930650711, -0.018176939338445663, -0.0010935553582385182, 0.021115407347679138, -0.035588063299655914, -0.03074447065591812, -0.016801677644252777, 0.025539960712194443, -0.018180236220359802, -0.00969214178621769, 0.003720339620485902, 0.005730164237320423, -0.016162032261490822, -0.0035219828132539988, -0.07578424364328384, -0.03585093840956688, -0.031757812947034836, -0.014589166268706322, 0.030063755810260773, 0.008789587765932083, -0.02581252157688141, -0.018124163150787354, 0.012021221220493317, -0.025644324719905853, -0.027360256761312485, 0.02652939036488533, -0.008221455849707127, 0.016378872096538544, -0.02445470169186592, -0.02640552818775177, 0.015453619882464409, -0.04498884454369545, -0.026404133066534996, 0.006695459596812725, 0.003413723548874259, -0.07112079858779907, -0.04809222370386124, -0.03407329320907593, -0.02715631015598774, -0.000778451154474169, -0.037362076342105865, -0.02402559295296669, -0.008762943558394909, -0.038923271000385284, -0.013311010785400867, -0.02440176159143448, 0.031421687453985214, 0.01699838601052761, -0.027881508693099022, 0.01983344554901123, 0.025053374469280243, 0.000523887574672699, -0.0232167299836874, 0.0047736093401908875, -0.009662851691246033, 0.03199557587504387, -0.01753714121878147, -0.024373561143875122, -0.034640029072761536, -0.011481894180178642, 0.003999447915703058, -0.006835684645920992, 0.00711493706330657, -0.022881340235471725, 0.019313381984829903, -0.007238819729536772, -0.006020961795002222, -0.03746467083692551, -0.021288514137268066, 0.006132141686975956, -0.030871814116835594, 0.019677555188536644, 0.009538150392472744, 0.010624806396663189, -0.033840686082839966, 0.011119309812784195, 0.03165524825453758, -0.030664147809147835], [0.018655620515346527, 0.005682025104761124, 0.007287491112947464, -0.024791309610009193, -0.014411216601729393, -0.011426402255892754, -0.03320227190852165, 0.013463340699672699, -0.005980752408504486, -0.005652112886309624, -0.004401586949825287, -0.002088043838739395, 0.03450649604201317, 0.03211098909378052, 0.014760508202016354, -0.026193328201770782, 0.026763342320919037, -0.021499741822481155, 0.02308860421180725, 0.0213928185403347, 0.029789123684167862, -0.028595909476280212, -0.02214815840125084, -0.012034352868795395, 0.00363188236951828, -0.02109455317258835, 0.01797107234597206, -0.03371338173747063, 0.0201246440410614, 0.024212274700403214, -0.013137714937329292, -0.01381489634513855, 0.005643252283334732, 0.005155538208782673, -0.03239552676677704, -0.02283267304301262, -0.021119695156812668, -0.02508355677127838, 0.0005293710855767131, -0.026105403900146484, 0.00865749642252922, 0.025888847187161446, -0.022587785497307777, 0.029821570962667465, 0.02160584181547165, 0.033177394419908524, 0.019557859748601913, -0.008086588233709335, -0.026612762361764908, 0.02039322815835476, 0.00035650114296004176, -0.006054426543414593, 0.022012099623680115, 0.018139958381652832, 0.010758377611637115, -0.003459665924310684, -0.033089593052864075, -0.03104596957564354, -0.01409710943698883, 0.00961583573371172, -0.03374706208705902, 0.024771204218268394, -0.006806105840951204, 0.017056524753570557, -0.02607397735118866, -0.019774343818426132, 0.017516573891043663, 0.04173414781689644, 0.05629665404558182, 0.02067422866821289, 0.0537748858332634, 0.05150127038359642, 0.032005999237298965, 0.019505977630615234, 0.011151808314025402, 0.0553058497607708, 0.01787339337170124, 0.030714862048625946, 0.027516864240169525, -0.024274609982967377, -0.02982392907142639, -0.02276603691279888, -0.028062766417860985, -0.03226879984140396, -0.03160290792584419, -0.02703392133116722, -0.02888297662138939, 0.019698357209563255, 0.025787893682718277, 0.003565883729606867, 0.02769305929541588, 0.01737278327345848, 0.01936051808297634, 0.0332874171435833, 0.02009456977248192, 0.01643645390868187, 0.00921112485229969, 0.08799654990434647, 0.08421441167593002, 0.08432846516370773, 0.0286820400506258, 0.05958767235279083, 0.04127885401248932, 0.06601089239120483, 0.017980653792619705, 0.056797269731760025, 0.02822711504995823, 0.024594856426119804, -0.02036869339644909, 0.006818043068051338, 0.016121698543429375, 0.03290620818734169, 0.01187155395746231, 0.0057778446935117245, 0.03269456699490547, 0.008694879710674286, -0.01182328350841999, -0.02425985038280487, -0.03581216558814049, -0.02947036735713482, -0.03660062327980995, -0.06629791110754013, -0.033148400485515594, -0.011385093443095684, -0.004028624389320612, -0.02023445814847946, -0.004485689103603363, 0.026946106925606728, 0.019444402307271957, 0.0630963072180748, 0.0061052595265209675, 0.052980825304985046, 0.044952113181352615, 0.05092286318540573, 0.052044302225112915, 0.002070423448458314, -0.019703658297657967, 0.018162276595830917, -0.02715964801609516, -0.00030367684666998684, -0.021300002932548523, -0.005748093128204346, -0.028323523700237274, -0.032725121825933456, -0.01463219616562128, -0.036516379565000534, -0.04816516488790512, -0.08043272793292999, -0.09484079480171204, -0.03175743669271469, -0.003935572691261768, -0.028952309861779213, -0.028432438150048256, -0.005012710578739643, 0.01758534461259842, -0.010410374030470848, 0.0009834772208705544, 0.005066253244876862, 0.04907144233584404, 0.03634105250239372, 0.05628051236271858, 0.029735416173934937, 0.06780152767896652, 0.057179491966962814, 0.051490992307662964, 0.02506932057440281, -0.03394491598010063, 0.0241335928440094, -0.011859571561217308, -0.009227016009390354, -0.0011634367983788252, -0.024869471788406372, -0.011878076009452343, -0.0762740969657898, -0.08034110814332962, -0.05331738665699959, -0.05818099156022072, -0.03856049105525017, -0.0276406891644001, 0.03202523663640022, 0.00761408032849431, 0.02215385250747204, 0.008290266618132591, 0.05158601701259613, 0.03004470095038414, 0.024827301502227783, 0.03978024050593376, 0.051482442766427994, 0.03711831569671631, 0.0601932629942894, 0.0466776005923748, 0.03995600715279579, 0.053399208933115005, 0.02388269081711769, 0.026533514261245728, -0.03008432872593403, -0.024501105770468712, -0.013331251218914986, -0.03459931164979935, 0.003725312417373061, -0.030868321657180786, -0.08475834876298904, -0.09277211874723434, -0.024042170494794846, -0.042659856379032135, -0.04188023880124092, 0.04842916503548622, 0.08564659208059311, 0.0667855441570282, 0.004871852695941925, 0.10643942654132843, 0.06064600124955177, 0.05785512179136276, 0.018085980787873268, 0.04608154296875, 0.0779569149017334, 0.055987194180488586, 0.023936279118061066, 0.006517185363918543, 0.025485778227448463, 0.044642869383096695, 0.0019943066872656345, 0.006102727260440588, 0.03171733394265175, -0.011396415531635284, 0.010239053517580032, 0.006218969821929932, -0.02560625970363617, -0.03505483642220497, -0.021545542404055595, -0.06865519285202026, -0.05658420920372009, -0.00812929030507803, -0.030972659587860107, 0.01969864033162594, 0.08297277987003326, 0.0717402845621109, 0.010486183688044548, 0.06326936930418015, 0.004580133128911257, -0.060525402426719666, -0.03755920007824898, -0.0704827532172203, -0.04104955494403839, 0.00042723602382466197, -0.05119793862104416, 0.000626876309979707, 0.015870295464992523, 0.06530769914388657, 0.0355345644056797, -0.02415798231959343, 0.02062450535595417, 0.026967987418174744, -0.033101197332143784, 0.025499384850263596, -0.032000016421079636, -0.08775580674409866, -0.09313655644655228, -0.04964549094438553, -0.07062859833240509, -0.021514253690838814, -0.00685702683404088, -0.011322434060275555, 0.08093637973070145, 0.056880056858062744, 0.03808663412928581, -0.02693692408502102, -0.07707736641168594, -0.17438580095767975, -0.19950303435325623, -0.18016234040260315, -0.17890030145645142, -0.17716334760189056, -0.10354413837194443, -0.14195457100868225, -0.030373115092515945, 0.053550731390714645, 0.024860110133886337, -0.013747151009738445, 0.012550687417387962, -0.026285476982593536, -0.02426019124686718, 0.022347720339894295, 0.004949430003762245, -0.045236628502607346, -0.05165030434727669, -0.03385382890701294, 0.00457308953627944, -0.006721745245158672, 0.033108215779066086, 0.047575633972883224, 0.04779719188809395, 0.029865548014640808, 0.03213511407375336, -0.06462578475475311, -0.13568900525569916, -0.19416970014572144, -0.1916540563106537, -0.23908047378063202, -0.2338370978832245, -0.2146308273077011, -0.17661449313163757, -0.16327382624149323, -0.02514670230448246, -0.022686388343572617, 0.005063265096396208, 0.04217006266117096, -0.010844739153981209, 0.03290991112589836, 0.026632938534021378, 0.03419650346040726, -0.013559382408857346, -0.012556705623865128, -0.038014329969882965, 0.009591205976903439, -0.030405279248952866, 0.0007018480682745576, -0.06607883423566818, 0.028290268033742905, 0.014248860068619251, 0.03385394439101219, 0.006611610297113657, -0.04630040377378464, -0.13648968935012817, -0.08886450529098511, -0.11793400347232819, -0.09279041737318039, -0.10115028917789459, -0.13063134253025055, -0.0969301089644432, -0.047938380390405655, -0.016806693747639656, 0.0038466337136924267, -0.024023354053497314, -0.03224319592118263, -0.006532646715641022, 0.013715075328946114, 0.00847437884658575, -0.010613076388835907, -0.01990537904202938, -0.01998230442404747, -0.005316899623721838, -0.009331298992037773, 0.004385428037494421, -0.018361994996666908, -0.08599384129047394, -0.0029013201128691435, -0.00039435294456779957, -0.008258963003754616, 0.0023584396112710238, -0.08472108095884323, -0.09993341565132141, -0.050450537353754044, -0.060836050659418106, -0.014236566610634327, -0.0024199681356549263, -0.03768089786171913, -0.06174506992101669, -0.030085846781730652, 0.030110681429505348, 0.0019443044438958168, 0.02072594314813614, 0.011470573022961617, -0.001808716682717204, -0.02462388016283512, 0.023723125457763672, -0.00929483212530613, -0.010778618045151234, 0.012342816218733788, -0.03699966147542, 0.020387202501296997, 0.019865984097123146, 0.01725427247583866, -0.00045679957838729024, 0.07334701716899872, 0.08042549341917038, 0.025493698194622993, -0.026616254821419716, -0.0686124637722969, -0.046332862228155136, -0.043510034680366516, -0.05804847925901413, -0.002069698879495263, 0.02891852892935276, 0.028322316706180573, -0.012589620426297188, 0.012897619046270847, 0.04190598800778389, -0.0007042597280815244, 0.007658280432224274, -0.03198644891381264, 0.009248019196093082, -0.011118932627141476, -0.021673941984772682, 0.01870555989444256, 0.010632631368935108, -0.005534436088055372, 0.0021234045270830393, -0.01768653094768524, -0.03072553686797619, 0.007477491162717342, 0.036160826683044434, 0.1113518476486206, 0.019079716876149178, -0.06888191401958466, -0.0333489328622818, -0.026573067530989647, -0.014162233099341393, -0.03677195683121681, -0.07847399264574051, -0.029265789315104485, -0.01784948818385601, -0.0061485799960792065, 0.03761981800198555, 0.06155155971646309, 0.016729960218071938, 0.05444471165537834, -0.015462713316082954, -0.010939563624560833, 0.0020534044597297907, 0.010757159441709518, -0.01227263268083334, 0.0198089387267828, 0.015576344914734364, -0.03953056409955025, -0.03966446965932846, -0.02108592912554741, 0.012958445586264133, -0.008146175183355808, 0.01570126973092556, 0.054138172417879105, -0.027594134211540222, -0.07847863435745239, -0.03995127230882645, -0.030301403254270554, -0.03348957747220993, -0.002103974809870124, -0.0037581389769911766, -0.0008333791047334671, 0.007505036424845457, -0.0028309475164860487, -0.013325784355401993, -0.011216545477509499, 0.0008616528357379138, -0.019464539363980293, -0.03494900465011597, -0.019815590232610703, -0.030967799946665764, 0.028965791687369347, 0.018140431493520737, 0.004052470438182354, -0.018276194110512733, -0.011347513645887375, -0.010148890316486359, -0.02684079296886921, -0.03405991941690445, 0.01314511988312006, -0.01468687690794468, 0.026379313319921494, -0.013491409830749035, -0.11104606837034225, -0.05501652508974075, -0.0032948919106274843, -0.042270150035619736, -0.040581703186035156, -0.04808096960186958, -0.04800492897629738, -0.011458749882876873, -0.03034239076077938, -0.047738511115312576, -0.03125733882188797, -0.05426504462957382, 0.0071447668597102165, -0.04476870223879814, -0.049797240644693375, -0.017016053199768066, -0.01062815636396408, -0.012128829956054688, -0.0378708653151989, -0.021446237340569496, -0.0006832584040239453, 0.007594633847475052, 0.0028538096230477095, 0.0104457912966609, -0.058340366929769516, -0.04004954919219017, 0.013026125729084015, -0.038008689880371094, -0.09462244063615799, -0.06156066432595253, 0.025976624339818954, -0.0010307198390364647, -0.024301763623952866, -0.01969786360859871, 0.029446270316839218, -0.03672116994857788, -0.01827549934387207, -0.01701940968632698, -0.06422072649002075, -0.02897033654153347, 0.029207469895482063, 0.008155548013746738, -0.009115970693528652, -0.002970626810565591, -0.027573104947805405, 0.022292636334896088, 0.026463009417057037, 0.019931234419345856, -0.03620389476418495, -0.007129343692213297, 0.04139739274978638, 0.0033034475054591894, -0.04972684755921364, -0.07763238251209259, -0.08985771983861923, -0.11312104761600494, -0.11065957695245743, -0.10450278222560883, -0.0340774729847908, 0.020396322011947632, 0.015004202723503113, 0.01543453149497509, 0.04003812000155449, -0.006851725745946169, -0.012846997007727623, -0.0768933892250061, -0.06054134666919708, -7.368066144408658e-05, -0.009188770316541195, -0.026279546320438385, -0.01435607485473156, 0.027616463601589203, -8.003653056221083e-05, -0.005183026194572449, 0.01395522803068161, -0.003037302754819393, 0.019146651029586792, -0.019093412905931473, 0.07091694325208664, -0.011818844825029373, -0.05376480892300606, -0.027725746855139732, -0.0649363175034523, -0.06225036829710007, -0.0686587244272232, 0.0002041162078967318, 0.04750286415219307, 0.11294475942850113, 0.09080006927251816, 0.035235971212387085, -0.005931058898568153, -0.019021980464458466, -0.03242921829223633, -0.04778198152780533, 0.019146418198943138, -0.015340997837483883, 0.001858601113781333, -0.014859440736472607, 0.007941039279103279, 0.0039682937785983086, 0.028104159981012344, -0.00986936129629612, -0.014239787124097347, -0.00891578197479248, 0.02773691527545452, 0.011592257767915726, 0.059842001646757126, 0.01578473672270775, 0.027684807777404785, -0.0004370740498416126, -0.021675636991858482, 0.007191875018179417, 0.002577129052951932, 0.0059961783699691296, 0.0696592926979065, 0.05787263810634613, 0.06370756030082703, 0.02292555943131447, 0.06867491453886032, -0.02066214010119438, -0.025246191769838333, -0.02468150295317173, 0.017425091937184334, 0.040663350373506546, 0.04375828802585602, 0.010258250869810581, 0.019738836213946342, 0.030494634062051773, -0.022225143387913704, -0.016863957047462463, 0.01198767963796854, -0.0023843995295464993, 0.025070130825042725, 0.04921386018395424, 0.004182261880487204, 0.034002263098955154, 0.05614520609378815, 0.08255723118782043, 0.07099652290344238, 0.034726303070783615, 0.044533535838127136, 0.05020103603601456, 0.06738714873790741, 0.028541741892695427, 0.002536205342039466, 0.020108653232455254, 0.05686672776937485, 0.03281547501683235, 0.026251178234815598, 0.02459729090332985, 0.04822738468647003, 0.017945097759366035, 0.004993845708668232, 0.020998477935791016, -0.021664580330252647, 0.0293593630194664, 0.017462467774748802, 0.010038511827588081, -0.003919562324881554, 0.02297232672572136, 0.02669116109609604, 0.03167526423931122, -0.0009518014267086983, 0.00127497804351151, 0.00722253555431962, 0.021301398053765297, 0.020014531910419464, -0.02212296426296234, 0.03062121570110321, -0.0021931349765509367, 0.004208004102110863, 0.04273940622806549, 0.041273824870586395, 0.0345318503677845, 0.08829844743013382, 0.006834416184574366, -0.015786318108439445, 0.04492872953414917, 0.009611809626221657, -0.006486701779067516, 0.008715158328413963, 0.03667909651994705, 0.035275813192129135, -0.025512203574180603, 0.01280447468161583, -0.03156251832842827, 0.022348377853631973, 0.008482007309794426, -0.00021446975006256253, -0.0027658201288431883, -0.019791102036833763, -0.005418691318482161, -0.01336830947548151, -0.06136768311262131, -0.01866905391216278, -0.05436018109321594, 0.014954297803342342, -0.015833448618650436, 0.02430066652595997, 0.0030952205415815115, 0.004199367016553879, 0.02432226575911045, 0.0026304922066628933, -0.01958235539495945, -0.024104852229356766, 0.014731299132108688, 0.0186354611068964, -0.0010551461018621922, -0.006525195669382811, 0.03607624024152756, -0.030504843220114708, -0.009177088737487793, 0.02623721957206726, 0.011683076620101929, -0.024160880595445633, 0.022771628573536873, -0.039626773446798325, -0.02934012934565544, -0.0073490082286298275, -0.028872936964035034, -0.03987966850399971, -0.03238493204116821, -0.04344252869486809, -0.03799829259514809, 0.02207256108522415, 0.03689812123775482, -0.014433134347200394, 0.034666672348976135, 0.012009983882308006, -0.0049470700323581696, -0.00614898931235075, -0.004541267175227404, 0.008537901565432549, 0.006578363012522459, 0.00896325334906578, -0.015407543629407883, -0.031047122552990913, -0.015373793430626392, -0.015427092090249062, 0.01002134382724762, 0.03325163200497627, 0.03275347873568535, -0.034488432109355927, -0.03299583122134209, 0.015984294936060905, 0.014283050782978535, 0.003525789361447096, -0.011900813318789005, -0.037631988525390625, -0.007518654689192772, 0.00031257548835128546, -0.022445615381002426, 0.03180135414004326, -0.04444229602813721, 0.009767097420990467, -0.0016127140261232853, 0.034402407705783844, 0.050381436944007874, 0.042959682643413544, 0.017896141856908798, -0.012826070189476013, -0.006053915247321129, -0.02052176184952259, -0.01781599223613739, -0.002620945917442441, -0.03179026395082474, 0.0047051324509084225, 0.002202354371547699, 0.0020385049283504486, 0.027775827795267105, 0.011170424520969391, 0.031875550746917725, 0.008715593256056309, -0.0335693322122097, 0.014026917517185211, -0.01582065410912037, -0.020652402192354202, -0.011442271992564201, -0.02447603829205036, 0.020488234236836433, 0.03172673285007477, 0.01892302930355072, 0.012722252868115902, 0.009868134744465351, 0.02636188268661499, 0.0041689821518957615, 0.011318271048367023, 0.036011502146720886, 0.032044749706983566, 0.012948308140039444, 0.027108170092105865, -0.026799090206623077, -0.0021315121557563543, -0.02166604995727539, -0.008862461894750595, -0.01689937338232994, 0.027291227132081985, 0.027103882282972336, -0.023548102006316185, -0.018778210505843163, 0.004349496215581894, -0.0035944427363574505, -0.03340313583612442, -0.0155617231503129, 0.014140602201223373, -0.01186306495219469, -0.00918671116232872, -0.011364935897290707, -0.01963379606604576, -0.005498573649674654, -0.027221743017435074, 0.021531064063310623, 0.014017848297953606, 0.03576314449310303, 0.008936792612075806, 0.025441711768507957, -0.00882713496685028, -0.020278165116906166, 0.017018577083945274, -0.0046163275837898254, 0.01244831457734108, 0.021032288670539856, -0.010467968881130219, -0.02355387434363365], [-0.02500629983842373, 0.018570560961961746, 0.0033161379396915436, 0.006355226039886475, -0.023373182862997055, 0.0076993852853775024, -0.016902144998311996, 0.024551942944526672, -0.005441976711153984, -0.0025905631482601166, -0.035217683762311935, 0.0283556766808033, -0.01626439206302166, -0.010490460321307182, 0.007653054315596819, 0.029284514486789703, -0.02652391791343689, 0.02806377038359642, 0.008983664214611053, -0.021666668355464935, -0.02414526790380478, 0.028041157871484756, -0.019020281732082367, -0.0199535321444273, 0.005579058080911636, -0.008161544799804688, -0.019711941480636597, 0.025857441127300262, -0.010885542258620262, 0.013591401278972626, 0.005042258650064468, 0.020698029547929764, 0.022453993558883667, -0.005872515495866537, -0.02177138440310955, 0.005087109748274088, 0.0006644620443694293, -0.03459108993411064, 0.027027850970625877, -0.00913226418197155, 0.015970665961503983, 0.02967560477554798, 0.020955780521035194, 0.03288280963897705, 0.019713472574949265, 0.023143211379647255, -0.014406292699277401, -0.016205666586756706, -0.013102514669299126, 0.009686509147286415, -0.011577717028558254, -0.03547247499227524, -0.017625248059630394, -0.014805292710661888, 0.024178624153137207, -0.014840178191661835, 0.025799233466386795, -0.024334099143743515, -0.012315130792558193, -0.008190345019102097, 0.0013312598457559943, -0.03448294475674629, -0.034566424787044525, -0.0006000341381877661, 0.006303469184786081, -0.009938056580722332, 0.015645137056708336, -0.027575140818953514, -0.002049288945272565, 0.021359339356422424, 0.03190693259239197, 0.006501984316855669, 0.02719235233962536, -0.002495798747986555, 0.0008583731250837445, -0.022669294849038124, 0.013857747428119183, 0.021735871210694313, -0.012079676613211632, -0.001059698755852878, -0.026307115331292152, -0.030590983107686043, 0.009260684251785278, 0.0014866255223751068, 0.03387168422341347, -0.010882331058382988, 0.03532886132597923, 0.006235601380467415, -0.03036995232105255, 0.010601355694234371, -0.018411682918667793, 0.024558693170547485, -0.014014212414622307, 0.008741727098822594, -0.0321543850004673, -0.007362441159784794, -0.027272455394268036, -0.010478083975613117, -0.03887563571333885, -0.01422940380871296, 0.004070868715643883, -0.03416592255234718, -0.04633543640375137, -0.02761581726372242, -0.02821115031838417, -0.034014228731393814, 0.008241724222898483, 0.015875134617090225, 0.01569952629506588, 0.028267839923501015, -0.011541777290403843, -0.01338670589029789, 0.012161124497652054, 0.021116675809025764, 0.010731755755841732, -0.019757768139243126, -0.027136342599987984, 0.011951100081205368, -0.018801404163241386, 0.02724912017583847, -0.03925102949142456, -0.024322576820850372, -0.02664320170879364, -0.0343928299844265, -0.014378698542714119, 0.025751186534762383, 0.0325159877538681, -0.03343616798520088, -0.0007112885359674692, -0.03468969836831093, -0.04881718009710312, -0.021013431251049042, 0.02818330191075802, 0.0017647473141551018, 0.007861101068556309, 0.0012898436980322003, 0.006716369651257992, 0.007325619459152222, -0.027515608817338943, -0.013615133240818977, 0.0012554898858070374, -0.00099283829331398, 0.021097898483276367, -0.024278100579977036, -0.005707660689949989, 0.021928971633315086, -0.037599701434373856, -0.04221302270889282, -0.0308050736784935, 0.004888287279754877, 0.0034859215375036, 0.02802991308271885, 0.004134208895266056, 0.005985789466649294, 0.0027692518197000027, -0.012589897029101849, -0.02239295095205307, -0.04715545475482941, -0.023397115990519524, -0.024680156260728836, 0.008173272013664246, 0.022817831486463547, 0.006668154150247574, -0.02064906805753708, -0.015377623960375786, 0.02267385460436344, -0.02021552436053753, 0.03488932549953461, 0.011510122567415237, 0.02304849401116371, -0.01424336712807417, 0.01883123070001602, -0.029641171917319298, -0.03191197291016579, 0.018122047185897827, -0.044078052043914795, 0.02812449261546135, -0.01088667381554842, 0.011313549242913723, 0.06912843137979507, 0.04977290704846382, -0.0021337943617254496, 0.02724483609199524, 0.044913604855537415, 0.018742553889751434, 0.027043990790843964, 0.012203230522572994, 0.029688121750950813, -0.025724532082676888, 0.006760300137102604, -0.028471700847148895, -0.024769406765699387, -0.03487053140997887, -0.017749452963471413, -0.03658909723162651, 0.034430038183927536, -0.028179863467812538, 0.021431179717183113, -0.025269553065299988, 0.008580769412219524, -0.009119524620473385, 0.019473910331726074, 0.007925990968942642, 0.0009261593222618103, 0.004011770244687796, 0.023683935403823853, 0.04665374755859375, 0.07700367271900177, 0.05389033257961273, 0.07132057845592499, 0.02050767093896866, 0.0613115057349205, 0.05283793807029724, 0.011063164100050926, 0.01266891323029995, 0.01484029833227396, 0.012667297385632992, -0.02014206349849701, -0.02602641098201275, -0.02579484134912491, -0.006149620749056339, -0.03630422428250313, -0.0011562276631593704, 0.01073016133159399, 0.03507433831691742, -0.009539145976305008, -0.003737029619514942, 0.02249910868704319, 0.005492440424859524, 0.002793931867927313, 0.018830636516213417, 0.0753767117857933, 0.06973623484373093, 0.05516878515481949, 0.09407984465360641, 0.08901062607765198, 0.0586300864815712, 0.0577176995575428, 0.030343016609549522, 0.0045326948165893555, -0.0229033250361681, -0.012732956558465958, 0.020553680136799812, -0.01285144779831171, -0.04204148054122925, -0.035352833569049835, -0.0018000592244789004, -0.061663366854190826, -0.055793970823287964, -0.06092051416635513, -0.03453429788351059, 0.03214878961443901, -0.013811834156513214, 0.01203393004834652, -0.026829412207007408, -0.011224361136555672, 0.020971549674868584, -0.008703259751200676, 0.06792254000902176, 0.07828327268362045, 0.071491539478302, 0.056597016751766205, 0.039187029004096985, 0.018708758056163788, -0.013461117632687092, -0.0014233153779059649, -0.03435351327061653, 0.017966054379940033, -0.05789223313331604, -0.02302669547498226, -0.051873330026865005, -0.037598662078380585, -0.008399246260523796, -0.052475620061159134, -0.03589971736073494, -0.04638354480266571, -0.08197061717510223, -0.029899809509515762, 0.006894649006426334, 0.0181389469653368, 0.01049617026001215, -0.004755205940455198, -0.025411389768123627, -0.035600002855062485, 0.04124143347144127, 0.006620727479457855, 0.01587296649813652, 0.044192101806402206, 0.03595982864499092, 0.034491974860429764, 0.052266646176576614, -0.0319490060210228, -0.03218209370970726, -0.04900435358285904, -0.0034014349803328514, -0.024061152711510658, -0.04277803376317024, -0.021667996421456337, -0.0367586724460125, 0.010797858238220215, 0.009373296052217484, -0.04567169398069382, -0.042644016444683075, -0.011069848202168941, -0.02858002670109272, -0.06308552622795105, -0.026925066486001015, -0.011310655623674393, 0.014598146080970764, 0.016691483557224274, -0.021754523739218712, -0.011309701949357986, 0.019080940634012222, -0.001348557765595615, 0.007736502215266228, 0.03935882821679115, 0.03343271464109421, 0.02466258406639099, 0.009716804139316082, -0.04927119240164757, -0.024003766477108, -0.05599766969680786, -0.060789257287979126, 0.012750286608934402, 0.024653909727931023, -0.04885340481996536, -0.01529618352651596, 0.0478428490459919, -0.004052561707794666, -0.01795155555009842, 0.012318038381636143, 0.03036355972290039, -0.010399114340543747, 0.023196158930659294, -0.008536744862794876, -0.03255860134959221, -0.013630609959363937, 0.015081082470715046, 0.0033553531393408775, -0.038699641823768616, -0.02450740523636341, -0.01773575134575367, -0.04155752435326576, -0.04142831638455391, -0.031576674431562424, -0.04388250783085823, -0.058000508695840836, -0.05834519863128662, -0.09660196304321289, -0.06472841650247574, 0.02802792377769947, 0.023337557911872864, 0.05053982883691788, 0.004246814642101526, -0.007529665250331163, 0.06371328979730606, 0.04459778219461441, 0.01517301145941019, -0.007659488823264837, -0.00848485343158245, 0.04580238461494446, 0.024291852489113808, 0.012279960326850414, 0.010316930711269379, 0.012840432114899158, 0.031150154769420624, -0.034773219376802444, -0.030537201091647148, 0.004980794154107571, -0.024892885237932205, -0.06396839767694473, -0.07583052664995193, -0.04774375632405281, -0.029814310371875763, -0.06365231424570084, -0.05574949085712433, -0.02738882414996624, 0.026544276624917984, 0.022987250238656998, 0.06917154043912888, 0.09098600596189499, 0.04596157744526863, 0.06987138092517853, 0.07377749681472778, 0.06719089299440384, -0.0012297375360503793, -0.03848876431584358, -0.030830705538392067, 0.010259433649480343, 0.04118235409259796, 0.017308417707681656, 0.00164419983047992, 0.01183994859457016, 0.0160756167024374, -0.02933904156088829, -0.012447808869183064, 0.03032032772898674, -0.025998197495937347, -0.031638260930776596, -0.029693597927689552, -0.012836601585149765, 0.029355164617300034, -0.02112097106873989, -0.020333362743258476, -0.013751332648098469, 0.05328448861837387, 0.0810968279838562, 0.12211031466722488, 0.10094882547855377, 0.09420669823884964, 0.058980055153369904, 0.06620004028081894, 0.007382652256637812, -0.040120188146829605, -0.025573430582880974, -0.011230027303099632, 0.01584268920123577, -0.02585608698427677, 0.008074378594756126, 0.029495231807231903, 0.0077410172671079636, 0.016324376687407494, -0.012205146253108978, 0.008955791592597961, -0.002346559427678585, -0.05214105173945427, -0.05952269583940506, -0.015185746364295483, 0.01062237098813057, 0.010245242156088352, 0.041690804064273834, 0.021610992029309273, 0.021378641948103905, 0.09563524276018143, 0.11097392439842224, 0.04586029425263405, 0.06870356947183609, 0.014696866273880005, 0.0016719081904739141, 0.01344572938978672, 0.024509616196155548, -0.008988780900835991, -0.024716787040233612, -0.012403055094182491, -0.006369656417518854, -0.009781192988157272, 0.006825434044003487, -0.0071322061121463776, -0.03375408798456192, 0.028698014095425606, 0.01948072761297226, 0.012636031024158001, 0.009449579752981663, -0.042635612189769745, -0.009383739903569221, 0.017276616767048836, 0.034767940640449524, 0.03365488722920418, 0.07883501797914505, 0.0648597702383995, 0.0910569578409195, 0.10261812806129456, 0.043822064995765686, 0.06352010369300842, 0.033281903713941574, 0.048296328634023666, 0.02501833438873291, -0.0029843098018318415, 0.005445342510938644, -0.019080324098467827, -0.04873691871762276, -0.007308249361813068, -0.01849188841879368, -0.014793219044804573, 0.038656413555145264, -0.012866651639342308, 0.03158069774508476, -0.026596883311867714, -0.014365370385348797, 0.025960450991988182, -0.015723196789622307, 0.0027576179709285498, -0.06095294654369354, -0.015103070065379143, 0.03400850668549538, 0.058377575129270554, 0.054944977164268494, 0.04918765276670456, 0.06628532707691193, 0.04196261614561081, 0.07467178255319595, 0.029395684599876404, 0.03074643388390541, -0.03491334244608879, 0.035811301320791245, 0.023560024797916412, 0.02749677188694477, 0.03701106086373329, -0.001956946449354291, 0.01339237205684185, 0.014411438256502151, 0.032526645809412, 0.021097848191857338, 0.01670030690729618, 0.011569540947675705, 0.026563910767436028, 0.013136904686689377, 0.025784235447645187, -0.04341314733028412, -0.034781139343976974, -0.0533415861427784, -0.027179008349776268, -0.057940538972616196, 0.007655655033886433, -0.058090269565582275, -0.04153183102607727, 0.004490726161748171, 0.0074548316188156605, 0.02952628768980503, 0.03080747462809086, -0.033796533942222595, -0.016042295843362808, -0.007922443561255932, 0.03416666388511658, -0.004767277278006077, 0.03890189528465271, -0.0044722300954163074, -0.026100143790245056, 0.02665555477142334, 0.03732997551560402, -0.00304231233894825, -0.01510167308151722, -0.015664519742131233, -0.0017350800335407257, 0.024153150618076324, 0.004966157954186201, -0.05177491530776024, -0.014781065285205841, -0.050749972462654114, -0.04838524013757706, -0.04147535189986229, -0.022955825552344322, -0.056054238229990005, -0.06141571328043938, -0.055013507604599, -0.05828174203634262, -0.0230470709502697, 0.025777015835046768, 0.006265616975724697, -0.03604786843061447, 0.036380309611558914, 0.011329319328069687, 0.004372146911919117, 0.004710565321147442, -0.0011526617454364896, -0.02511179819703102, -0.004097455181181431, -0.016093717887997627, 0.017653267830610275, -0.00881659984588623, 0.0069433823227882385, 0.024438219144940376, 0.0311170294880867, -0.024413304403424263, 0.01432987954467535, 0.001158792874775827, -0.006705029401928186, -0.04063054919242859, -0.029858354479074478, -0.03071340173482895, -0.020225144922733307, -0.015591267496347427, -0.05906977131962776, -0.031721822917461395, -0.02728809230029583, -0.020844735205173492, -0.02434179000556469, 0.016789618879556656, 0.03486189246177673, 0.027614470571279526, 0.04024394229054451, 0.02057565189898014, -0.00019754284585360438, -0.02058350294828415, 0.039941322058439255, -0.010238704271614552, 0.02654815837740898, -0.033142972737550735, -0.030649127438664436, -0.017467189580202103, -0.026419542729854584, 0.019643452018499374, -0.0021837870590388775, 0.014167715795338154, 0.03305169194936752, 0.023053385317325592, -0.03066120855510235, 0.011610345914959908, -0.01346166618168354, -0.019517961889505386, -0.06710249185562134, -0.052992820739746094, -0.03788500651717186, -0.028021620586514473, -0.04219457507133484, -0.024459030479192734, 0.048622529953718185, 0.06792837381362915, 0.022889651358127594, 0.0020025307312607765, 0.009011632762849331, -0.024144737049937248, -0.013333887793123722, 0.02416652999818325, 0.02643081359565258, 